{"learner":{"attributes":{"scikit_learn":"{\"_estimator_type\": \"classifier\"}"},"feature_names":["department","job_title","salary","engagement_score","years_at_company","manager_id","level","comp_vs_band_pct","months_since_promo","perf_trend","pto_usage","one_on_one_freq","internal_moves"],"feature_types":["int","int","float","float","float","int","int","float","int","float","float","float","int"],"gradient_booster":{"model":{"cats":{"enc":[],"feature_segments":[],"sorted_idx":[]},"gbtree_model_param":{"num_parallel_tree":"1","num_trees":"100"},"iteration_indptr":[0,1,2,3,4,5,6,7,8,9,10,11,12,13,14,15,16,17,18,19,20,21,22,23,24,25,26,27,28,29,30,31,32,33,34,35,36,37,38,39,40,41,42,43,44,45,46,47,48,49,50,51,52,53,54,55,56,57,58,59,60,61,62,63,64,65,66,67,68,69,70,71,72,73,74,75,76,77,78,79,80,81,82,83,84,85,86,87,88,89,90,91,92,93,94,95,96,97,98,99,100],"tree_info":[0,0,0,0,0,0,0,0,0,0,0,0,0,0,0,0,0,0,0,0,0,0,0,0,0,0,0,0,0,0,0,0,0,0,0,0,0,0,0,0,0,0,0,0,0,0,0,0,0,0,0,0,0,0,0,0,0,0,0,0,0,0,0,0,0,0,0,0,0,0,0,0,0,0,0,0,0,0,0,0,0,0,0,0,0,0,0,0,0,0,0,0,0,0,0,0,0,0,0,0],"trees":[{"base_weights":[-7.8216183E-4,1.729733E0,-6.323091E-1,1.6737683E-1,2.9455884E0,-1.05747625E-1,-9.984901E-1,2.5156476E0,-5.6927395E-1,3.547642E0,8.091994E-1,-4.6984872E-1,1.1664159E0,-1.0380622E0,-2.2165184E-1,3.8910512E-2,3.3345097E-1,5.019223E-1,-9.95641E-2,8.513933E-2,3.883305E-1,2.4523643E-1,-5.1329905E-1,-4.609881E-2,-8.9185476E-1,1.9374768E0,9.596936E-2,-1.0583011E-1,-3.9988965E-2,3.8910512E-2,-6.574511E-2,-3.095975E-2,1.2398224E-1,-6.574511E-2,-9.727622E-3,-7.847533E-1,1.0665416E0,-1.02708116E-1,-2.2165184E-1,2.8957535E-2,3.1355363E-1,-6.965944E-2,8.513933E-2,-9.814613E-2,7.7399435E-3,1.7034821E-1,-3.4205828E-2,-6.574511E-2,3.8910512E-2],"categories":[],"categories_nodes":[],"categories_segments":[],"categories_sizes":[],"default_left":[0,0,0,0,0,0,0,0,0,0,0,0,0,0,0,0,0,0,0,0,0,0,0,0,0,0,0,0,0,0,0,0,0,0,0,0,0,0,0,0,0,0,0,0,0,0,0,0,0],"id":0,"left_children":[1,3,5,7,9,11,13,15,17,19,21,23,25,27,29,-1,-1,31,-1,-1,-1,-1,33,35,37,39,41,-1,-1,-1,-1,-1,-1,-1,-1,43,45,-1,47,-1,-1,-1,-1,-1,-1,-1,-1,-1,-1],"loss_changes":[1.1286166E2,5.1957176E1,1.4482775E1,2.4169313E1,1.7023468E1,1.5440721E1,1.1381187E0,4.489361E0,5.441839E0,7.3470764E0,1.14635935E1,4.556549E0,5.9562054E0,1.2027359E-1,1.1684523E0,0E0,0E0,2.6267881E0,0E0,0E0,0E0,0E0,1.4167249E-1,1.2246975E1,9.3486214E-1,7.5293255E0,3.0885475E0,0E0,0E0,0E0,0E0,0E0,0E0,0E0,0E0,1.588728E0,5.932838E0,0E0,1.1684523E0,0E0,0E0,0E0,0E0,0E0,0E0,0E0,0E0,0E0,0E0],"parents":[2147483647,0,0,1,1,2,2,3,3,4,4,5,5,6,6,7,7,8,8,9,9,10,10,11,11,12,12,13,13,14,14,17,17,22,22,23,23,24,24,25,25,26,26,35,35,36,36,38,38],"right_children":[2,4,6,8,10,12,14,16,18,20,22,24,26,28,30,-1,-1,32,-1,-1,-1,-1,34,36,38,40,42,-1,-1,-1,-1,-1,-1,-1,-1,44,46,-1,48,-1,-1,-1,-1,-1,-1,-1,-1,-1,-1],"split_conditions":[9.011441E1,9E0,1.02233154E2,7.603192E1,2.670429E0,2.8E1,3.788908E0,3E0,7.8636605E-1,4.072898E4,7.603192E1,1.9139938E0,3.957791E0,3E0,1.08779495E2,3.8910512E-2,3.3345097E-1,8.532251E1,-9.95641E-2,8.513933E-2,3.883305E-1,2.4523643E-1,2E0,6E0,2.3E1,6.2473286E1,4.1E1,-1.0583011E-1,-3.9988965E-2,3.8910512E-2,-6.574511E-2,-3.095975E-2,1.2398224E-1,-6.574511E-2,-9.727622E-3,2E0,3E0,-1.02708116E-1,8.4928945E4,2.8957535E-2,3.1355363E-1,-6.965944E-2,8.513933E-2,-9.814613E-2,7.7399435E-3,1.7034821E-1,-3.4205828E-2,-6.574511E-2,3.8910512E-2],"split_indices":[7,8,7,7,11,8,11,8,4,2,7,4,4,12,7,0,0,7,0,0,0,0,0,8,8,10,8,0,0,0,0,0,0,0,0,12,0,0,2,0,0,0,0,0,0,0,0,0,0],"split_type":[0,0,0,0,0,0,0,0,0,0,0,0,0,0,0,0,0,0,0,0,0,0,0,0,0,0,0,0,0,0,0,0,0,0,0,0,0,0,0,0,0,0,0,0,0,0,0,0,0],"sum_hessian":[1.0127039E2,2.6611198E1,7.4659195E1,1.2143999E1,1.4467199E1,3.1151999E1,4.35072E1,2.3231997E0,9.820799E0,1.0771199E1,3.6959996E0,2.4710398E1,6.4415994E0,4.1078396E1,2.4287999E0,1.0559999E0,1.2671999E0,2.7455997E0,7.0751996E0,1.5839999E0,9.1872E0,1.2671999E0,2.4287999E0,1.2883199E1,1.1827199E1,3.2735999E0,3.1679997E0,3.9177597E1,1.9007999E0,1.0559999E0,1.3727999E0,1.5839999E0,1.1615999E0,1.3727999E0,1.0559999E0,7.9199996E0,4.9631996E0,9.398399E0,2.4287999E0,1.9007999E0,1.3727999E0,1.5839999E0,1.5839999E0,6.3359995E0,1.5839999E0,3.2735999E0,1.6895999E0,1.3727999E0,1.0559999E0],"tree_param":{"num_deleted":"0","num_feature":"13","num_nodes":"49","size_leaf_vector":"1"}},{"base_weights":[-4.0195037E-2,-8.564388E-1,1.4042149E0,3.1339115E-1,-1.0583622E0,3.013132E0,-3.5622555E-1,-2.3514475E-1,2.1615651E-1,-1.085206E-2,-1.0747172E-1,1.8042206E0,3.941126E-1,7.066285E-1,-1.0270591E-1,1.1889706E0,-8.353513E-1,2.7202723E0,3.0027905E-1,-4.5756232E-2,2.7087134E-1,1.9036111E-1,-1.04801105E-2,-1.0158978E-2,-9.502633E-2,3.3765337E-1,1.2074646E0,-5.410367E-1,1.4629306E-1,-5.6756276E-1,1.4187935E-1,1.97581E-1,-1.610126E-2,-6.986653E-2,-6.458632E-3,-8.764452E-2,3.7888113E-2],"categories":[],"categories_nodes":[],"categories_segments":[],"categories_sizes":[],"default_left":[0,0,0,0,0,0,0,0,0,0,0,0,0,0,0,0,0,0,0,0,0,0,0,0,0,0,0,0,0,0,0,0,0,0,0,0,0],"id":1,"left_children":[1,3,5,7,9,11,13,15,-1,-1,-1,17,-1,19,-1,21,23,25,27,29,-1,-1,-1,-1,-1,-1,31,33,-1,35,-1,-1,-1,-1,-1,-1,-1],"loss_changes":[1.1931665E2,1.5598591E1,1.0460113E2,1.0935416E1,7.431412E-1,1.4432709E1,1.3807849E1,8.543496E0,0E0,0E0,0E0,1.3213104E1,0E0,1.17106905E1,0E0,3.0025334E0,4.7695303E-1,2.0829926E0,5.6617074E0,5.82942E0,0E0,0E0,0E0,0E0,0E0,0E0,3.928793E0,2.2664714E-1,0E0,1.9579289E0,0E0,0E0,0E0,0E0,0E0,0E0,0E0],"parents":[2147483647,0,0,1,1,2,2,3,3,4,4,5,5,6,6,7,7,11,11,13,13,15,15,16,16,17,17,18,18,19,19,26,26,27,27,29,29],"right_children":[2,4,6,8,10,12,14,16,-1,-1,-1,18,-1,20,-1,22,24,26,28,30,-1,-1,-1,-1,-1,-1,32,34,-1,36,-1,-1,-1,-1,-1,-1,-1],"split_conditions":[2.827865E-1,8.208215E1,9.928944E1,3.486512E-2,4.280916E4,6.159314E-1,1.071974E2,7.094871E1,2.1615651E-1,-1.085206E-2,-1.0747172E-1,8.9320404E1,3.941126E-1,9.010689E-1,-1.0270591E-1,7.58E2,1.1468932E1,4.0483505E-1,5.2132267E-1,1.2234337E5,2.7087134E-1,1.9036111E-1,-1.04801105E-2,-1.0158978E-2,-9.502633E-2,3.3765337E-1,6.91E2,2.584041E0,1.4629306E-1,7.564455E1,1.4187935E-1,1.97581E-1,-1.610126E-2,-6.986653E-2,-6.458632E-3,-8.764452E-2,3.7888113E-2],"split_indices":[9,7,7,9,2,9,7,7,0,0,0,7,0,9,0,5,10,9,9,2,0,0,0,0,0,0,5,11,0,10,0,0,0,0,0,0,0],"split_type":[0,0,0,0,0,0,0,0,0,0,0,0,0,0,0,0,0,0,0,0,0,0,0,0,0,0,0,0,0,0,0,0,0,0,0,0,0],"sum_hessian":[9.9182335E1,6.3631115E1,3.5551216E1,9.285305E0,5.434581E1,1.8203205E1,1.7348013E1,7.8331914E0,1.452113E0,1.0491594E0,5.329665E1,9.183688E0,9.019516E0,6.6919985E0,1.0656015E1,2.0316775E0,5.801514E0,5.2047253E0,3.9789631E0,5.574313E0,1.117685E0,1.005116E0,1.0265615E0,1.0406417E0,4.7608724E0,2.7707841E0,2.4339411E0,2.6186867E0,1.3602766E0,4.5615416E0,1.0127721E0,1.2745372E0,1.1594039E0,1.6172423E0,1.0014443E0,3.4949014E0,1.06664E0],"tree_param":{"num_deleted":"0","num_feature":"13","num_nodes":"37","size_leaf_vector":"1"}},{"base_weights":[-2.7870402E-2,-7.637114E-1,1.1058495E0,5.799231E-1,-1.038773E0,1.9982731E0,-7.3935723E-1,-9.449017E-3,2.0757976E-1,-1.339999E-2,-1.0562993E0,3.3677477E-1,1.5755166E0,3.2843584E-1,-1.0110968E-1,-6.256758E-1,9.5025826E-1,-1.0948908E-1,-4.4152427E-1,8.5094345E-1,2.471853E0,-5.8910795E-2,1.0015514E-1,5.073818E-4,-8.771104E-2,-1.988641E-2,1.5759082E-1,-8.024955E-2,4.0368848E-2,-1.1929297E-1,1.3892912E0,3.0682046E0,7.183993E-1,-7.5918995E-2,3.704043E-2,2.6840368E-1,8.090474E-2,8.15921E-2,3.352879E-1,1.6124293E-1,-6.515139E-2],"categories":[],"categories_nodes":[],"categories_segments":[],"categories_sizes":[],"default_left":[0,0,0,0,0,0,0,0,0,0,0,0,0,0,0,0,0,0,0,0,0,0,0,0,0,0,0,0,0,0,0,0,0,0,0,0,0,0,0,0,0],"id":2,"left_children":[1,3,5,7,9,11,13,15,-1,-1,17,-1,19,21,-1,23,25,-1,27,29,31,-1,-1,-1,-1,-1,-1,-1,-1,33,35,37,39,-1,-1,-1,-1,-1,-1,-1,-1],"loss_changes":[8.368989E1,2.307745E1,6.6513504E1,9.695813E0,6.6459274E-1,1.0262192E1,4.2795987E0,5.8395295E0,0E0,0E0,6.9631577E-1,0E0,1.2461586E1,2.7607167E0,0E0,9.566171E-1,3.0920699E0,0E0,1.7313198E0,7.4397974E0,7.729641E0,0E0,0E0,0E0,0E0,0E0,0E0,0E0,0E0,2.127068E0,4.616728E0,1.6135063E0,5.602514E0,0E0,0E0,0E0,0E0,0E0,0E0,0E0,0E0],"parents":[2147483647,0,0,1,1,2,2,3,3,4,4,5,5,6,6,7,7,10,10,12,12,13,13,15,15,16,16,18,18,19,19,20,20,29,29,30,30,31,31,32,32],"right_children":[2,4,6,8,10,12,14,16,-1,-1,18,-1,20,22,-1,24,26,-1,28,30,32,-1,-1,-1,-1,-1,-1,-1,-1,34,36,38,40,-1,-1,-1,-1,-1,-1,-1,-1],"split_conditions":[2.827865E-1,8.317705E1,1.0364638E2,3.486512E-2,4.3970387E4,7.754114E1,1.071974E2,3E0,2.0757976E-1,-1.339999E-2,2.0282145E-1,3.3677477E-1,7.4301445E-1,6.1002976E-1,-1.0110968E-1,1.1264025E0,3.367926E1,-1.0948908E-1,7.1998924E1,3.3472267E1,6.2297287E1,-5.8910795E-2,1.0015514E-1,5.073818E-4,-8.771104E-2,-1.988641E-2,1.5759082E-1,-8.024955E-2,4.0368848E-2,6.461839E4,4.6869273E4,3E0,2.9379294E0,-7.5918995E-2,3.704043E-2,2.6840368E-1,8.090474E-2,8.15921E-2,3.352879E-1,1.6124293E-1,-6.515139E-2],"split_indices":[9,7,7,9,2,7,7,0,0,0,9,0,9,9,0,11,3,0,10,3,3,0,0,0,0,0,0,0,0,2,2,1,4,0,0,0,0,0,0,0,0],"split_type":[0,0,0,0,0,0,0,0,0,0,0,0,0,0,0,0,0,0,0,0,0,0,0,0,0,0,0,0,0,0,0,0,0,0,0,0,0,0,0,0,0],"sum_hessian":[9.830666E1,5.9812027E1,3.8494637E1,9.975392E0,4.9836636E1,2.5890087E1,1.26045475E1,7.8687863E0,2.106606E0,1.1113319E0,4.8725304E1,4.46383E0,2.1426258E1,2.5146518E0,1.0089895E1,5.003866E0,2.8649204E0,4.5112476E1,3.6128273E0,1.2926332E1,8.499926E0,1.1169324E0,1.3977195E0,1.705433E0,3.298433E0,1.250427E0,1.6144934E0,2.567042E0,1.0457852E0,4.890623E0,8.035709E0,5.7832346E0,2.7166913E0,1.8815889E0,3.0090342E0,1.3647425E0,6.6709666E0,1.0827665E0,4.7004676E0,1.5367502E0,1.179941E0],"tree_param":{"num_deleted":"0","num_feature":"13","num_nodes":"41","size_leaf_vector":"1"}},{"base_weights":[4.840818E-2,-9.123922E-1,9.8934275E-1,5.4084845E-2,-9.673066E-1,7.925139E-2,1.9507047E0,-1.0012878E0,-2.8359E-1,9.7859836E-1,-5.5193985E-1,1.216954E0,2.3844414E0,-1.020628E0,-1.5557654E-2,3.928831E-2,-6.931885E-2,-9.959219E-2,2.9923546E-1,-8.701162E-1,1.6546647E-1,2.3571384E0,-3.9367948E-2,7.1188605E-1,2.6331687E0,-1.0836219E-1,-5.851877E-1,-5.661393E-1,5.3809714E-1,5.6702E-3,-1.02720134E-1,-7.972052E-2,9.1600907E-1,2.714E0,3.566803E-2,-4.8042816E-1,7.433681E-2,1.117352E-1,-9.325748E-3,8.798991E-2,2.8916285E0,-4.5529203E-3,-8.863153E-2,3.282017E-2,-8.669164E-2,9.234096E-2,-2.0147597E-2,-1.746629E-2,1.476777E-1,3.0049595E-1,8.410939E-2,-8.172801E-2,3.3942576E-2,3.0767447E-1,7.5364746E-2],"categories":[],"categories_nodes":[],"categories_segments":[],"categories_sizes":[],"default_left":[0,0,0,0,0,0,0,0,0,0,0,0,0,0,0,0,0,0,0,0,0,0,0,0,0,0,0,0,0,0,0,0,0,0,0,0,0,0,0,0,0,0,0,0,0,0,0,0,0,0,0,0,0,0,0],"id":3,"left_children":[1,3,5,-1,7,9,11,13,15,17,19,21,23,25,-1,-1,-1,27,-1,29,31,33,35,37,39,-1,41,43,45,-1,-1,-1,47,49,-1,51,-1,-1,-1,-1,53,-1,-1,-1,-1,-1,-1,-1,-1,-1,-1,-1,-1,-1,-1],"loss_changes":[9.078108E1,4.4901886E0,4.4211014E1,0E0,8.372612E-1,1.59185095E1,4.932701E0,5.8670425E-1,1.2920196E0,2.5338245E1,3.923534E0,1.6118752E1,4.1281204E0,5.832062E-1,0E0,0E0,0E0,2.8272476E0,0E0,1.7515125E0,5.0130663E0,3.230667E0,2.5343256E0,1.1614363E0,2.979805E0,0E0,1.2244122E0,1.732772E0,1.3530227E0,0E0,0E0,0E0,2.5796754E0,1.0994339E-1,0E0,1.5591074E0,0E0,0E0,0E0,0E0,1.7129745E0,0E0,0E0,0E0,0E0,0E0,0E0,0E0,0E0,0E0,0E0,0E0,0E0,0E0,0E0],"parents":[2147483647,0,0,1,1,2,2,4,4,5,5,6,6,7,7,8,8,9,9,10,10,11,11,12,12,13,13,17,17,19,19,20,20,21,21,22,22,23,23,24,24,26,26,27,27,28,28,32,32,33,33,35,35,40,40],"right_children":[2,4,6,-1,8,10,12,14,16,18,20,22,24,26,-1,-1,-1,28,-1,30,32,34,36,38,40,-1,42,44,46,-1,-1,-1,48,50,-1,52,-1,-1,-1,-1,54,-1,-1,-1,-1,-1,-1,-1,-1,-1,-1,-1,-1,-1,-1],"split_conditions":[1.012266E-1,3.9447926E4,1.5E1,5.4084845E-2,3.486512E-2,1.0935781E0,2.5E1,4.4E1,2.525951E1,5E0,7.4301445E-1,2.5951614E0,2.746875E1,4E0,-1.5557654E-2,3.928831E-2,-6.931885E-2,6.444223E-1,2.9923546E-1,1.3682021E0,5.205271E1,7.725348E1,2.7912188E0,1.5825872E0,2.880529E-1,-1.0836219E-1,2.0963583E0,5.5752176E4,4.2456123E1,5.6702E-3,-1.02720134E-1,-7.972052E-2,5E0,1E0,3.566803E-2,7.532595E1,7.433681E-2,1.117352E-1,-9.325748E-3,8.798991E-2,3.4376903E0,-4.5529203E-3,-8.863153E-2,3.282017E-2,-8.669164E-2,9.234096E-2,-2.0147597E-2,-1.746629E-2,1.476777E-1,3.0049595E-1,8.410939E-2,-8.172801E-2,3.3942576E-2,3.0767447E-1,7.5364746E-2],"split_indices":[9,2,8,0,9,4,8,8,10,8,9,4,3,0,0,0,0,9,0,4,10,10,11,11,9,0,4,2,10,0,0,0,8,12,0,10,0,0,0,0,11,0,0,0,0,0,0,0,0,0,0,0,0,0,0],"split_type":[0,0,0,0,0,0,0,0,0,0,0,0,0,0,0,0,0,0,0,0,0,0,0,0,0,0,0,0,0,0,0,0,0,0,0,0,0,0,0,0,0,0,0,0,0,0,0,0,0,0,0,0,0,0,0],"sum_hessian":[9.8417496E1,4.8709717E1,4.9707783E1,1.4513968E0,4.725832E1,2.6090837E1,2.3616945E1,4.4578266E1,2.6800523E0,1.0532831E1,1.5558005E1,1.0187883E1,1.3429062E1,4.3379417E1,1.1988466E0,1.0261393E0,1.653913E0,7.4790154E0,3.0538154E0,1.0630443E1,4.9275627E0,4.881458E0,5.306425E0,2.238499E0,1.1190563E1,3.659654E1,6.7828817E0,4.3838787E0,3.095137E0,1.6332338E0,8.997209E0,2.1314807E0,2.7960823E0,3.8397887E0,1.0416692E0,3.6409967E0,1.6654284E0,1.2308713E0,1.0076276E0,2.003584E0,9.186979E0,2.841591E0,3.9412906E0,1.0803498E0,3.3035288E0,1.8715179E0,1.223619E0,1.1832453E0,1.6128368E0,2.8003178E0,1.0394708E0,2.5829031E0,1.0580937E0,8.050814E0,1.1361651E0],"tree_param":{"num_deleted":"0","num_feature":"13","num_nodes":"55","size_leaf_vector":"1"}},{"base_weights":[5.627393E-2,7.879213E-1,-7.507442E-1,4.1948613E-2,1.5994257E0,-9.475217E-1,1.2798332E-1,6.85353E-1,-8.7980855E-1,1.7826227E0,1.5204872E-1,-6.838858E-1,-1.05489664E-1,8.5906637E-1,-8.6261675E-2,-6.148185E-1,1.2487538E0,2.2987204E-2,-1.0258221E-1,2.3587575E0,1.215164E0,6.5751135E-2,-5.9010714E-2,-2.0014914E-2,-9.1094035E-1,-2.2654548E-2,1.2327918E0,-1.0366535E-3,-8.6693875E-2,1.7473404E0,2.1297583E-1,2.5892036E0,3.161383E-2,4.2212117E-1,2.4597232E-1,-7.694613E-2,1.0930707E-1,-9.023766E-3,-9.935731E-2,2.8740106E-2,1.749734E-1,2.174708E-1,4.315014E-2,8.009011E-2,-6.814935E-2,7.50925E-2,2.7708367E-1,1.0922104E-1,-6.399134E-2],"categories":[],"categories_nodes":[],"categories_segments":[],"categories_sizes":[],"default_left":[0,0,0,0,0,0,0,0,0,0,0,0,0,0,0,0,0,0,0,0,0,0,0,0,0,0,0,0,0,0,0,0,0,0,0,0,0,0,0,0,0,0,0,0,0,0,0,0,0],"id":4,"left_children":[1,3,5,7,9,11,13,15,17,19,21,23,-1,25,-1,27,29,-1,-1,31,33,-1,-1,35,37,-1,39,-1,-1,41,43,45,-1,47,-1,-1,-1,-1,-1,-1,-1,-1,-1,-1,-1,-1,-1,-1,-1],"loss_changes":[5.770173E1,3.0938389E1,8.162533E0,1.7038864E1,6.22649E0,3.5752106E-1,7.541092E0,1.3135028E1,2.1526556E0,4.214531E0,1.8309019E0,2.0730948E0,0E0,2.6744542E0,0E0,8.7098145E-1,5.8812313E0,0E0,0E0,3.740036E0,1.1766779E1,0E0,0E0,4.6436343E0,6.0993195E-1,0E0,1.7192469E0,0E0,0E0,3.580286E0,3.2139037E0,7.785988E-1,0E0,7.197469E0,0E0,0E0,0E0,0E0,0E0,0E0,0E0,0E0,0E0,0E0,0E0,0E0,0E0,0E0,0E0],"parents":[2147483647,0,0,1,1,2,2,3,3,4,4,5,5,6,6,7,7,8,8,9,9,10,10,11,11,13,13,15,15,16,16,19,19,20,20,23,23,24,24,26,26,29,29,30,30,31,31,33,33],"right_children":[2,4,6,8,10,12,14,16,18,20,22,24,-1,26,-1,28,30,-1,-1,32,34,-1,-1,36,38,-1,40,-1,-1,42,44,46,-1,48,-1,-1,-1,-1,-1,-1,-1,-1,-1,-1,-1,-1,-1,-1,-1],"split_conditions":[9.6743034E1,1.5E1,3E1,1.56389E0,1.306E3,1.0364638E2,1.071974E2,2E0,7.063992E1,3.1199925E0,1.2E1,1.4373083E0,-1.05489664E-1,3.7685596E1,-8.6261675E-2,7E0,1.0539654E0,2.2987204E-2,-1.0258221E-1,3.123093E0,3.7E1,6.5751135E-2,-5.9010714E-2,6E0,1.6897215E1,-2.2654548E-2,3.9E1,-1.0366535E-3,-8.6693875E-2,8.668346E1,2.3304038E0,7.7631884E0,3.161383E-2,8.813677E1,2.4597232E-1,-7.694613E-2,1.0930707E-1,-9.023766E-3,-9.935731E-2,2.8740106E-2,1.749734E-1,2.174708E-1,4.315014E-2,8.009011E-2,-6.814935E-2,7.50925E-2,2.7708367E-1,1.0922104E-1,-6.399134E-2],"split_indices":[7,8,8,4,5,7,7,8,7,4,1,4,0,3,0,1,4,0,0,11,8,0,0,8,10,0,8,0,0,7,11,3,0,7,0,0,0,0,0,0,0,0,0,0,0,0,0,0,0],"split_type":[0,0,0,0,0,0,0,0,0,0,0,0,0,0,0,0,0,0,0,0,0,0,0,0,0,0,0,0,0,0,0,0,0,0,0,0,0,0,0,0,0,0,0,0,0,0,0,0,0],"sum_hessian":[9.572273E1,5.0218246E1,4.550449E1,2.6713573E1,2.3504671E1,3.7114895E1,8.389595E0,1.5883238E1,1.0830337E1,2.0658293E1,2.8463778E0,1.2874204E1,2.4240692E1,4.9034963E0,3.4860985E0,4.774278E0,1.110896E1,1.1925805E0,9.637756E0,8.684406E0,1.19738865E1,1.7610354E0,1.0853424E0,3.5583403E0,9.315864E0,1.3566029E0,3.5468934E0,1.7116817E0,3.0625963E0,7.03539E0,4.07357E0,7.563509E0,1.1208972E0,8.131564E0,3.842322E0,2.311027E0,1.2473134E0,1.0435388E0,8.272325E0,1.803886E0,1.7430073E0,4.8178873E0,2.2175028E0,2.5210907E0,1.5524789E0,1.1418036E0,6.4217057E0,4.968367E0,3.1631975E0],"tree_param":{"num_deleted":"0","num_feature":"13","num_nodes":"49","size_leaf_vector":"1"}},{"base_weights":[2.0949692E-2,7.1933293E-1,-6.708282E-1,1.9352093E0,4.5293692E-1,-3.0394104E-1,-1.0440125E-1,2.2245345E0,1.7266823E-2,7.799327E-1,-2.1061529E-1,-5.360331E-1,4.0268216E-1,8.170068E-2,2.4462023E-1,1.16171956E-1,1.1473922E0,3.79266E-1,-4.336061E-1,-5.296068E-2,-8.0584806E-1,7.5788164E-1,-6.345792E-2,4.1137072E-1,-7.7635095E-2,-1.9994322E-2,1.254154E0,-1.875447E-2,6.5198773E-1,4.734219E-2,-6.256177E-1,8.7529354E-2,-2.9933915E-1,-9.407575E-1,3.7846617E-2,-5.6138266E-2,1.1599269E0,6.50874E-2,-3.871371E-2,1.4976664E-1,6.390648E-2,1.820068E-2,8.548836E-2,-7.717571E-2,1.6978776E-2,-7.0106894E-2,3.9095897E-2,-1.0084496E-1,-1.1909804E-2,1.011709E-2,1.627162E-1],"categories":[],"categories_nodes":[],"categories_segments":[],"categories_sizes":[],"default_left":[0,0,0,0,0,0,0,0,0,0,0,0,0,0,0,0,0,0,0,0,0,0,0,0,0,0,0,0,0,0,0,0,0,0,0,0,0,0,0,0,0,0,0,0,0,0,0,0,0,0,0],"id":5,"left_children":[1,3,5,7,9,11,-1,13,-1,15,17,19,21,-1,-1,23,25,27,29,31,33,35,-1,37,-1,-1,39,-1,41,-1,43,-1,45,47,-1,-1,49,-1,-1,-1,-1,-1,-1,-1,-1,-1,-1,-1,-1,-1,-1],"loss_changes":[4.7878994E1,1.50924015E1,6.5014477E0,3.9784584E0,9.222345E0,4.565789E0,0E0,2.6798248E-1,0E0,6.7394333E0,2.0807688E0,2.6155934E0,3.1074605E0,0E0,0E0,3.2579737E0,2.8434658E0,8.2252055E-1,2.2186623E0,2.1783774E0,2.435606E0,3.7095315E0,0E0,1.9798704E0,0E0,0E0,1.5650082E0,0E0,1.5734625E-1,0E0,1.2400606E0,0E0,2.3170376E0,5.4574394E-1,0E0,0E0,2.1829019E0,0E0,0E0,0E0,0E0,0E0,0E0,0E0,0E0,0E0,0E0,0E0,0E0,0E0,0E0],"parents":[2147483647,0,0,1,1,2,2,3,3,4,4,5,5,7,7,9,9,10,10,11,11,12,12,15,15,16,16,17,17,18,18,19,19,20,20,21,21,23,23,26,26,28,28,30,30,32,32,33,33,36,36],"right_children":[2,4,6,8,10,12,-1,14,-1,16,18,20,22,-1,-1,24,26,28,30,32,34,36,-1,38,-1,-1,40,-1,42,-1,44,-1,46,48,-1,-1,50,-1,-1,-1,-1,-1,-1,-1,-1,-1,-1,-1,-1,-1,-1],"split_conditions":[9.519422E1,7.230141E1,1.071974E2,1.187E3,2.3603735E0,2E0,-1.0440125E-1,3.0274757E1,1.7266823E-2,9.548032E-1,1E0,9E0,3.9066093E0,8.170068E-2,2.4462023E-1,1.222E3,7.655449E1,1.1E1,2.31E2,1.7E2,9.2614265E1,9.812238E1,-6.345792E-2,4.033325E0,-7.7635095E-2,-1.9994322E-2,8.842342E1,-1.875447E-2,1.006E3,4.734219E-2,4E0,8.7529354E-2,2.153358E0,4.5411425E0,3.7846617E-2,-5.6138266E-2,2.0825222E0,6.50874E-2,-3.871371E-2,1.4976664E-1,6.390648E-2,1.820068E-2,8.548836E-2,-7.717571E-2,1.6978776E-2,-7.0106894E-2,3.9095897E-2,-1.0084496E-1,-1.1909804E-2,1.011709E-2,1.627162E-1],"split_indices":[7,7,7,5,11,12,0,3,0,11,6,1,4,0,0,5,7,1,5,5,3,7,0,4,0,0,7,0,5,0,0,0,11,4,0,0,4,0,0,0,0,0,0,0,0,0,0,0,0,0,0],"split_type":[0,0,0,0,0,0,0,0,0,0,0,0,0,0,0,0,0,0,0,0,0,0,0,0,0,0,0,0,0,0,0,0,0,0,0,0,0,0,0,0,0,0,0,0,0,0,0,0,0,0,0],"sum_hessian":[9.7103676E1,4.830132E1,4.8802353E1,7.5549316E0,4.0746387E1,2.5523748E1,2.3278605E1,6.2644844E0,1.2904469E0,2.7177862E1,1.3568527E1,1.9394873E1,6.1288757E0,1.4898826E0,4.774602E0,1.0153403E1,1.7024458E1,3.5299299E0,1.0038597E1,7.379327E0,1.2015545E1,4.7661133E0,1.3627627E0,8.034961E0,2.1184425E0,1.1858759E0,1.5838582E1,1.2481537E0,2.2817762E0,1.4977778E0,8.540819E0,1.0123949E0,6.366932E0,1.0971406E1,1.0441399E0,1.0206506E0,3.7454624E0,6.323259E0,1.7117018E0,1.0318595E1,5.5199876E0,1.2600607E0,1.0217154E0,7.2402954E0,1.300524E0,4.0148335E0,2.3520985E0,9.926299E0,1.0451063E0,1.5192864E0,2.226176E0],"tree_param":{"num_deleted":"0","num_feature":"13","num_nodes":"51","size_leaf_vector":"1"}},{"base_weights":[6.9886364E-2,-8.326665E-1,8.1385344E-1,7.941742E-2,-1.0346172E0,1.3150489E0,-7.2201365E-1,4.784363E-1,-7.870855E-2,-1.0607573E-1,-1.0112135E-2,1.4435676E-1,1.813621E0,1.0709449E-1,-9.816513E-2,-5.826783E-2,7.7927345E-1,8.2621056E-1,-6.7964804E-1,2.1097562E0,7.5227934E-1,-6.922449E-2,9.326165E-2,-1.0214339E-2,1.2713304E0,-7.4119695E-2,1.3411517E0,-9.340144E-2,3.060395E-2,2.72997E-1,1.7005786E0,-7.3926695E-2,1.371933E0,1.9691846E-1,9.953969E-3,2.0285752E-1,-8.743432E-3,-6.59906E-2,1.9542529E-1,1.588872E-2,2.0275477E-1],"categories":[],"categories_nodes":[],"categories_segments":[],"categories_sizes":[],"default_left":[0,0,0,0,0,0,0,0,0,0,0,0,0,0,0,0,0,0,0,0,0,0,0,0,0,0,0,0,0,0,0,0,0,0,0,0,0,0,0,0,0],"id":6,"left_children":[1,3,5,7,9,11,13,15,-1,-1,-1,17,19,21,-1,-1,23,25,27,29,31,-1,-1,-1,33,-1,35,-1,-1,-1,37,-1,39,-1,-1,-1,-1,-1,-1,-1,-1],"loss_changes":[6.411339E1,8.035957E0,4.1202137E1,3.4041498E0,7.571602E-1,2.2957024E1,3.0136871E0,2.566535E0,0E0,0E0,0E0,7.847622E0,7.154335E0,3.3667421E0,0E0,0E0,2.5515237E0,7.085755E0,1.8956528E0,7.3526E-1,8.058329E0,0E0,0E0,0E0,2.7949758E0,0E0,6.105941E0,0E0,0E0,0E0,1.0522835E1,0E0,4.238593E0,0E0,0E0,0E0,0E0,0E0,0E0,0E0,0E0],"parents":[2147483647,0,0,1,1,2,2,3,3,4,4,5,5,6,6,7,7,11,11,12,12,13,13,16,16,17,17,18,18,19,19,20,20,24,24,26,26,30,30,32,32],"right_children":[2,4,6,8,10,12,14,16,-1,-1,-1,18,20,22,-1,-1,24,26,28,30,32,-1,-1,-1,34,-1,36,-1,-1,-1,38,-1,40,-1,-1,-1,-1,-1,-1,-1,-1],"split_conditions":[1.012266E-1,8.264325E1,1.0364638E2,7.0540886E1,4.4E1,7E0,1.071974E2,9E0,-7.870855E-2,-1.0607573E-1,-1.0112135E-2,9.846285E-1,9.6743034E1,1.6E1,-9.816513E-2,-5.826783E-2,7E0,1E0,6.948123E-1,1.9139938E0,5.0563407E-1,-6.922449E-2,9.326165E-2,-1.0214339E-2,2.9379294E0,-7.4119695E-2,8.842342E1,-9.340144E-2,3.060395E-2,2.72997E-1,1.2E1,-7.3926695E-2,2.5E1,1.9691846E-1,9.953969E-3,2.0285752E-1,-8.743432E-3,-6.59906E-2,1.9542529E-1,1.588872E-2,2.0275477E-1],"split_indices":[9,7,7,10,8,8,7,1,0,0,0,4,7,8,0,0,8,8,9,4,9,0,0,0,4,0,7,0,0,0,8,0,8,0,0,0,0,0,0,0,0],"split_type":[0,0,0,0,0,0,0,0,0,0,0,0,0,0,0,0,0,0,0,0,0,0,0,0,0,0,0,0,0,0,0,0,0,0,0,0,0,0,0,0,0],"sum_hessian":[9.347295E1,4.218115E1,5.129181E1,7.756531E0,3.4424618E1,3.8780457E1,1.2511352E1,5.6175427E0,2.1389878E0,3.335429E1,1.0703269E0,1.1968015E1,2.681244E1,3.123742E0,9.3876095E0,1.0339018E0,4.583641E0,6.547425E0,5.42059E0,2.019095E1,6.621492E0,1.6690624E0,1.4546797E0,1.9260113E0,2.6576297E0,1.5104494E0,5.0369754E0,4.3503604E0,1.0702296E0,5.771268E0,1.4419682E1,1.886803E0,4.7346888E0,1.2391615E0,1.4184682E0,3.1170766E0,1.9198986E0,1.2438686E0,1.3175814E1,2.0970278E0,2.637661E0],"tree_param":{"num_deleted":"0","num_feature":"13","num_nodes":"41","size_leaf_vector":"1"}},{"base_weights":[6.660186E-2,-8.868414E-1,8.2185256E-1,-3.0891526E-1,-1.049248E-1,1.3150064E0,-6.02846E-1,-6.107966E-1,1.10466875E-1,1.988888E-2,1.7490207E0,1.590138E-1,-9.6688285E-2,-8.475206E-1,2.3353655E-2,1.3957167E-1,-4.8882902E-1,2.43116E-1,1.3948592E0,-7.178183E-2,8.265161E-1,-1.4514255E-2,-9.589362E-2,-6.14968E-2,6.595449E-2,4.911754E-2,-8.5262984E-1,-1.6918217E-1,1.9177092E0,1.7078736E-1,-2.8221983E-2,-1.5541054E-2,-9.505486E-2,8.781731E-2,-6.0717583E-2,2.1398962E-1,1.0950639E-1],"categories":[],"categories_nodes":[],"categories_segments":[],"categories_sizes":[],"default_left":[0,0,0,0,0,0,0,0,0,0,0,0,0,0,0,0,0,0,0,0,0,0,0,0,0,0,0,0,0,0,0,0,0,0,0,0,0],"id":7,"left_children":[1,3,5,7,-1,9,11,13,-1,15,17,19,-1,21,23,-1,25,-1,27,-1,29,-1,-1,-1,-1,-1,31,33,35,-1,-1,-1,-1,-1,-1,-1,-1],"loss_changes":[6.7518524E1,3.5689354E0,3.7520363E1,5.16237E0,0E0,2.196962E1,4.0719056E0,1.4173324E0,0E0,8.267455E0,3.6896667E0,3.7693975E0,0E0,3.9341402E-1,1.8284509E0,0E0,3.5036519E0,0E0,1.8019745E1,0E0,3.9469993E0,0E0,0E0,0E0,0E0,0E0,3.0802393E-1,3.4417276E0,6.357193E-1,0E0,0E0,0E0,0E0,0E0,0E0,0E0,0E0],"parents":[2147483647,0,0,1,1,2,2,3,3,5,5,6,6,7,7,9,9,10,10,11,11,13,13,14,14,16,16,18,18,20,20,26,26,27,27,28,28],"right_children":[2,4,6,8,-1,10,12,14,-1,16,18,20,-1,22,24,-1,26,-1,28,-1,30,-1,-1,-1,-1,-1,32,34,36,-1,-1,-1,-1,-1,-1,-1,-1],"split_conditions":[1.012266E-1,8.507239E1,1.02233154E2,3.8E1,-1.049248E-1,6E0,1.071974E2,8.088652E1,1.10466875E-1,7.603192E1,1.9327025E0,1.5E1,-9.6688285E-2,7.1297073E-1,-3.684087E-1,1.3957167E-1,3.4522954E-1,2.43116E-1,2.1E1,-7.178183E-2,3.1131527E0,-1.4514255E-2,-9.589362E-2,-6.14968E-2,6.595449E-2,4.911754E-2,6.112232E-1,7.230141E1,1.5E1,1.7078736E-1,-2.8221983E-2,-1.5541054E-2,-9.505486E-2,8.781731E-2,-6.0717583E-2,2.1398962E-1,1.0950639E-1],"split_indices":[9,7,7,8,0,8,7,7,0,7,4,8,0,4,9,0,4,0,8,0,4,0,0,0,0,0,11,7,1,0,0,0,0,0,0,0,0],"split_type":[0,0,0,0,0,0,0,0,0,0,0,0,0,0,0,0,0,0,0,0,0,0,0,0,0,0,0,0,0,0,0,0,0,0,0,0,0],"sum_hessian":[9.175201E1,4.0477802E1,5.12742E1,9.516237E0,3.0961565E1,3.8146824E1,1.3127378E1,8.309575E0,1.2066619E0,9.837404E0,2.8309418E1,4.4265804E0,8.700798E0,5.805831E0,2.5037441E0,2.184858E0,7.6525464E0,7.6706557E0,2.0638763E1,1.8807045E0,2.5458758E0,1.1101322E0,4.6956987E0,1.2664315E0,1.2373127E0,1.9769444E0,5.675602E0,5.34031E0,1.5298453E1,1.1173177E0,1.4285582E0,1.0175303E0,4.658072E0,1.2783813E0,4.0619287E0,1.0784459E1,4.5139937E0],"tree_param":{"num_deleted":"0","num_feature":"13","num_nodes":"37","size_leaf_vector":"1"}},{"base_weights":[-5.9821336E-3,-7.9392666E-1,5.9374225E-1,-1.13598146E-1,-1.03695765E-1,8.9731616E-1,-9.4911925E-2,-5.9484154E-1,6.217853E-1,1.7536919E-1,6.994351E-1,-9.372594E-2,4.082043E-2,1.0155627E0,-2.438671E-2,3.3324754E-1,1.295905E0,1.4788763E-1,-9.3822265E-3,7.138995E-1,-5.10795E-1,-2.2090208E-2,1.4402535E0,-2.9932057E-2,8.155894E-2,-6.8421476E-2,3.021485E-2,4.4649605E-2,1.6973685E-1],"categories":[],"categories_nodes":[],"categories_segments":[],"categories_sizes":[],"default_left":[0,0,0,0,0,0,0,0,0,0,0,0,0,0,0,0,0,0,0,0,0,0,0,0,0,0,0,0,0],"id":8,"left_children":[1,3,5,7,-1,9,-1,11,13,-1,15,-1,-1,17,-1,19,21,-1,-1,23,25,-1,27,-1,-1,-1,-1,-1,-1],"loss_changes":[4.225102E1,6.27071E0,2.4633184E1,4.3663573E0,0E0,6.0501976E0,0E0,2.9025397E0,1.9369824E0,0E0,7.5501823E0,0E0,0E0,1.9891098E0,0E0,8.072127E0,3.2860184E0,0E0,0E0,1.9905806E0,1.3400986E0,0E0,2.4386005E0,0E0,0E0,0E0,0E0,0E0,0E0],"parents":[2147483647,0,0,1,1,2,2,3,3,5,5,7,7,8,8,10,10,13,13,15,15,16,16,19,19,20,20,22,22],"right_children":[2,4,6,8,-1,10,-1,12,14,-1,16,-1,-1,18,-1,20,22,-1,-1,24,26,-1,28,-1,-1,-1,-1,-1,-1],"split_conditions":[1.012266E-1,8.507239E1,1.071974E2,3E0,-1.03695765E-1,7.754114E1,-9.4911925E-2,-1.7359324E-1,7.8834145E1,1.7536919E-1,7.4301445E-1,-9.372594E-2,4.082043E-2,2.2471914E0,-2.438671E-2,9.6743034E1,4.3970387E4,1.4788763E-1,-9.3822265E-3,1.11E2,1.2234337E5,-2.2090208E-2,9.8091984E-1,-2.9932057E-2,8.155894E-2,-6.8421476E-2,3.021485E-2,4.4649605E-2,1.6973685E-1],"split_indices":[9,7,7,0,0,7,0,9,7,0,9,0,0,11,0,7,2,0,0,5,2,0,11,0,0,0,0,0,0],"split_type":[0,0,0,0,0,0,0,0,0,0,0,0,0,0,0,0,0,0,0,0,0,0,0,0,0,0,0,0,0],"sum_hessian":[8.741322E1,3.76384E1,4.977482E1,1.0292771E1,2.734563E1,4.1940918E1,7.8338995E0,6.336927E0,3.9558442E0,6.3964515E0,3.5544468E1,4.7730865E0,1.5638404E0,2.5999668E0,1.3558775E0,2.2989407E1,1.2555061E1,1.599081E0,1.0008856E0,1.5950247E1,7.039159E0,1.0449057E0,1.1510156E1,1.2775459E0,1.4672701E1,5.932061E0,1.1070977E0,2.9283907E0,8.581765E0],"tree_param":{"num_deleted":"0","num_feature":"13","num_nodes":"29","size_leaf_vector":"1"}},{"base_weights":[-1.4991078E-2,2.1121705E-1,-9.938552E-2,-2.6908785E-1,7.572167E-1,8.0053955E-1,-4.7463432E-1,1.2714777E0,4.841735E-1,1.1269404E0,-1.1516449E-2,-8.335213E-1,-8.8864714E-2,1.5074118E0,4.4642073E-1,2.4633121E-1,1.2469475E0,1.1113932E-2,1.4466473E-1,-3.0827937E-1,-9.6313494E-1,-5.8051825E-1,1.0740495E-1,1.6229387E-1,4.97302E-2,8.913336E-2,-1.1440954E-2,4.9547978E-2,1.1134213E0,2.9461304E-2,1.4028886E-1,2.33388E-2,-7.349198E-2,-1.0306485E-1,-9.303646E-3,-3.7483934E-3,-8.071569E-2,4.4233847E-2,-2.6100004E-2,-2.3957592E-2,7.936054E-2,1.3212578E-1,3.0325396E-2],"categories":[],"categories_nodes":[],"categories_segments":[],"categories_sizes":[],"default_left":[0,0,0,0,0,0,0,0,0,0,0,0,0,0,0,0,0,0,0,0,0,0,0,0,0,0,0,0,0,0,0,0,0,0,0,0,0,0,0,0,0,0,0],"id":9,"left_children":[1,3,-1,5,7,9,11,13,15,17,-1,19,21,23,25,27,29,-1,-1,31,33,35,37,-1,-1,-1,-1,39,41,-1,-1,-1,-1,-1,-1,-1,-1,-1,-1,-1,-1,-1,-1],"loss_changes":[1.9196585E1,1.8685759E1,0E0,8.785423E0,4.0524197E0,2.082932E0,4.45269E0,1.4516582E0,3.925363E0,1.4338698E0,0E0,8.481064E-1,1.6909657E0,1.3424492E-1,1.0620878E0,3.1920228E0,3.7367344E-1,0E0,0E0,1.2807229E0,6.689167E-1,5.8158565E-1,1.7079415E0,0E0,0E0,0E0,0E0,3.7519956E0,1.842022E-1,0E0,0E0,0E0,0E0,0E0,0E0,0E0,0E0,0E0,0E0,0E0,0E0,0E0,0E0],"parents":[2147483647,0,0,1,1,3,3,4,4,5,5,6,6,7,7,8,8,9,9,11,11,12,12,13,13,14,14,15,15,16,16,19,19,20,20,21,21,22,22,27,27,28,28],"right_children":[2,4,-1,6,8,10,12,14,16,18,-1,20,22,24,26,28,30,-1,-1,32,34,36,38,-1,-1,-1,-1,40,42,-1,-1,-1,-1,-1,-1,-1,-1,-1,-1,-1,-1,-1,-1],"split_conditions":[1.071974E2,1.6E1,-9.938552E-2,7.4471466E1,8.380236E1,1.065E3,6E0,1.141E3,4.1E1,3.55E2,-1.1516449E-2,4E0,7.7097404E-1,2.52302E0,5.365479E4,8.7875015E1,4.15E2,1.1113932E-2,1.4466473E-1,4.2456123E1,8.7324394E1,5.9441188E4,2.3304038E0,1.6229387E-1,4.97302E-2,8.913336E-2,-1.1440954E-2,4E0,1.3E1,2.9461304E-2,1.4028886E-1,2.33388E-2,-7.349198E-2,-1.0306485E-1,-9.303646E-3,-3.7483934E-3,-8.071569E-2,4.4233847E-2,-2.6100004E-2,-2.3957592E-2,7.936054E-2,1.3212578E-1,3.0325396E-2],"split_indices":[7,8,0,7,7,5,8,5,8,5,0,1,11,11,2,10,5,0,0,10,10,2,11,0,0,0,0,0,1,0,0,0,0,0,0,0,0,0,0,0,0,0,0],"split_type":[0,0,0,0,0,0,0,0,0,0,0,0,0,0,0,0,0,0,0,0,0,0,0,0,0,0,0,0,0,0,0,0,0,0,0,0,0,0,0,0,0,0,0],"sum_hessian":[8.474683E1,6.947574E1,1.5271095E1,3.7231285E1,3.224445E1,5.534748E0,3.1696539E1,9.914455E0,2.2329992E1,3.9102616E0,1.6244866E0,1.5819117E1,1.5877421E1,7.0666347E0,2.847821E0,1.8030731E1,4.2992616E0,1.2586849E0,2.6515768E0,3.7997177E0,1.2019399E1,3.9713845E0,1.1906037E1,5.7969394E0,1.2696949E0,1.259408E0,1.5884131E0,1.5557216E1,2.4735157E0,1.0114682E0,3.2877936E0,1.8737489E0,1.9259689E0,1.0982699E1,1.0366993E0,1.5125798E0,2.4588046E0,6.1312013E0,5.7748356E0,1.1691987E1,3.8652282E0,1.4664695E0,1.0070462E0],"tree_param":{"num_deleted":"0","num_feature":"13","num_nodes":"43","size_leaf_vector":"1"}},{"base_weights":[-7.5700143E-3,-7.0928746E-1,6.665532E-1,8.991304E-2,-9.8086697E-1,9.1336256E-1,-8.958396E-2,-4.3536094E-1,9.8472226E-1,-1.03919804E-1,1.0021719E-2,-3.2386458E-1,1.1845915E0,9.045372E-2,-6.455901E-1,6.010534E-3,1.390817E-1,6.700583E-2,-5.784365E-1,5.0946116E-1,1.3691278E0,-6.097131E-2,7.691663E-2,-8.980587E-2,3.4396672E-3,-7.914934E-1,1.9019412E-2,8.3877295E-1,-6.684398E-2,7.4808407E-3,1.4280485E0,-9.0011455E-2,-1.7201062E-2,1.7631653E-3,1.32561E-1,2.3130288E-2,1.5008518E-1],"categories":[],"categories_nodes":[],"categories_segments":[],"categories_sizes":[],"default_left":[0,0,0,0,0,0,0,0,0,0,0,0,0,0,0,0,0,0,0,0,0,0,0,0,0,0,0,0,0,0,0,0,0,0,0,0,0],"id":10,"left_children":[1,3,5,7,9,11,-1,13,15,-1,-1,17,19,21,23,-1,-1,-1,25,27,29,-1,-1,-1,-1,31,-1,33,-1,-1,35,-1,-1,-1,-1,-1,-1],"loss_changes":[4.084307E1,9.269129E0,1.7801435E1,5.9017777E0,2.10034E0,1.3312927E1,0E0,9.4611585E-1,1.6487632E0,0E0,0E0,2.339179E0,3.2663155E0,1.9757841E0,1.036876E0,0E0,0E0,0E0,1.2439809E0,3.8276377E0,1.7534904E0,0E0,0E0,0E0,0E0,2.0998716E-1,0E0,2.785184E0,0E0,0E0,1.680851E0,0E0,0E0,0E0,0E0,0E0,0E0],"parents":[2147483647,0,0,1,1,2,2,3,3,4,4,5,5,7,7,8,8,11,11,12,12,13,13,14,14,18,18,19,19,20,20,25,25,27,27,30,30],"right_children":[2,4,6,8,10,12,-1,14,16,-1,-1,18,20,22,24,-1,-1,-1,26,28,30,-1,-1,-1,-1,32,-1,34,-1,-1,36,-1,-1,-1,-1,-1,-1],"split_conditions":[2.827865E-1,8.317705E1,1.071974E2,2.6E1,1.431E3,4E0,-8.958396E-2,3.7287033E1,-2.9000992E-1,-1.03919804E-1,1.0021719E-2,7.655449E1,4.3835604E-1,7E0,5.95479E1,6.010534E-3,1.390817E-1,6.700583E-2,1.0306565E5,9.584992E1,1E0,-6.097131E-2,7.691663E-2,-8.980587E-2,3.4396672E-3,7.31608E1,1.9019412E-2,1.4E1,-6.684398E-2,7.4808407E-3,8.7866335E0,-9.0011455E-2,-1.7201062E-2,1.7631653E-3,1.32561E-1,2.3130288E-2,1.5008518E-1],"split_indices":[9,7,7,8,5,8,0,10,9,0,0,7,9,8,3,0,0,0,2,7,1,0,0,0,0,3,0,8,0,0,10,0,0,0,0,0,0],"split_type":[0,0,0,0,0,0,0,0,0,0,0,0,0,0,0,0,0,0,0,0,0,0,0,0,0,0,0,0,0,0,0,0,0,0,0,0,0],"sum_hessian":[8.434151E1,4.1299404E1,4.30421E1,1.0644331E1,3.0655075E1,3.7529083E1,5.513016E0,7.03064E0,3.613691E0,2.9122482E1,1.5325912E0,6.713048E0,3.0816034E1,2.1708236E0,4.8598166E0,1.4531332E0,2.1605577E0,1.0360215E0,5.6770263E0,7.422263E0,2.339377E1,1.118564E0,1.0522596E0,3.3101199E0,1.5496967E0,4.421645E0,1.2553816E0,6.025572E0,1.3966913E0,1.117399E0,2.2276373E1,3.37658E0,1.0450649E0,2.628438E0,3.3971338E0,1.5169929E0,2.0759378E1],"tree_param":{"num_deleted":"0","num_feature":"13","num_nodes":"37","size_leaf_vector":"1"}},{"base_weights":[-4.6742197E-2,-8.0275327E-1,4.725435E-1,4.1242895E-1,-9.2080796E-1,9.0746254E-1,-3.090897E-1,1.031392E-1,-3.3217918E-2,-1.6108872E-1,-1.0012052E-1,1.4179548E0,6.6151947E-1,-6.099921E-1,4.5496416E-1,6.633776E-2,-7.0237815E-2,1.5437575E-1,3.6277007E-2,4.349043E-1,1.5002632E-1,-8.703951E-1,-5.887219E-2,9.3364996E-1,-3.7779197E-2,6.407982E-1,-6.843711E-2,-8.002936E-3,-9.648956E-2,4.7661093E-1,-7.076136E-2,1.1648762E-1,1.794744E-2,-2.2818211E-2,8.304044E-2,8.529763E-2,-1.5844196E-2],"categories":[],"categories_nodes":[],"categories_segments":[],"categories_sizes":[],"default_left":[0,0,0,0,0,0,0,0,0,0,0,0,0,0,0,0,0,0,0,0,0,0,0,0,0,0,0,0,0,0,0,0,0,0,0,0,0],"id":11,"left_children":[1,3,5,7,9,11,13,-1,-1,15,-1,17,19,21,23,-1,-1,-1,-1,25,-1,27,29,31,-1,33,-1,-1,-1,35,-1,-1,-1,-1,-1,-1,-1],"loss_changes":[3.1833244E1,5.1130753E0,1.6640596E1,2.0074255E0,1.6944408E0,2.9760342E0,4.4045243E0,0E0,0E0,2.2953346E0,0E0,6.6937447E-1,3.7026882E0,1.858355E0,2.6028955E0,0E0,0E0,0E0,0E0,4.9202585E0,0E0,5.92289E-1,2.1930907E0,4.6623564E-1,0E0,2.9809732E0,0E0,0E0,0E0,9.7745067E-1,0E0,0E0,0E0,0E0,0E0,0E0,0E0],"parents":[2147483647,0,0,1,1,2,2,3,3,4,4,5,5,6,6,9,9,11,11,12,12,13,13,14,14,19,19,21,21,22,22,23,23,25,25,29,29],"right_children":[2,4,6,8,10,12,14,-1,-1,16,-1,18,20,22,24,-1,-1,-1,-1,26,-1,28,30,32,-1,34,-1,-1,-1,36,-1,-1,-1,-1,-1,-1,-1],"split_conditions":[1.09733835E-1,7.094871E1,9.667168E1,-4.9840334E-1,7.7032E0,7.754114E1,8.156317E-1,1.031392E-1,-3.3217918E-2,8.200412E1,-1.0012052E-1,1.187E3,8.210722E1,7.134619E1,6.2297287E1,6.633776E-2,-7.0237815E-2,1.5437575E-1,3.6277007E-2,6.8885185E1,1.5002632E-1,1.0671386E1,8.2805954E1,1E1,-3.7779197E-2,3E0,-6.843711E-2,-8.002936E-3,-9.648956E-2,1.4E1,-7.076136E-2,1.1648762E-1,1.794744E-2,-2.2818211E-2,8.304044E-2,8.529763E-2,-1.5844196E-2],"split_indices":[9,7,7,9,10,7,9,0,0,7,0,5,10,3,3,0,0,0,0,10,0,3,3,1,0,1,0,0,0,1,0,0,0,0,0,0,0],"split_type":[0,0,0,0,0,0,0,0,0,0,0,0,0,0,0,0,0,0,0,0,0,0,0,0,0,0,0,0,0,0,0,0,0,0,0,0,0],"sum_hessian":[7.9119835E1,3.199438E1,4.7125454E1,2.6122231E0,2.9382158E1,3.0174612E1,1.6950842E1,1.216144E0,1.3960793E0,3.0992503E0,2.6282907E1,8.261413E0,2.1913198E1,1.2306063E1,4.6447797E0,1.1389323E0,1.9603181E0,6.9676824E0,1.2937305E0,1.8447498E1,3.4657004E0,7.9638424E0,4.3422203E0,2.8724682E0,1.7723117E0,1.5942347E1,2.5051517E0,1.0477479E0,6.9160943E0,2.5241063E0,1.8181139E0,1.7816534E0,1.0908147E0,2.819034E0,1.3123312E1,1.3693818E0,1.1547245E0],"tree_param":{"num_deleted":"0","num_feature":"13","num_nodes":"37","size_leaf_vector":"1"}},{"base_weights":[6.251707E-2,-7.434183E-1,5.447438E-1,5.487816E-1,-8.9680886E-1,7.5667065E-1,-8.992901E-2,9.994745E-2,-2.4358727E-2,-9.594231E-1,2.4131093E-2,-1.4047189E-1,1.0379832E0,-1.4275846E-2,-9.861129E-2,1.1741606E-1,-4.8668358E-1,1.9247232E-1,7.890915E-1,5.0300956E-1,-9.8755084E-2,-1.4316954E-1,1.3040894E0,-6.653912E-2,1.3144745E-1,5.5089332E-2,-8.398902E-2,1.4988837E-1,7.274741E-2],"categories":[],"categories_nodes":[],"categories_segments":[],"categories_sizes":[],"default_left":[0,0,0,0,0,0,0,0,0,0,0,0,0,0,0,0,0,0,0,0,0,0,0,0,0,0,0,0,0],"id":12,"left_children":[1,3,5,7,9,11,-1,-1,-1,13,-1,15,17,-1,-1,-1,19,-1,21,23,-1,25,27,-1,-1,-1,-1,-1,-1],"loss_changes":[3.1473207E1,6.5076065E0,1.6162956E1,1.6150148E0,2.1918125E0,1.1416967E1,0E0,0E0,0E0,4.319172E-1,0E0,5.8245497E0,6.0111923E0,0E0,0E0,0E0,5.375844E0,0E0,1.3790949E1,4.6386194E0,0E0,5.7742457E0,9.708595E-1,0E0,0E0,0E0,0E0,0E0,0E0],"parents":[2147483647,0,0,1,1,2,2,3,3,4,4,5,5,9,9,11,11,12,12,16,16,18,18,19,19,21,21,22,22],"right_children":[2,4,6,8,10,12,-1,-1,-1,14,-1,16,18,-1,-1,-1,20,-1,22,24,-1,26,28,-1,-1,-1,-1,-1,-1],"split_conditions":[1.012266E-1,7.094871E1,1.071974E2,-4.9840334E-1,4.4E1,6E0,-8.992901E-2,9.994745E-2,-2.4358727E-2,3.0161371E0,2.4131093E-2,7.094871E1,1.4827995E0,-1.4275846E-2,-9.861129E-2,1.1741606E-1,4.228269E-1,1.9247232E-1,1.9E1,1.5051936E-1,-9.8755084E-2,8.813677E1,1.5E1,-6.653912E-2,1.3144745E-1,5.5089332E-2,-8.398902E-2,1.4988837E-1,7.274741E-2],"split_indices":[9,7,7,9,8,8,0,0,0,10,0,7,4,0,0,0,4,0,8,4,0,7,1,0,0,0,0,0,0],"split_type":[0,0,0,0,0,0,0,0,0,0,0,0,0,0,0,0,0,0,0,0,0,0,0,0,0,0,0,0,0],"sum_hessian":[7.894018E1,2.9348692E1,4.9591488E1,2.8406541E0,2.6508038E1,4.3659943E1,5.9315443E0,1.6441178E0,1.1965363E0,2.5274555E1,1.2334825E0,1.0541707E1,3.3118237E1,1.000788E0,2.4273767E1,1.6989633E0,8.842744E0,5.7827015E0,2.7335533E1,2.969956E0,5.8727875E0,9.984096E0,1.7351439E1,1.2910416E0,1.6789144E0,5.1064405E0,4.877655E0,1.177434E1,5.5770984E0],"tree_param":{"num_deleted":"0","num_feature":"13","num_nodes":"29","size_leaf_vector":"1"}},{"base_weights":[-9.737952E-3,-7.345096E-1,3.7367517E-1,3.411525E-1,-8.6663043E-1,-2.7615204E-1,8.1931937E-1,-3.70014E-2,1.05929926E-1,-9.359647E-1,2.3744678E-2,1.06966734E-1,-5.248502E-1,1.032759E0,-7.9611234E-2,-2.1565566E-2,-9.67971E-2,-9.776701E-2,-9.592823E-2,1.5442404E-1,7.064945E-1,-6.4870757E-1,4.6640676E-1,-7.266675E-1,1.0394859E0,-1.4053649E-2,-8.513092E-2,-1.1117077E-2,1.0549374E-1,-2.214142E-2,-8.187818E-2,3.9253894E-2,1.4994192E-1],"categories":[],"categories_nodes":[],"categories_segments":[],"categories_sizes":[],"default_left":[0,0,0,0,0,0,0,0,0,0,0,0,0,0,0,0,0,0,0,0,0,0,0,0,0,0,0,0,0,0,0,0,0],"id":13,"left_children":[1,3,5,7,9,11,13,-1,-1,15,-1,-1,17,19,-1,-1,-1,21,-1,-1,23,25,27,29,31,-1,-1,-1,-1,-1,-1,-1,-1],"loss_changes":[2.1733162E1,4.140547E0,1.5043684E1,2.269903E0,2.0883312E0,7.7785406E0,1.1374302E1,0E0,0E0,3.2471085E-1,0E0,0E0,3.407414E0,3.4927273E0,0E0,0E0,0E0,3.6063962E0,0E0,0E0,9.638272E0,4.7708726E-1,2.1001358E0,9.433031E-3,4.028099E0,0E0,0E0,0E0,0E0,0E0,0E0,0E0,0E0],"parents":[2147483647,0,0,1,1,2,2,3,3,4,4,5,5,6,6,9,9,12,12,13,13,17,17,20,20,21,21,22,22,23,23,24,24],"right_children":[2,4,6,8,10,12,14,-1,-1,16,-1,-1,18,20,-1,-1,-1,22,-1,-1,24,26,28,30,32,-1,-1,-1,-1,-1,-1,-1,-1],"split_conditions":[3.486512E-2,7.094871E1,1.5E1,4E0,4.4E1,7.603192E1,1.071974E2,-3.70014E-2,1.05929926E-1,3.2375376E0,2.3744678E-2,1.06966734E-1,9.473726E1,8.380236E1,-7.9611234E-2,-2.1565566E-2,-9.67971E-2,6E0,-9.592823E-2,1.5442404E-1,3.794033E-1,7E0,7.546483E4,3.177605E1,2.6E1,-1.4053649E-2,-8.513092E-2,-1.1117077E-2,1.0549374E-1,-2.214142E-2,-8.187818E-2,3.9253894E-2,1.4994192E-1],"split_indices":[9,7,8,0,8,7,7,0,0,10,0,0,7,7,0,0,0,8,0,0,9,1,2,10,8,0,0,0,0,0,0,0,0],"split_type":[0,0,0,0,0,0,0,0,0,0,0,0,0,0,0,0,0,0,0,0,0,0,0,0,0,0,0,0,0,0,0,0,0],"sum_hessian":[7.622095E1,2.6054333E1,5.0166615E1,2.6770449E0,2.3377287E1,2.0562794E1,2.960382E1,1.5886258E0,1.0884191E0,2.2139244E1,1.2380428E0,2.6923249E0,1.7870468E1,2.6467484E1,3.136336E0,1.2710861E0,2.0868158E1,9.629201E0,8.241267E0,8.854027E0,1.7613457E1,4.7959285E0,4.8332725E0,3.0979495E0,1.4515508E1,1.8498188E0,2.9461098E0,2.848697E0,1.9845756E0,1.0025549E0,2.0953946E0,6.8016725E0,7.7138352E0],"tree_param":{"num_deleted":"0","num_feature":"13","num_nodes":"33","size_leaf_vector":"1"}},{"base_weights":[4.269209E-2,6.6252446E-1,-5.7511263E-2,1.286251E-1,1.3378065E0,-2.2803456E-1,1.05154425E-1,5.897193E-2,-1.7523669E-1,3.8464066E-2,1.5032952E-1,-5.6939032E-2,-6.1198175E-1,6.064607E-1,-2.2670797E-1,-6.0739726E-2,4.927425E-2,3.7854815E-1,-2.3913181E-1,-8.086965E-1,-8.130266E-3,1.3535675E-1,1.0106848E0,-7.545638E-1,-3.9416693E-2,6.861007E-1,-2.4406008E-1,7.039987E-2,-3.5795066E-1,-1.4337054E-2,-8.980592E-2,-5.7179995E-2,5.350404E-2,5.065698E-1,-5.9240688E-2,5.3201056E-1,1.4167581E-1,-1.7564584E-2,-8.465753E-2,-3.7605697E-1,3.3976704E-1,1.0459427E-1,-6.872291E-3,2.0468138E-2,-5.725804E-2,2.753435E-2,-5.2972503E-2,9.119418E-2,-1.2006939E-2,7.77364E-2,-2.0293644E-2,1.0290475E-3,-8.44969E-2,-7.2497465E-3,7.063222E-2],"categories":[],"categories_nodes":[],"categories_segments":[],"categories_sizes":[],"default_left":[0,0,0,0,0,0,0,0,0,0,0,0,0,0,0,0,0,0,0,0,0,0,0,0,0,0,0,0,0,0,0,0,0,0,0,0,0,0,0,0,0,0,0,0,0,0,0,0,0,0,0,0,0,0,0],"id":14,"left_children":[1,3,5,7,9,11,13,-1,15,-1,-1,17,19,21,23,-1,-1,25,27,29,31,33,35,37,39,41,43,-1,45,-1,-1,-1,-1,47,-1,49,-1,-1,-1,51,53,-1,-1,-1,-1,-1,-1,-1,-1,-1,-1,-1,-1,-1,-1],"loss_changes":[4.6130295E0,3.5524516E0,1.8083463E0,1.0666785E0,1.244936E-1,2.048986E0,5.728553E0,0E0,1.718229E0,0E0,0E0,1.9190263E0,1.1427727E0,2.4641762E0,2.041328E0,0E0,0E0,1.5432224E0,2.1414573E0,3.0455923E-1,1.3431368E0,2.316E0,6.450672E-1,1.4060855E-1,2.236231E0,1.4493992E0,5.7614934E-1,0E0,1.8469398E0,0E0,0E0,0E0,0E0,1.5016757E0,0E0,1.0420918E0,0E0,0E0,0E0,1.679805E0,1.3044779E0,0E0,0E0,0E0,0E0,0E0,0E0,0E0,0E0,0E0,0E0,0E0,0E0,0E0,0E0],"parents":[2147483647,0,0,1,1,2,2,3,3,4,4,5,5,6,6,8,8,11,11,12,12,13,13,14,14,17,17,18,18,19,19,20,20,21,21,22,22,23,23,24,24,25,25,26,26,28,28,33,33,35,35,39,39,40,40],"right_children":[2,4,6,8,10,12,14,-1,16,-1,-1,18,20,22,24,-1,-1,26,28,30,32,34,36,38,40,42,44,-1,46,-1,-1,-1,-1,48,-1,50,-1,-1,-1,52,54,-1,-1,-1,-1,-1,-1,-1,-1,-1,-1,-1,-1,-1,-1],"split_conditions":[4.3277504E4,7.134619E1,2E0,3.6341855E4,1E0,6.4866695E4,9.026269E4,5.897193E-2,4.1080925E1,3.8464066E-2,1.5032952E-1,2.7282267E1,2E0,2E0,3E0,-6.0739726E-2,4.927425E-2,2.2117875E0,2.2871862E-1,1.2729254E1,2.0666175E0,3.1131527E0,2.1182523E0,2.64E2,1.4E1,6.85E2,1.7326208E0,7.039987E-2,1.0539654E0,-1.4337054E-2,-8.980592E-2,-5.7179995E-2,5.350404E-2,6.23E2,-5.9240688E-2,9.22E2,1.4167581E-1,-1.7564584E-2,-8.465753E-2,2.231795E0,4E0,1.0459427E-1,-6.872291E-3,2.0468138E-2,-5.725804E-2,2.753435E-2,-5.2972503E-2,9.119418E-2,-1.2006939E-2,7.77364E-2,-2.0293644E-2,1.0290475E-3,-8.44969E-2,-7.2497465E-3,7.063222E-2],"split_indices":[2,3,6,2,0,2,2,0,3,0,0,10,12,0,6,0,0,11,11,3,11,4,11,5,1,5,4,0,4,0,0,0,0,5,0,5,0,0,0,11,6,0,0,0,0,0,0,0,0,0,0,0,0,0,0],"split_type":[0,0,0,0,0,0,0,0,0,0,0,0,0,0,0,0,0,0,0,0,0,0,0,0,0,0,0,0,0,0,0,0,0,0,0,0,0,0,0,0,0,0,0,0,0,0,0,0,0,0,0,0,0,0,0],"sum_hessian":[7.26593E1,9.3306265E0,6.3328674E1,5.8756375E0,3.4549894E0,3.0721405E1,3.260727E1,1.9602749E0,3.9153624E0,1.0028933E0,2.452096E0,2.2045662E1,8.675744E0,1.2658336E1,1.9948935E1,2.4323843E0,1.4829782E0,6.184764E0,1.5860897E1,6.2880692E0,2.3876753E0,6.462019E0,6.1963167E0,4.43124E0,1.5517694E1,4.071546E0,2.113218E0,1.2235931E0,1.4637304E1,1.0529529E0,5.235116E0,1.1458616E0,1.2418137E0,4.4805465E0,1.9814725E0,3.904212E0,2.292105E0,1.0066364E0,3.4246037E0,8.224346E0,7.293349E0,2.4959776E0,1.5755683E0,1.0525078E0,1.0607103E0,2.9944582E0,1.1642846E1,2.4441435E0,2.036403E0,2.8837807E0,1.020431E0,5.0453887E0,3.1789575E0,3.8102174E0,3.4831312E0],"tree_param":{"num_deleted":"0","num_feature":"13","num_nodes":"55","size_leaf_vector":"1"}},{"base_weights":[5.7553157E-2,3.872076E-1,-4.8768336E-1,-1.4577483E-1,7.8642696E-1,-1.7655882E-1,-9.437178E-2,5.395353E-1,-8.8684356E-1,1.1424255E0,3.6512285E-1,-4.8965958E-1,4.178315E-1,-7.0583336E-2,8.153102E-1,-1.5444048E-2,-9.873536E-2,1.2464073E0,2.8780524E-2,-3.5760686E-2,9.697687E-2,3.594078E-1,-8.679402E-1,1.1590537E-1,-4.731694E-2,1.1274953E-1,1.9700867E-1,1.576726E-1,7.8913915E-1,3.7403926E-1,-6.897144E-1,-6.4157E-2,1.0926931E-1,-1.5836086E-2,-9.47771E-2,-7.018472E-2,4.3723923E-1,-6.2237002E-2,6.984847E-2,-3.741313E-2,1.132028E-1,5.6169923E-2,-2.9980406E-2,-2.0182494E-2,-7.954874E-2,-1.8972446E-3,6.878721E-2],"categories":[],"categories_nodes":[],"categories_segments":[],"categories_sizes":[],"default_left":[0,0,0,0,0,0,0,0,0,0,0,0,0,0,0,0,0,0,0,0,0,0,0,0,0,0,0,0,0,0,0,0,0,0,0,0,0,0,0,0,0,0,0,0,0,0,0],"id":15,"left_children":[1,3,5,7,9,11,-1,13,15,17,19,21,23,-1,25,-1,-1,27,-1,29,-1,31,33,-1,35,-1,37,-1,39,41,43,-1,-1,-1,-1,-1,45,-1,-1,-1,-1,-1,-1,-1,-1,-1,-1],"loss_changes":[1.331661E1,9.918318E0,3.8008423E0,1.0927944E1,3.5573673E0,3.5270238E0,0E0,4.460344E0,6.030693E-1,8.7589455E-1,3.332745E0,4.215479E0,2.3645191E0,0E0,1.655015E0,0E0,0E0,5.812588E-1,0E0,2.709069E0,0E0,3.969549E0,3.4276152E-1,0E0,1.9170194E0,0E0,2.273281E0,0E0,3.2439117E0,9.6140075E-1,3.942728E-2,0E0,0E0,0E0,0E0,0E0,4.1705775E-1,0E0,0E0,0E0,0E0,0E0,0E0,0E0,0E0,0E0,0E0],"parents":[2147483647,0,0,1,1,2,2,3,3,4,4,5,5,7,7,8,8,9,9,10,10,11,11,12,12,14,14,17,17,19,19,21,21,22,22,24,24,26,26,28,28,29,29,30,30,36,36],"right_children":[2,4,6,8,10,12,-1,14,16,18,20,22,24,-1,26,-1,-1,28,-1,30,-1,32,34,-1,36,-1,38,-1,40,42,44,-1,-1,-1,-1,-1,46,-1,-1,-1,-1,-1,-1,-1,-1,-1,-1],"split_conditions":[9.667168E1,1.4E1,1.071974E2,1.1619216E0,3.1199925E0,2.6E1,-9.437178E-2,1E0,7.063992E1,2E0,3.7E1,1.4373083E0,3.1131527E0,-7.0583336E-2,8.842342E1,-1.5444048E-2,-9.873536E-2,2.2699497E0,2.8780524E-2,8.7922424E1,9.697687E-2,4E0,5.0255062E4,1.1590537E-1,3.9E1,1.1274953E-1,1E1,1.576726E-1,2.2E1,4.294084E0,4.6869273E4,-6.4157E-2,1.0926931E-1,-1.5836086E-2,-9.47771E-2,-7.018472E-2,4.1080925E1,-6.2237002E-2,6.984847E-2,-3.741313E-2,1.132028E-1,5.6169923E-2,-2.9980406E-2,-2.0182494E-2,-7.954874E-2,-1.8972446E-3,6.878721E-2],"split_indices":[7,8,7,4,4,8,0,8,7,12,8,4,4,0,7,0,0,4,0,7,0,8,2,0,8,0,1,0,8,4,2,0,0,0,0,0,3,0,0,0,0,0,0,0,0,0,0],"split_type":[0,0,0,0,0,0,0,0,0,0,0,0,0,0,0,0,0,0,0,0,0,0,0,0,0,0,0,0,0,0,0,0,0,0,0,0,0,0,0,0,0,0,0,0,0,0,0],"sum_hessian":[7.2037735E1,4.507491E1,2.6962824E1,1.9575397E1,2.5499512E1,1.685253E1,1.0110293E1,1.03116E1,9.263798E0,1.2893211E1,1.2606299E1,1.115351E1,5.699019E0,1.5867155E0,8.724885E0,1.4239844E0,7.839813E0,1.108595E1,1.8072621E0,8.146189E0,4.4601116E0,3.4529974E0,7.7005134E0,1.6222085E0,4.0768104E0,5.2503877E0,3.4744966E0,5.015057E0,6.0708923E0,5.271093E0,2.8750956E0,1.5128889E0,1.9401085E0,1.0804654E0,6.6200476E0,1.5434761E0,2.5333343E0,1.2276013E0,2.2468956E0,1.3613425E0,4.70955E0,4.2530713E0,1.0180213E0,1.0303926E0,1.8447028E0,1.2260082E0,1.3073261E0],"tree_param":{"num_deleted":"0","num_feature":"13","num_nodes":"47","size_leaf_vector":"1"}},{"base_weights":[2.08323E-2,-7.608522E-1,4.4232443E-1,1.5346979E-2,-8.452294E-1,-1.21214956E-1,7.042438E-1,-9.933371E-2,-4.3974015E-1,-4.942589E-1,2.509232E-1,4.8205137E-1,9.66894E-1,-6.738313E-1,3.5177357E-2,-6.651915E-1,2.5568992E-2,4.7755635E-1,-4.2589713E-2,6.441752E-1,-2.1102431E-1,2.8243676E-1,1.1138263E0,2.2532305E-2,-8.7931946E-2,-1.3622988E-3,-8.758286E-2,6.83394E-1,-3.043348E-2,-2.6936004E-2,7.3727554E-1,1.5439428E-1,-6.707402E-2,8.477626E-2,-4.1401513E-2,1.1884425E-1,3.0186096E-2,1.01937555E-1,7.1246214E-3,9.4102316E-2,3.322299E-2,4.9156558E-2,-2.5599575E-2],"categories":[],"categories_nodes":[],"categories_segments":[],"categories_sizes":[],"default_left":[0,0,0,0,0,0,0,0,0,0,0,0,0,0,0,0,0,0,0,0,0,0,0,0,0,0,0,0,0,0,0,0,0,0,0,0,0,0,0,0,0,0,0],"id":16,"left_children":[1,3,5,-1,7,9,11,-1,13,15,17,19,21,23,-1,25,-1,27,-1,29,31,33,35,-1,-1,-1,-1,37,-1,-1,39,41,-1,-1,-1,-1,-1,-1,-1,-1,-1,-1,-1],"loss_changes":[2.3483267E1,2.0567627E0,6.915642E0,0E0,9.4579506E-1,2.2808285E0,1.3861437E0,0E0,1.7107192E0,1.207841E0,1.4981323E0,2.2919583E0,1.048213E0,1.3956263E0,0E0,9.3099594E-1,0E0,1.3015639E0,0E0,1.542139E0,8.411569E-1,1.8213735E0,2.9657078E-1,0E0,0E0,0E0,0E0,1.097013E0,0E0,0E0,8.9256E-1,5.7681394E-1,0E0,0E0,0E0,0E0,0E0,0E0,0E0,0E0,0E0,0E0,0E0],"parents":[2147483647,0,0,1,1,2,2,4,4,5,5,6,6,8,8,9,9,10,10,11,11,12,12,13,13,15,15,17,17,19,19,20,20,21,21,22,22,27,27,30,30,31,31],"right_children":[2,4,6,-1,8,10,12,-1,14,16,18,20,22,24,-1,26,-1,28,-1,30,32,34,36,-1,-1,-1,-1,38,-1,-1,40,42,-1,-1,-1,-1,-1,-1,-1,-1,-1,-1,-1],"split_conditions":[1.012266E-1,3.9447926E4,9E0,1.5346979E-2,2.4E1,6.2165624E-1,2.8E1,-9.933371E-2,4E0,1.8E1,7.4266075E1,1.7E1,3.58494E-1,8.464261E0,3.5177357E-2,4.906984E4,2.5568992E-2,1.5E1,-4.2589713E-2,2.1591541E-1,4.961217E1,1.7502496E-1,1.187E3,2.2532305E-2,-8.7931946E-2,-1.3622988E-3,-8.758286E-2,2.3304038E0,-3.043348E-2,-2.6936004E-2,3E0,7.38E2,-6.707402E-2,8.477626E-2,-4.1401513E-2,1.1884425E-1,3.0186096E-2,1.01937555E-1,7.1246214E-3,9.4102316E-2,3.322299E-2,4.9156558E-2,-2.5599575E-2],"split_indices":[9,2,8,0,8,9,8,0,0,1,3,1,9,10,0,2,0,1,0,9,10,9,5,0,0,0,0,11,0,0,0,5,0,0,0,0,0,0,0,0,0,0,0],"split_type":[0,0,0,0,0,0,0,0,0,0,0,0,0,0,0,0,0,0,0,0,0,0,0,0,0,0,0,0,0,0,0,0,0,0,0,0,0,0,0,0,0,0,0],"sum_hessian":[6.925359E1,2.3978594E1,4.5275E1,1.9566982E0,2.2021896E1,1.4536285E1,3.0738714E1,1.5068351E1,6.9535446E0,7.0954275E0,7.440858E0,1.818782E1,1.2550894E1,5.481164E0,1.4723804E0,5.8704247E0,1.225003E0,5.794862E0,1.6459963E0,1.4797058E1,3.3907626E0,2.734579E0,9.816315E0,1.0016627E0,4.4795012E0,1.6942468E0,4.176178E0,4.6869626E0,1.1078991E0,1.1934327E0,1.3603626E1,2.2591577E0,1.1316048E0,1.3894618E0,1.3451173E0,8.565516E0,1.2507975E0,2.5965722E0,2.0903904E0,8.1704445E0,5.433181E0,1.1316265E0,1.1275312E0],"tree_param":{"num_deleted":"0","num_feature":"13","num_nodes":"43","size_leaf_vector":"1"}},{"base_weights":[-2.8226156E-2,-6.770121E-1,4.605804E-1,-8.1900764E-1,-2.3209205E-1,-3.7683812E-1,6.5572983E-1,-8.824488E-1,2.4537625E-2,-5.949319E-1,4.9377918E-1,3.1544786E-2,-5.2718735E-1,4.6045667E-1,1.0927395E0,-9.9710844E-2,-3.2674047E-1,-7.772217E-2,1.6773403E-2,8.084021E-2,-4.420239E-3,-8.159428E-2,-1.6566288E-1,5.8349425E-1,-2.3724116E-1,1.2651241E-1,3.7391695E-1,-6.7947485E-2,4.3850332E-2,-5.1310714E-2,2.595031E-2,7.792615E-2,7.882151E-1,5.398903E-2,-6.4659566E-2,-8.4825335E-3,6.694337E-2,7.769234E-2,-6.229679E-2,4.9045414E-2,-2.5550324E-2,9.861643E-2,4.0200103E-2],"categories":[],"categories_nodes":[],"categories_segments":[],"categories_sizes":[],"default_left":[0,0,0,0,0,0,0,0,0,0,0,0,0,0,0,0,0,0,0,0,0,0,0,0,0,0,0,0,0,0,0,0,0,0,0,0,0,0,0,0,0,0,0],"id":17,"left_children":[1,3,5,7,9,11,13,15,-1,17,19,-1,21,23,25,-1,27,-1,-1,-1,-1,-1,29,31,33,-1,35,-1,37,-1,-1,39,41,-1,-1,-1,-1,-1,-1,-1,-1,-1,-1],"loss_changes":[2.1648531E1,1.6618938E0,6.6150274E0,1.6903944E0,2.5291877E0,9.989183E-1,2.224763E0,1.000576E0,0E0,9.8015666E-1,6.070171E-1,0E0,5.8998597E-1,2.1834192E0,6.6005707E-1,0E0,6.896512E-1,0E0,0E0,0E0,0E0,0E0,7.7416426E-1,2.0644994E0,1.7113523E0,0E0,4.8901436E-1,0E0,2.1464953E0,0E0,0E0,1.0922623E0,7.128897E-1,0E0,0E0,0E0,0E0,0E0,0E0,0E0,0E0,0E0,0E0],"parents":[2147483647,0,0,1,1,2,2,3,3,4,4,5,5,6,6,7,7,9,9,10,10,12,12,13,13,14,14,16,16,22,22,23,23,24,24,26,26,28,28,31,31,32,32],"right_children":[2,4,6,8,10,12,14,16,-1,18,20,-1,22,24,26,-1,28,-1,-1,-1,-1,-1,30,32,34,-1,36,-1,38,-1,-1,40,42,-1,-1,-1,-1,-1,-1,-1,-1,-1,-1],"split_conditions":[2.827865E-1,3.486512E-2,5E0,4.5E1,1.7E1,3.988867E4,8.349124E-1,4E0,2.4537625E-2,8.291952E1,3.7287033E1,3.1544786E-2,2E0,1.222E3,6.4374855E1,-9.9710844E-2,-6.552191E-1,-7.772217E-2,1.6773403E-2,8.084021E-2,-4.420239E-3,-8.159428E-2,7.143859E-1,1.6E1,3.2759678E-1,1.2651241E-1,9.281083E-1,-6.7947485E-2,-3.5302448E-1,-5.1310714E-2,2.595031E-2,6.0135637E4,5.69067E1,5.398903E-2,-6.4659566E-2,-8.4825335E-3,6.694337E-2,7.769234E-2,-6.229679E-2,4.9045414E-2,-2.5550324E-2,9.861643E-2,4.0200103E-2],"split_indices":[9,9,8,8,1,2,9,0,0,10,10,0,6,5,3,0,9,0,0,0,0,0,9,8,9,0,9,0,9,0,0,2,10,0,0,0,0,0,0,0,0,0,0],"split_type":[0,0,0,0,0,0,0,0,0,0,0,0,0,0,0,0,0,0,0,0,0,0,0,0,0,0,0,0,0,0,0,0,0,0,0,0,0,0,0,0,0,0,0],"sum_hessian":[6.628048E1,2.8314293E1,3.7966187E1,2.0826689E1,7.487603E0,6.9994345E0,3.0966751E1,1.9816484E1,1.0102047E0,5.112445E0,2.3751585E0,1.0529594E0,5.946475E0,2.2822435E1,8.144316E0,1.576863E1,4.0478535E0,4.110808E0,1.0016367E0,1.1815221E0,1.1936364E0,2.607151E0,3.339324E0,1.9540241E1,3.2821956E0,5.955984E0,2.1883314E0,1.6468574E0,2.4009962E0,1.7238005E0,1.6155236E0,6.0298576E0,1.3510383E1,1.0223851E0,2.2598102E0,1.1367183E0,1.0516131E0,1.0650277E0,1.3359685E0,2.4847357E0,3.545122E0,7.9052377E0,5.605145E0],"tree_param":{"num_deleted":"0","num_feature":"13","num_nodes":"43","size_leaf_vector":"1"}},{"base_weights":[1.0774405E-1,-5.0652975E-1,5.1089555E-1,2.7314234E-1,-9.397935E-2,6.630188E-1,-8.226552E-2,-6.542633E-2,7.1341646E-1,4.1098455E-1,9.28509E-1,-3.3535026E-2,1.032395E0,-2.6570937E-1,5.7479763E-1,-1.264077E-2,1.0228467E0,3.9890464E-2,-4.1436117E-2,1.3501245E-1,3.3747297E-2,2.4132568E-1,-7.742836E-2,7.787024E-1,-9.552972E-2,5.34942E-1,1.1028683E0,5.0253775E-2,-1.2838557E-2,5.873366E-4,8.3950646E-2,-7.270893E-2,4.6504132E-2,5.24653E-4,8.292984E-2,1.1733971E-1,4.725952E-2],"categories":[],"categories_nodes":[],"categories_segments":[],"categories_sizes":[],"default_left":[0,0,0,0,0,0,0,0,0,0,0,0,0,0,0,0,0,0,0,0,0,0,0,0,0,0,0,0,0,0,0,0,0,0,0,0,0],"id":18,"left_children":[1,3,5,7,-1,9,-1,-1,11,13,15,17,19,21,23,-1,25,-1,-1,-1,-1,27,-1,29,31,33,35,-1,-1,-1,-1,-1,-1,-1,-1,-1,-1],"loss_changes":[1.7390118E1,9.685893E0,9.119204E0,4.8542824E0,0E0,2.1938534E0,0E0,0E0,1.8846629E0,2.5404024E0,1.9156904E0,7.074534E-1,7.5270844E-1,1.445715E0,2.4878774E0,0E0,5.763054E-2,0E0,0E0,0E0,0E0,3.7422937E-1,0E0,6.364231E-1,2.1115375E0,6.628337E-1,3.702545E-2,0E0,0E0,0E0,0E0,0E0,0E0,0E0,0E0,0E0,0E0],"parents":[2147483647,0,0,1,1,2,2,3,3,5,5,8,8,9,9,10,10,11,11,12,12,13,13,14,14,16,16,21,21,23,23,24,24,25,25,26,26],"right_children":[2,4,6,8,-1,10,-1,-1,12,14,16,18,20,22,24,-1,26,-1,-1,-1,-1,28,-1,30,32,34,36,-1,-1,-1,-1,-1,-1,-1,-1,-1,-1],"split_conditions":[2.827865E-1,8.507239E1,1.071974E2,-5.023674E-1,-9.397935E-2,6.6675526E-1,-8.226552E-2,-6.542633E-2,3.5287735E1,2.6784492E1,8.7866335E0,1.4741279E1,3.1023688E0,1.3E1,9.6743034E1,-1.264077E-2,3E0,3.9890464E-2,-4.1436117E-2,1.3501245E-1,3.3747297E-2,7.7631884E0,-7.742836E-2,3.052268E-1,6.813132E1,3.1199925E0,1.14069195E5,5.0253775E-2,-1.2838557E-2,5.873366E-4,8.3950646E-2,-7.270893E-2,4.6504132E-2,5.24653E-4,8.292984E-2,1.1733971E-1,4.725952E-2],"split_indices":[9,7,7,9,0,9,0,0,3,3,10,3,4,1,7,0,1,0,0,0,0,3,0,9,3,4,2,0,0,0,0,0,0,0,0,0,0],"split_type":[0,0,0,0,0,0,0,0,0,0,0,0,0,0,0,0,0,0,0,0,0,0,0,0,0,0,0,0,0,0,0,0,0,0,0,0,0],"sum_hessian":[6.8176865E1,2.6913252E1,4.1263607E1,9.745492E0,1.716776E1,3.748982E1,3.7737916E0,2.9807408E0,6.7647514E0,2.0539421E1,1.6950396E1,2.2921338E0,4.4726176E0,3.881859E0,1.6657562E1,1.363486E0,1.558691E1,1.0511029E0,1.241031E0,2.422273E0,2.0503445E0,2.207012E0,1.674847E0,1.2648408E1,4.009155E0,3.2790377E0,1.2307872E1,1.0827477E0,1.1242642E0,1.0025414E0,1.1645866E1,1.7455286E0,2.2636263E0,1.5348659E0,1.7441719E0,1.0294202E1,2.01367E0],"tree_param":{"num_deleted":"0","num_feature":"13","num_nodes":"37","size_leaf_vector":"1"}},{"base_weights":[5.977359E-2,2.511627E-1,-8.3244014E-1,-5.4214233E-1,4.1851252E-1,-8.930749E-1,-9.874478E-3,1.7122157E-2,-6.849283E-1,9.9907154E-1,2.0900407E-1,-9.4103985E-2,-2.2356339E-2,-4.9432214E-2,-9.199744E-2,1.0745893E0,9.026463E-3,-4.8323464E-1,6.415811E-1,5.2796047E-2,-5.9899766E-2,1.3397008E-2,1.1556491E0,1.1249388E-1,-7.1753466E-1,9.588688E-1,2.0704003E-1,1.3658309E-1,6.0187846E-2,5.9400436E-2,-7.001781E-2,-3.0803397E-2,-9.416279E-2,1.05771974E-1,-4.8587047E-3,8.254936E-2,-1.9811008E-2],"categories":[],"categories_nodes":[],"categories_segments":[],"categories_sizes":[],"default_left":[0,0,0,0,0,0,0,0,0,0,0,0,0,0,0,0,0,0,0,0,0,0,0,0,0,0,0,0,0,0,0,0,0,0,0,0,0],"id":19,"left_children":[1,3,5,7,9,11,-1,-1,13,15,17,-1,-1,19,-1,21,-1,23,25,-1,-1,-1,27,29,31,33,35,-1,-1,-1,-1,-1,-1,-1,-1,-1,-1],"loss_changes":[1.1501048E1,7.557374E0,4.4172478E-1,1.1414137E0,5.4059334E0,1.3894081E-1,0E0,0E0,1.2357769E0,7.249651E-1,1.0846119E1,0E0,0E0,1.3864715E0,0E0,6.8129444E-1,0E0,2.0490305E0,2.846219E0,0E0,0E0,0E0,3.377657E-1,2.311848E0,6.511626E-1,1.2950821E0,2.8183055E0,0E0,0E0,0E0,0E0,0E0,0E0,0E0,0E0,0E0,0E0],"parents":[2147483647,0,0,1,1,2,2,3,3,4,4,5,5,8,8,9,9,10,10,13,13,15,15,17,17,18,18,22,22,23,23,24,24,25,25,26,26],"right_children":[2,4,6,8,10,12,-1,-1,14,16,18,-1,-1,20,-1,22,-1,24,26,-1,-1,-1,28,30,32,34,36,-1,-1,-1,-1,-1,-1,-1,-1,-1,-1],"split_conditions":[1.0364638E2,4E0,3.6291583E0,7.603192E1,1.7122399E0,9.043768E1,-9.874478E-3,1.7122157E-2,3.1228796E-1,1.0719368E5,2.2E1,-9.4103985E-2,-2.2356339E-2,1.1E1,-9.199744E-2,5.061076E-1,9.026463E-3,7.8236084E1,1.3E1,5.2796047E-2,-5.9899766E-2,1.3397008E-2,9.39E2,1.065E3,2.5951614E0,8.974829E1,8.380236E1,1.3658309E-1,6.0187846E-2,5.9400436E-2,-7.001781E-2,-3.0803397E-2,-9.416279E-2,1.05771974E-1,-4.8587047E-3,8.254936E-2,-1.9811008E-2],"split_indices":[7,8,11,7,4,10,0,0,4,2,8,0,0,1,0,11,0,7,1,0,0,0,5,5,4,3,7,0,0,0,0,0,0,0,0,0,0],"split_type":[0,0,0,0,0,0,0,0,0,0,0,0,0,0,0,0,0,0,0,0,0,0,0,0,0,0,0,0,0,0,0,0,0,0,0,0,0],"sum_hessian":[6.512772E1,5.4216263E1,1.0911458E1,9.054541E0,4.5161724E1,9.877891E0,1.0335677E0,1.4768745E0,7.5776668E0,1.0976531E1,3.4185192E1,8.839083E0,1.0388081E0,2.37275E0,5.2049165E0,9.965984E0,1.0105463E0,1.3101765E1,2.1083427E1,1.1762516E0,1.1964984E0,1.0011661E0,8.964818E0,3.845108E0,9.256657E0,1.148837E1,9.5950575E0,5.4354076E0,3.5294108E0,2.5834682E0,1.26164E0,4.1138053E0,5.1428514E0,1.0416426E1,1.0719438E0,3.3871455E0,6.2079115E0],"tree_param":{"num_deleted":"0","num_feature":"13","num_nodes":"37","size_leaf_vector":"1"}},{"base_weights":[5.5327464E-2,-5.6875116E-1,3.6628935E-1,-1.6627958E-1,-9.5177375E-2,5.492245E-1,3.46677E-2,-4.9726838E-1,3.9747632E-1,-5.9970547E-2,6.187123E-1,-5.830106E-1,2.6928997E-1,-7.528933E-1,1.9360201E-2,8.921694E-2,-2.1788135E-2,2.6109114E-1,8.4447086E-1,-8.556417E-2,5.8913673E-3,7.06543E-2,8.730604E-2,-1.1111913E-2,-8.6324856E-2,4.741225E-1,-5.4204762E-2,1.5020241E-1,9.572156E-1,3.6650568E-1,-4.1118714E-1,6.624215E-2,-4.3405987E-2,-3.222242E-2,5.125853E-2,1.0312499E-1,2.425844E-2,-2.5649002E-2,5.672439E-2,-6.641052E-2,2.3874478E-2],"categories":[],"categories_nodes":[],"categories_segments":[],"categories_sizes":[],"default_left":[0,0,0,0,0,0,0,0,0,0,0,0,0,0,0,0,0,0,0,0,0,0,0,0,0,0,0,0,0,0,0,0,0,0,0,0,0,0,0,0,0],"id":20,"left_children":[1,3,5,7,-1,9,11,13,15,-1,17,19,21,23,-1,-1,-1,25,27,-1,-1,29,-1,-1,-1,31,-1,33,35,37,39,-1,-1,-1,-1,-1,-1,-1,-1,-1,-1],"loss_changes":[1.2763578E1,3.2188978E0,2.6374164E0,2.4170718E0,0E0,2.6187353E0,2.567783E0,1.5477233E0,1.7029765E0,0E0,1.9626341E0,9.07128E-1,1.4662087E0,3.2894683E-1,0E0,0E0,0E0,2.2950087E0,1.1186857E0,0E0,0E0,1.6723396E0,0E0,0E0,0E0,1.9887207E0,0E0,7.5398624E-1,4.7409058E-1,1.0386891E0,9.035118E-1,0E0,0E0,0E0,0E0,0E0,0E0,0E0,0E0,0E0,0E0],"parents":[2147483647,0,0,1,1,2,2,3,3,5,5,6,6,7,7,8,8,10,10,11,11,12,12,13,13,17,17,18,18,21,21,25,25,27,27,28,28,29,29,30,30],"right_children":[2,4,6,8,-1,10,12,14,16,-1,18,20,22,24,-1,-1,-1,26,28,-1,-1,30,-1,-1,-1,32,-1,34,36,38,40,-1,-1,-1,-1,-1,-1,-1,-1,-1,-1],"split_conditions":[1.012266E-1,6.3136367E4,3.1199925E0,1E0,-9.5177375E-2,1.5051936E-1,3.6634953E0,7.790675E1,1.2291746E0,-5.9970547E-2,6.8E2,6.4836E-1,4E0,2.1676386E1,1.9360201E-2,8.921694E-2,-2.1788135E-2,9.665532E4,7.810677E-1,-8.556417E-2,5.8913673E-3,7.244512E4,8.730604E-2,-1.1111913E-2,-8.6324856E-2,5.84E2,-5.4204762E-2,5.2514225E-1,1.16879164E5,3.5401962E1,7.498788E-1,6.624215E-2,-4.3405987E-2,-3.222242E-2,5.125853E-2,1.0312499E-1,2.425844E-2,-2.5649002E-2,5.672439E-2,-6.641052E-2,2.3874478E-2],"split_indices":[9,2,4,6,0,4,4,3,11,0,5,9,6,10,0,0,0,2,11,0,0,2,0,0,0,5,0,9,2,3,9,0,0,0,0,0,0,0,0,0,0],"split_type":[0,0,0,0,0,0,0,0,0,0,0,0,0,0,0,0,0,0,0,0,0,0,0,0,0,0,0,0,0,0,0,0,0,0,0,0,0,0,0,0,0],"sum_hessian":[6.3696217E1,2.0907444E1,4.2788773E1,1.0894193E1,1.001325E1,2.7153624E1,1.563515E1,6.938463E0,3.95573E0,1.1134349E0,2.604019E1,3.8952997E0,1.173985E1,4.9990273E0,1.9394358E0,1.9434942E0,2.0122359E0,1.0911666E1,1.5128523E1,2.5004172E0,1.3948823E0,9.674152E0,2.0656977E0,1.027939E0,3.9710882E0,8.947909E0,1.9637567E0,2.439376E0,1.2689147E1,6.1421986E0,3.5319543E0,7.635419E0,1.3124908E0,1.1070153E0,1.3323609E0,1.10965185E1,1.5926281E0,1.4291292E0,4.713069E0,2.5268393E0,1.0051152E0],"tree_param":{"num_deleted":"0","num_feature":"13","num_nodes":"41","size_leaf_vector":"1"}},{"base_weights":[4.352429E-2,1.7617732E-1,-9.009414E-2,-3.3191514E-1,3.9734942E-1,1.9579598E-1,-8.6528987E-1,1.1956891E-1,2.1342082E-1,-7.248784E-2,5.0142217E-1,-2.2510162E-2,-9.454649E-2,-4.367494E-1,5.503538E-1,1.3515216E-1,8.551767E-2,-4.6201956E-2,-8.373725E-2,1.0081974E0,2.584475E-1,7.772302E-2,-4.178437E-2,3.6580753E-2,-6.809049E-2,1.1045945E-1,2.1701438E-2,-3.8429197E-2,8.19899E-2],"categories":[],"categories_nodes":[],"categories_segments":[],"categories_sizes":[],"default_left":[0,0,0,0,0,0,0,0,0,0,0,0,0,0,0,0,0,0,0,0,0,0,0,0,0,0,0,0,0],"id":21,"left_children":[1,3,-1,5,7,9,11,-1,13,-1,15,-1,-1,17,19,21,-1,23,-1,25,27,-1,-1,-1,-1,-1,-1,-1,-1],"loss_changes":[8.21406E0,6.561308E0,0E0,5.2067485E0,5.664847E0,3.124268E0,2.5348568E-1,0E0,7.6852236E0,0E0,9.1545486E-1,0E0,0E0,1.8635461E0,2.7902184E0,2.1346176E0,0E0,2.1357505E0,0E0,4.1182327E-1,5.830698E0,0E0,0E0,0E0,0E0,0E0,0E0,0E0,0E0],"parents":[2147483647,0,0,1,1,3,3,4,4,5,5,6,6,8,8,10,10,13,13,14,14,15,15,17,17,19,19,20,20],"right_children":[2,4,-1,6,8,10,12,-1,14,-1,16,-1,-1,18,20,22,-1,24,-1,26,28,-1,-1,-1,-1,-1,-1,-1,-1],"split_conditions":[1.071974E2,9E0,-9.009414E-2,9.846285E-1,1.7647926E0,1E0,7.381439E1,1.1956891E-1,2.2E1,-7.248784E-2,4E0,-2.2510162E-2,-9.454649E-2,8.7922424E1,3.1199925E0,3.1228796E-1,8.551767E-2,1.079E3,-8.373725E-2,9.026269E4,3.8E1,7.772302E-2,-4.178437E-2,3.6580753E-2,-6.809049E-2,1.1045945E-1,2.1701438E-2,-3.8429197E-2,8.19899E-2],"split_indices":[7,8,0,4,4,8,7,0,8,0,8,0,0,7,4,4,0,5,0,2,8,0,0,0,0,0,0,0,0],"split_type":[0,0,0,0,0,0,0,0,0,0,0,0,0,0,0,0,0,0,0,0,0,0,0,0,0,0,0,0,0],"sum_hessian":[6.3295437E1,5.6213543E1,7.0818963E0,1.6896643E1,3.93169E1,8.81156E0,8.085084E0,6.332018E0,3.298488E1,1.8541874E0,6.957372E0,1.323636E0,6.761448E0,1.1157778E1,2.1827103E1,4.0972333E0,2.8601387E0,6.2147007E0,4.9430766E0,7.5427523E0,1.428435E1,1.7082782E0,2.388955E0,4.02535E0,2.1893504E0,6.3704524E0,1.1722996E0,6.807167E0,7.4771833E0],"tree_param":{"num_deleted":"0","num_feature":"13","num_nodes":"29","size_leaf_vector":"1"}},{"base_weights":[-2.3685792E-2,1.4991562E-1,-8.7922555E-1,-2.9991418E-1,3.5700598E-1,-9.247206E-2,-2.4917765E-2,4.748098E-1,-5.5399305E-1,8.4391856E-1,9.8923214E-2,6.65441E-2,8.2763895E-2,4.0878106E-2,-8.797605E-1,2.5331634E-1,9.4207865E-1,-5.4125994E-1,5.4357463E-1,-4.179977E-2,5.44479E-2,-4.878568E-1,5.031311E-1,-9.3983136E-2,-2.3641882E-2,4.951599E-2,-1.0771158E-2,1.0064499E0,1.9119862E-2,4.1637536E-2,-7.9590976E-1,7.6793283E-1,1.4946972E-1,-5.770707E-2,-1.5536073E-2,6.553612E-2,7.6983697E-3,1.1135582E-1,4.6173155E-2,1.1369119E-2,-9.543946E-2,9.127062E-2,-1.4040194E-2,-3.813671E-2,4.460144E-2],"categories":[],"categories_nodes":[],"categories_segments":[],"categories_sizes":[],"default_left":[0,0,0,0,0,0,0,0,0,0,0,0,0,0,0,0,0,0,0,0,0,0,0,0,0,0,0,0,0,0,0,0,0,0,0,0,0,0,0,0,0,0,0,0,0],"id":22,"left_children":[1,3,5,7,9,-1,-1,11,13,15,17,19,-1,21,23,25,27,29,31,-1,-1,33,35,-1,-1,-1,-1,37,-1,-1,39,41,43,-1,-1,-1,-1,-1,-1,-1,-1,-1,-1,-1,-1],"loss_changes":[8.919533E0,4.7686687E0,5.9843063E-2,3.4752145E0,4.2798715E0,0E0,0E0,6.0302615E-1,2.5067813E0,4.510002E-1,7.076662E0,9.698859E-1,0E0,1.5816851E0,9.7904205E-2,3.2078415E-1,2.828331E-1,2.8351512E0,1.1725793E0,0E0,0E0,1.0533929E-3,1.7071539E-1,0E0,0E0,0E0,0E0,5.3215027E-4,0E0,0E0,1.3272009E0,1.3164186E0,1.1969873E0,0E0,0E0,0E0,0E0,0E0,0E0,0E0,0E0,0E0,0E0,0E0,0E0],"parents":[2147483647,0,0,1,1,2,2,3,3,4,4,7,7,8,8,9,9,10,10,11,11,13,13,14,14,15,15,16,16,17,17,18,18,21,21,22,22,27,27,30,30,31,31,32,32],"right_children":[2,4,6,8,10,-1,-1,12,14,16,18,20,-1,22,24,26,28,30,32,-1,-1,34,36,-1,-1,-1,-1,38,-1,-1,40,42,44,-1,-1,-1,-1,-1,-1,-1,-1,-1,-1,-1,-1],"split_conditions":[1.0364638E2,9E0,8.96227E1,7.603192E1,2.2921572E0,-9.247206E-2,-2.4917765E-2,2.7137067E0,7.001205E-1,7.7097404E-1,2.6E1,5.602094E1,8.2763895E-2,2E0,8.375193E1,4.6E2,8.496634E1,2.21E2,1.3E1,-4.179977E-2,5.44479E-2,9.45E2,1.1E1,-9.3983136E-2,-2.3641882E-2,4.951599E-2,-1.0771158E-2,1.071E3,1.9119862E-2,4.1637536E-2,7.063992E1,4.568942E0,5.58E2,-5.770707E-2,-1.5536073E-2,6.553612E-2,7.6983697E-3,1.1135582E-1,4.6173155E-2,1.1369119E-2,-9.543946E-2,9.127062E-2,-1.4040194E-2,-3.813671E-2,4.460144E-2],"split_indices":[7,8,10,7,4,0,0,11,4,11,8,3,0,8,10,5,10,5,1,0,0,5,1,0,0,0,0,5,0,0,7,4,5,0,0,0,0,0,0,0,0,0,0,0,0],"split_type":[0,0,0,0,0,0,0,0,0,0,0,0,0,0,0,0,0,0,0,0,0,0,0,0,0,0,0,0,0,0,0,0,0,0,0,0,0,0,0,0,0,0,0,0,0],"sum_hessian":[5.8167454E1,4.904108E1,9.126375E0,1.5318621E1,3.3722458E1,8.075551E0,1.0508248E0,3.5686204E0,1.175E1,1.089584E1,2.282662E1,2.2053578E0,1.3632625E0,4.467178E0,7.282822E0,2.0631392E0,8.8327E0,9.267109E0,1.3559511E1,1.1573836E0,1.0479742E0,2.0579085E0,2.4092693E0,6.239373E0,1.0434487E0,1.0130167E0,1.0501225E0,7.8217945E0,1.0109057E0,1.8132218E0,7.453887E0,8.036117E0,5.523394E0,1.0425929E0,1.0153157E0,1.3788401E0,1.0304294E0,5.6638303E0,2.1579638E0,1.1479614E0,6.305926E0,6.927222E0,1.1088952E0,1.8771399E0,3.6462543E0],"tree_param":{"num_deleted":"0","num_feature":"13","num_nodes":"45","size_leaf_vector":"1"}},{"base_weights":[9.0790235E-2,-5.55604E-1,3.7861225E-1,-1.0404206E-3,-9.415405E-2,4.990397E-1,-7.9485886E-2,-4.8504692E-1,6.393501E-1,-1.9971284E-1,6.602066E-1,-8.3688304E-2,2.9657433E-2,-2.063798E-2,9.672235E-2,5.3902384E-2,-4.521422E-1,8.8614726E-1,4.0081027E-1,-8.078309E-2,5.5452116E-2,1.0606365E0,4.2348307E-1,-3.5446912E-1,6.328109E-1,4.8420712E-2,-3.5582658E-2,1.13478184E-1,1.6983418E-2,2.9760783E-3,9.620202E-2,1.397534E-2,-7.2261125E-2,3.152659E-2,9.36239E-2],"categories":[],"categories_nodes":[],"categories_segments":[],"categories_sizes":[],"default_left":[0,0,0,0,0,0,0,0,0,0,0,0,0,0,0,0,0,0,0,0,0,0,0,0,0,0,0,0,0,0,0,0,0,0,0],"id":23,"left_children":[1,3,5,7,-1,9,-1,11,13,15,17,-1,-1,-1,-1,-1,19,21,23,-1,25,27,29,31,33,-1,-1,-1,-1,-1,-1,-1,-1,-1,-1],"loss_changes":[1.1644649E1,4.1383386E0,6.4901776E0,3.0802956E0,0E0,4.604968E0,0E0,1.8043945E0,1.3860309E0,1.7751063E0,1.5500603E0,0E0,0E0,0E0,0E0,0E0,1.2480435E0,8.868065E-1,3.19603E0,0E0,8.2151103E-1,5.570612E-1,1.2852616E0,9.427067E-1,9.895139E-1,0E0,0E0,0E0,0E0,0E0,0E0,0E0,0E0,0E0,0E0],"parents":[2147483647,0,0,1,1,2,2,3,3,5,5,7,7,8,8,9,9,10,10,16,16,17,17,18,18,20,20,21,21,22,22,23,23,24,24],"right_children":[2,4,6,8,-1,10,-1,12,14,16,18,-1,-1,-1,-1,-1,20,22,24,-1,26,28,30,32,34,-1,-1,-1,-1,-1,-1,-1,-1,-1,-1],"split_conditions":[1.012266E-1,8.507239E1,1.071974E2,3E0,-9.415405E-2,5E0,-7.9485886E-2,-1.7359324E-1,4E0,7.603192E1,9.1053825E1,-8.3688304E-2,2.9657433E-2,-2.063798E-2,9.672235E-2,5.3902384E-2,7.4301445E-1,9.39E2,4.0483505E-1,-8.078309E-2,1.7811791E0,9.361481E1,7.644459E4,9.667168E1,2.5E1,4.8420712E-2,-3.5582658E-2,1.13478184E-1,1.6983418E-2,2.9760783E-3,9.620202E-2,1.397534E-2,-7.2261125E-2,3.152659E-2,9.36239E-2],"split_indices":[9,7,7,0,0,8,0,9,8,7,7,0,0,0,0,0,9,5,9,0,11,3,2,7,8,0,0,0,0,0,0,0,0,0,0],"split_type":[0,0,0,0,0,0,0,0,0,0,0,0,0,0,0,0,0,0,0,0,0,0,0,0,0,0,0,0,0,0,0,0,0,0,0],"sum_hessian":[6.0459324E1,1.834023E1,4.211909E1,7.937417E0,1.0402814E1,3.8720165E1,3.398925E0,4.658844E0,3.278573E0,7.2121434E0,3.1508022E1,3.163939E0,1.4949051E0,1.0194675E0,2.2591054E0,1.547634E0,5.6645093E0,1.5548607E1,1.5959416E1,2.9828413E0,2.681668E0,1.0351998E1,5.1966085E0,3.6262515E0,1.2333164E1,1.2261226E0,1.4555453E0,9.303722E0,1.0482764E0,3.6115103E0,1.585098E0,1.8128812E0,1.8133703E0,7.0227246E0,5.31044E0],"tree_param":{"num_deleted":"0","num_feature":"13","num_nodes":"35","size_leaf_vector":"1"}},{"base_weights":[4.9492557E-2,-5.170397E-1,3.1430653E-1,2.3685176E-2,-9.339561E-2,4.3391123E-1,-7.86311E-2,-3.789621E-1,5.856284E-1,-1.348751E-1,6.43841E-1,-7.964005E-2,2.0190606E-1,-5.5594366E-5,8.5338235E-2,6.552484E-2,-4.0179977E-1,4.141841E-1,9.816723E-1,-2.9360387E-2,6.6394284E-2,-5.938912E-1,9.768873E-2,-2.2869074E-1,5.2733105E-1,3.6609927E-1,1.1282855E-1,7.2651687E-3,-7.355053E-2,4.404206E-2,-3.0956581E-2,-6.6074006E-2,2.8293535E-2,1.0246396E-1,2.9330453E-2,7.894487E-2,-2.3108909E-2],"categories":[],"categories_nodes":[],"categories_segments":[],"categories_sizes":[],"default_left":[0,0,0,0,0,0,0,0,0,0,0,0,0,0,0,0,0,0,0,0,0,0,0,0,0,0,0,0,0,0,0,0,0,0,0,0,0],"id":24,"left_children":[1,3,5,7,-1,9,-1,11,13,15,17,-1,19,-1,-1,-1,21,23,25,-1,-1,27,29,31,33,35,-1,-1,-1,-1,-1,-1,-1,-1,-1,-1,-1],"loss_changes":[8.826396E0,4.254328E0,5.6035943E0,2.291889E0,0E0,4.4692507E0,0E0,1.6003137E0,6.615089E-1,2.5243945E0,1.6867294E0,0E0,9.4591045E-1,0E0,0E0,0E0,8.8639796E-1,1.4147646E0,5.0651073E-1,0E0,0E0,6.553612E-1,5.909231E-1,9.297234E-1,1.4954515E0,1.0522032E0,0E0,0E0,0E0,0E0,0E0,0E0,0E0,0E0,0E0,0E0,0E0],"parents":[2147483647,0,0,1,1,2,2,3,3,5,5,7,7,8,8,9,9,10,10,12,12,16,16,17,17,18,18,21,21,22,22,23,23,24,24,25,25],"right_children":[2,4,6,8,-1,10,-1,12,14,16,18,-1,20,-1,-1,-1,22,24,26,-1,-1,28,30,32,34,36,-1,-1,-1,-1,-1,-1,-1,-1,-1,-1,-1],"split_conditions":[1.09733835E-1,8.507239E1,1.071974E2,2.4E1,-9.339561E-2,9E0,-7.86311E-2,6.291136E1,-4.7518435E-1,7.603192E1,2.8E1,-7.964005E-2,1.5E1,-5.5594366E-5,8.5338235E-2,6.552484E-2,8.852054E-1,5.409593E-1,3.794033E-1,-2.9360387E-2,6.6394284E-2,4.3657453E4,3.3739285E1,3.1168325E1,2.1676386E1,8.688347E1,1.1282855E-1,7.2651687E-3,-7.355053E-2,4.404206E-2,-3.0956581E-2,-6.6074006E-2,2.8293535E-2,1.0246396E-1,2.9330453E-2,7.894487E-2,-2.3108909E-2],"split_indices":[9,7,7,8,0,8,0,3,9,7,8,0,1,0,0,0,9,11,9,0,0,2,10,10,10,7,0,0,0,0,0,0,0,0,0,0,0],"split_type":[0,0,0,0,0,0,0,0,0,0,0,0,0,0,0,0,0,0,0,0,0,0,0,0,0,0,0,0,0,0,0,0,0,0,0,0,0],"sum_hessian":[5.6749367E1,1.777334E1,3.897603E1,8.148383E0,9.624956E0,3.5702026E1,3.2740014E0,4.9367166E0,3.2116668E0,9.721095E0,2.598093E1,2.6565475E0,2.2801688E0,1.3199252E0,1.8917416E0,2.0873947E0,7.633701E0,1.6791868E1,9.189063E0,1.2761307E0,1.0040382E0,5.376881E0,2.2568197E0,2.3602555E0,1.4431612E1,2.4402833E0,6.7487793E0,1.0275286E0,4.3493524E0,1.1812668E0,1.0755528E0,1.1216297E0,1.2386256E0,3.5370471E0,1.0894565E1,1.23959E0,1.2006934E0],"tree_param":{"num_deleted":"0","num_feature":"13","num_nodes":"37","size_leaf_vector":"1"}},{"base_weights":[-2.459308E-2,-3.458671E-1,3.529056E-1,-8.605872E-2,-2.2906086E-1,6.1631244E-1,1.8759829E-1,2.5537616E-1,-3.5822973E-1,7.941528E-2,8.8632655E-1,-4.2392418E-1,3.0516496E-1,-1.925354E-1,8.5267305E-2,2.4315895E-1,-4.5095134E-1,-3.6056615E-2,4.101523E-2,1.465393E-2,9.989389E-2,-8.8510587E-4,-6.1409988E-2,7.684491E-2,1.410477E-1,-6.192444E-2,2.2758394E-2,-2.3189904E-2,5.7773918E-2,-5.1381993E-1,2.2696441E-2,7.8125186E-2,-6.1008274E-3,-5.742078E-2,2.206939E-2,-2.1633705E-2,5.5964448E-2],"categories":[],"categories_nodes":[],"categories_segments":[],"categories_sizes":[],"default_left":[0,0,0,0,0,0,0,0,0,0,0,0,0,0,0,0,0,0,0,0,0,0,0,0,0,0,0,0,0,0,0,0,0,0,0,0,0],"id":25,"left_children":[1,3,5,-1,7,9,11,13,15,17,19,21,23,25,-1,27,29,-1,-1,-1,-1,-1,-1,-1,31,-1,-1,-1,-1,33,-1,-1,35,-1,-1,-1,-1],"loss_changes":[6.8598022E0,1.6376677E0,1.018132E0,0E0,1.7331676E0,1.3216352E0,1.3828709E0,1.7979211E0,1.2878511E0,7.75297E-1,3.7768126E-1,2.4953216E-1,1.0477129E0,9.1277397E-1,0E0,6.858639E-1,9.117713E-1,0E0,0E0,0E0,0E0,0E0,0E0,0E0,1.177869E0,0E0,0E0,0E0,0E0,8.976259E-1,0E0,0E0,1.4434034E0,0E0,0E0,0E0,0E0],"parents":[2147483647,0,0,1,1,2,2,4,4,5,5,6,6,7,7,8,8,9,9,10,10,11,11,12,12,13,13,15,15,16,16,24,24,29,29,32,32],"right_children":[2,4,6,-1,8,10,12,14,16,18,20,22,24,26,-1,28,30,-1,-1,-1,-1,-1,-1,-1,32,-1,-1,-1,-1,34,-1,-1,36,-1,-1,-1,-1],"split_conditions":[4.3835604E-1,-6.9340765E-1,1.7254187E0,-8.605872E-2,1.0377047E0,6.32E2,2.2139907E0,8.968234E-1,8.7866335E0,8.756157E-1,4.509576E4,9.9957275E-1,2.5692723E0,4.967701E1,8.5267305E-2,4.80023E0,1.423E3,-3.6056615E-2,4.101523E-2,1.465393E-2,9.989389E-2,-8.8510587E-4,-6.1409988E-2,7.684491E-2,4.230599E4,-6.192444E-2,2.2758394E-2,-2.3189904E-2,5.7773918E-2,4.8351765E0,2.2696441E-2,7.8125186E-2,3E0,-5.742078E-2,2.206939E-2,-2.1633705E-2,5.5964448E-2],"split_indices":[9,9,4,0,4,5,4,4,10,4,2,11,4,3,0,10,5,0,0,0,0,0,0,0,2,0,0,0,0,4,0,0,6,0,0,0,0],"split_type":[0,0,0,0,0,0,0,0,0,0,0,0,0,0,0,0,0,0,0,0,0,0,0,0,0,0,0,0,0,0,0,0,0,0,0,0,0],"sum_hessian":[5.4555042E1,2.9517593E1,2.5037449E1,4.2817817E0,2.5235811E1,8.60216E0,1.6435287E1,5.1066556E0,2.0129156E1,3.3115587E0,5.290602E0,2.2300215E0,1.4205266E1,3.3055139E0,1.8011417E0,2.4721868E0,1.765697E1,1.3823802E0,1.9291786E0,1.0029787E0,4.2876234E0,1.0295314E0,1.2004901E0,2.7526195E0,1.1452646E1,1.4047538E0,1.9007602E0,1.1484463E0,1.3237405E0,1.637998E1,1.2769884E0,1.3350266E0,1.01176195E1,1.5337278E1,1.0427022E0,7.826738E0,2.2908816E0],"tree_param":{"num_deleted":"0","num_feature":"13","num_nodes":"37","size_leaf_vector":"1"}},{"base_weights":[5.5033848E-2,3.2214952E-1,-4.797845E-1,6.341322E-2,6.758695E-1,-2.2559811E-1,-8.2812004E-2,5.313147E-1,-6.7099315E-1,7.827299E-2,7.8364843E-1,2.025402E-1,-4.9334732E-1,-2.1716128E-1,8.137024E-1,-3.0030355E-2,-8.756048E-2,4.726818E-2,-3.7208747E-2,8.672879E-1,1.3012281E-3,6.6669755E-2,-1.07410744E-1,-6.438421E-1,1.8442621E-2,2.8239677E-2,-6.942307E-2,9.808166E-2,3.0956927E-1,-5.1477995E-2,4.938963E-2,1.0216289E-1,4.0674293E-1,-6.2296934E-2,3.66907E-2,1.5975811E-3,-7.786964E-1,-2.4877384E-2,5.7685472E-2,7.503606E-2,6.38755E-4,-8.603009E-2,-2.2171961E-2],"categories":[],"categories_nodes":[],"categories_segments":[],"categories_sizes":[],"default_left":[0,0,0,0,0,0,0,0,0,0,0,0,0,0,0,0,0,0,0,0,0,0,0,0,0,0,0,0,0,0,0,0,0,0,0,0,0,0,0,0,0,0,0],"id":26,"left_children":[1,3,5,7,9,11,-1,13,15,17,19,21,23,25,27,29,-1,-1,-1,31,-1,-1,33,35,-1,-1,-1,-1,37,-1,-1,-1,39,-1,-1,-1,41,-1,-1,-1,-1,-1,-1],"loss_changes":[7.9667E0,3.3496082E0,1.4615259E0,8.092264E0,9.4060135E-1,1.4912535E0,0E0,3.2010689E0,1.180645E0,7.954176E-1,8.3103275E-1,8.4544325E-1,9.1010356E-1,1.3183302E0,5.893941E-1,1.0828142E0,0E0,0E0,0E0,4.2133045E-1,0E0,0E0,1.227858E0,5.971527E-1,0E0,0E0,0E0,0E0,7.554022E-1,0E0,0E0,0E0,6.303265E-1,0E0,0E0,0E0,5.8161736E-2,0E0,0E0,0E0,0E0,0E0,0E0],"parents":[2147483647,0,0,1,1,2,2,3,3,4,4,5,5,7,7,8,8,9,9,10,10,11,11,12,12,13,13,14,14,15,15,19,19,22,22,23,23,28,28,32,32,36,36],"right_children":[2,4,6,8,10,12,-1,14,16,18,20,22,24,26,28,30,-1,-1,-1,32,-1,-1,34,36,-1,-1,-1,-1,38,-1,-1,-1,40,-1,-1,-1,42,-1,-1,-1,-1,-1,-1],"split_conditions":[9.6743034E1,1.9E1,1.0479948E2,1.7647926E0,2.561509E1,7E0,-8.2812004E-2,3E0,7.381439E1,3.8277338E0,4.825077E0,1.7254187E0,4.1E1,3.1228796E-1,8.9992165E1,4.705918E1,-8.756048E-2,4.726818E-2,-3.7208747E-2,6.71666E1,1.3012281E-3,6.6669755E-2,3.4E1,1.0377047E0,1.8442621E-2,2.8239677E-2,-6.942307E-2,9.808166E-2,7E0,-5.1477995E-2,4.938963E-2,1.0216289E-1,1E1,-6.2296934E-2,3.66907E-2,1.5975811E-3,7.671793E1,-2.4877384E-2,5.7685472E-2,7.503606E-2,6.38755E-4,-8.603009E-2,-2.2171961E-2],"split_indices":[7,8,7,4,3,1,0,8,7,4,4,4,8,4,7,3,0,0,0,3,0,0,8,4,0,0,0,0,8,0,0,0,1,0,0,0,3,0,0,0,0,0,0],"split_type":[0,0,0,0,0,0,0,0,0,0,0,0,0,0,0,0,0,0,0,0,0,0,0,0,0,0,0,0,0,0,0,0,0,0,0,0,0,0,0,0,0,0,0],"sum_hessian":[5.3684498E1,3.606796E1,1.7616539E1,2.1511889E1,1.455607E1,1.1137189E1,6.4793506E0,1.3309037E1,8.20285E0,2.4878805E0,1.2068191E1,4.3788433E0,6.7583456E0,3.7090607E0,9.599977E0,2.2624156E0,5.940435E0,1.2999072E0,1.1879731E0,1.0773493E1,1.2946973E0,1.2924291E0,3.0864143E0,5.5713334E0,1.187012E0,2.011158E0,1.6979026E0,6.499814E0,3.1001625E0,1.184212E0,1.0782037E0,7.156764E0,3.6167288E0,1.3287412E0,1.7576731E0,1.0950385E0,4.476295E0,1.0260545E0,2.074108E0,1.4758219E0,2.140907E0,3.4292712E0,1.0470235E0],"tree_param":{"num_deleted":"0","num_feature":"13","num_nodes":"43","size_leaf_vector":"1"}},{"base_weights":[6.644916E-2,-5.663244E-1,3.1751898E-1,1.4550133E-1,-8.16812E-1,-4.8197165E-1,4.654289E-1,5.619442E-1,-4.1566905E-2,-8.7536E-1,-1.072318E-2,-7.95398E-2,-3.0169677E-2,5.6298983E-1,-6.9151334E-2,7.764417E-2,9.174771E-3,-1.6143559E-2,-9.32369E-2,-5.7624497E-2,3.8221966E-2,4.0116444E-1,1.0609757E-1,7.919351E-1,5.3169608E-2,1.1942209E-2,1.06573306E-1,-3.4608494E-2,3.2327484E-2],"categories":[],"categories_nodes":[],"categories_segments":[],"categories_sizes":[],"default_left":[0,0,0,0,0,0,0,0,0,0,0,0,0,0,0,0,0,0,0,0,0,0,0,0,0,0,0,0,0],"id":27,"left_children":[1,3,5,7,9,11,13,15,-1,17,-1,-1,19,21,-1,-1,-1,-1,-1,-1,-1,23,-1,25,27,-1,-1,-1,-1],"loss_changes":[8.819129E0,2.9372282E0,4.9039307E0,1.3934664E0,3.9816332E-1,9.2044485E-1,4.216083E0,2.5898433E-1,0E0,2.890873E-1,0E0,0E0,1.0694975E0,2.1384916E0,0E0,0E0,0E0,0E0,0E0,0E0,0E0,3.4421835E0,0E0,2.0818477E0,1.6890466E0,0E0,0E0,0E0,0E0],"parents":[2147483647,0,0,1,1,2,2,3,3,4,4,5,5,6,6,7,7,9,9,12,12,13,13,21,21,23,23,24,24],"right_children":[2,4,6,8,10,12,14,16,-1,18,-1,-1,20,22,-1,-1,-1,-1,-1,-1,-1,24,-1,26,28,-1,-1,-1,-1],"split_conditions":[6.7042865E-2,7.8834145E1,4E0,5.79E2,4.3E1,7.4301445E-1,1.071974E2,7.063992E1,-4.1566905E-2,4.5464625E0,-1.072318E-2,-7.95398E-2,2E0,8.4286726E-1,-6.9151334E-2,7.764417E-2,9.174771E-3,-1.6143559E-2,-9.32369E-2,-5.7624497E-2,3.8221966E-2,8.813677E1,1.0609757E-1,1.4E1,5.0563407E-1,1.1942209E-2,1.06573306E-1,-3.4608494E-2,3.2327484E-2],"split_indices":[9,7,8,5,8,9,7,7,0,10,0,0,6,9,0,0,0,0,0,0,0,7,0,8,9,0,0,0,0],"split_type":[0,0,0,0,0,0,0,0,0,0,0,0,0,0,0,0,0,0,0,0,0,0,0,0,0,0,0,0,0],"sum_hessian":[5.3379627E1,1.4806649E1,3.857298E1,3.9632287E0,1.084342E1,5.669475E0,3.2903503E1,2.2741845E0,1.6890444E0,9.801093E0,1.042327E0,2.89833E0,2.7711449E0,3.08181E1,2.0854025E0,1.1144661E0,1.1597183E0,1.0081217E0,8.792972E0,1.0213575E0,1.7497874E0,2.4622387E1,6.195713E0,1.0997432E1,1.3624955E1,3.5974379E0,7.3999944E0,5.3845367E0,8.240418E0],"tree_param":{"num_deleted":"0","num_feature":"13","num_nodes":"29","size_leaf_vector":"1"}},{"base_weights":[4.0592365E-2,-4.6439734E-1,2.4191268E-1,-6.64311E-1,1.497553E-1,-1.6021127E-1,5.2195656E-1,-7.8089774E-1,1.4760069E-3,5.2784603E-2,-2.6563495E-2,2.6379028E-1,-7.950365E-1,1.0587215E-1,2.2955476E-1,-1.5912531E-2,-8.350843E-1,-2.606013E-1,5.8687234E-1,-9.101727E-2,-1.9491449E-2,-4.8299097E-2,8.110937E-2,-9.133702E-2,-1.9511154E-2,1.5940567E-2,-5.4132063E-2,4.032147E-2,9.103663E-2,4.3951314E-2,-1.8659623E-1,5.1067002E-2,-4.8364133E-2,1.4089614E-2,-3.956769E-2],"categories":[],"categories_nodes":[],"categories_segments":[],"categories_sizes":[],"default_left":[0,0,0,0,0,0,0,0,0,0,0,0,0,0,0,0,0,0,0,0,0,0,0,0,0,0,0,0,0,0,0,0,0,0,0],"id":28,"left_children":[1,3,5,7,9,11,13,15,-1,-1,-1,17,19,-1,21,-1,23,25,27,-1,-1,29,-1,-1,-1,-1,-1,31,-1,-1,33,-1,-1,-1,-1],"loss_changes":[5.274543E0,1.9184878E0,4.245919E0,9.109936E-1,8.3979034E-1,4.4998407E0,3.2134614E0,1.944294E-1,0E0,0E0,0E0,1.8991472E0,2.808113E-1,0E0,2.5491047E0,0E0,2.5770617E-1,6.3121676E-1,1.1452575E0,0E0,0E0,8.5480237E-1,0E0,0E0,0E0,0E0,0E0,1.1174129E0,0E0,0E0,7.1491706E-1,0E0,0E0,0E0,0E0],"parents":[2147483647,0,0,1,1,2,2,3,3,4,4,5,5,6,6,7,7,11,11,12,12,14,14,16,16,17,17,18,18,21,21,27,27,30,30],"right_children":[2,4,6,8,10,12,14,16,-1,-1,-1,18,20,-1,22,-1,24,26,28,-1,-1,30,-1,-1,-1,-1,-1,32,-1,-1,34,-1,-1,-1,-1],"split_conditions":[3.486512E-2,4E0,1.4E1,8.894468E1,2.0963583E0,1.56389E0,2.5692723E0,9.396379E0,1.4760069E-3,5.2784603E-2,-2.6563495E-2,4E0,8.831194E1,1.0587215E-1,4E1,-1.5912531E-2,1.8E1,1.1E1,4.6814707E-1,-9.101727E-2,-1.9491449E-2,1.8978678E1,8.110937E-2,-9.133702E-2,-1.9511154E-2,1.5940567E-2,-5.4132063E-2,7.82E2,9.103663E-2,4.3951314E-2,1E0,5.1067002E-2,-4.8364133E-2,1.4089614E-2,-3.956769E-2],"split_indices":[9,0,8,3,4,4,4,10,0,0,0,8,3,0,8,0,1,1,9,0,0,10,0,0,0,0,0,5,0,0,6,0,0,0,0],"split_type":[0,0,0,0,0,0,0,0,0,0,0,0,0,0,0,0,0,0,0,0,0,0,0,0,0,0,0,0,0,0,0,0,0,0,0],"sum_hessian":[4.9776722E1,1.3815446E1,3.5961273E1,1.03611145E1,3.4543319E0,1.4938505E1,2.102277E1,8.714935E0,1.6461785E0,1.666631E0,1.7877009E0,9.306881E0,5.6316237E0,6.4893775E0,1.4533392E1,1.0141803E0,7.7007556E0,3.621785E0,5.6850963E0,4.291612E0,1.3400118E0,1.0455025E1,4.078367E0,6.4807796E0,1.2199757E0,1.6240556E0,1.9977293E0,2.5319495E0,3.153147E0,1.8282493E0,8.626776E0,1.3476062E0,1.1843432E0,3.4885774E0,5.1381984E0],"tree_param":{"num_deleted":"0","num_feature":"13","num_nodes":"35","size_leaf_vector":"1"}},{"base_weights":[2.0747349E-2,4.4117165E-1,-2.6907074E-1,-3.3787122E-1,6.162678E-1,-7.7803886E-1,9.904742E-2,4.8851248E-2,-7.6463155E-2,9.152966E-1,1.9257093E-2,-8.8869035E-1,1.711071E-2,2.3779954E-1,-6.8099424E-2,1.2058045E-2,9.9830544E-1,3.7600887E-1,-2.93397E-1,-9.453416E-2,-2.99844E-2,-4.593077E-1,3.8377258E-1,2.6611079E-2,1.1125491E0,6.292314E-2,-4.024279E-3,6.172034E-3,-5.8770478E-2,-6.469392E-2,-2.577244E-3,6.51979E-1,2.942677E-2,1.1878134E-1,3.3815708E-2,2.6647598E-2,8.09307E-2,-4.4075735E-2,4.3398466E-2],"categories":[],"categories_nodes":[],"categories_segments":[],"categories_sizes":[],"default_left":[0,0,0,0,0,0,0,0,0,0,0,0,0,0,0,0,0,0,0,0,0,0,0,0,0,0,0,0,0,0,0,0,0,0,0,0,0,0,0],"id":29,"left_children":[1,3,5,7,9,11,13,-1,-1,15,17,19,-1,21,-1,-1,23,25,27,-1,-1,29,31,-1,33,-1,-1,-1,-1,-1,-1,35,37,-1,-1,-1,-1,-1,-1],"loss_changes":[6.095283E0,2.990107E0,5.6334333E0,1.92119E0,3.018259E0,1.4711428E0,2.1205482E0,0E0,0E0,6.256542E-1,8.572606E-1,9.7164154E-2,0E0,1.815063E0,0E0,0E0,5.489578E-1,4.011973E-1,4.6797705E-1,0E0,0E0,2.4717754E-1,1.29814E0,0E0,8.9328766E-2,0E0,0E0,0E0,0E0,0E0,0E0,2.599721E-1,1.5263861E0,0E0,0E0,0E0,0E0,0E0,0E0],"parents":[2147483647,0,0,1,1,2,2,3,3,4,4,5,5,6,6,9,9,10,10,11,11,13,13,16,16,17,17,18,18,21,21,22,22,24,24,31,31,32,32],"right_children":[2,4,6,8,10,12,14,-1,-1,16,18,20,-1,22,-1,-1,24,26,28,-1,-1,30,32,-1,34,-1,-1,-1,-1,-1,-1,36,38,-1,-1,-1,-1,-1,-1],"split_conditions":[8.688347E1,-3.684087E-1,3.8776138E-1,9.3861204E-1,9.54E2,1.431E3,1.071974E2,4.8851248E-2,-7.6463155E-2,3E0,7.8834145E1,8.466549E1,1.711071E-2,7.0343155E-1,-6.8099424E-2,1.2058045E-2,4.1689156E4,7.2392265E1,3.982124E-1,-9.453416E-2,-2.99844E-2,3.957791E0,2.5556457E0,2.6611079E-2,1.0041925E5,6.292314E-2,-4.024279E-3,6.172034E-3,-5.8770478E-2,-6.469392E-2,-2.577244E-3,2.0573058E0,8.97E2,1.1878134E-1,3.3815708E-2,2.6647598E-2,8.09307E-2,-4.4075735E-2,4.3398466E-2],"split_indices":[7,9,9,4,5,5,7,0,0,1,7,10,0,11,0,0,2,10,9,0,0,4,4,0,2,0,0,0,0,0,0,11,5,0,0,0,0,0,0],"split_type":[0,0,0,0,0,0,0,0,0,0,0,0,0,0,0,0,0,0,0,0,0,0,0,0,0,0,0,0,0,0,0,0,0,0,0,0,0,0,0],"sum_hessian":[4.8050022E1,1.9393959E1,2.8656063E1,3.38843E0,1.600553E1,1.1559749E1,1.7096315E1,1.104658E0,2.283772E0,1.0308906E1,5.696624E0,1.0409861E1,1.1498879E0,1.5104673E1,1.9916413E0,1.2068923E0,9.102014E0,2.5660336E0,3.13059E0,8.943974E0,1.465887E0,2.2436066E0,1.2861067E1,1.6778558E0,7.424158E0,1.2773249E0,1.2887087E0,1.7768706E0,1.3537194E0,1.2223425E0,1.021264E0,6.8422074E0,6.0188594E0,6.279935E0,1.1442229E0,2.763797E0,4.0784106E0,2.7422686E0,3.2765906E0],"tree_param":{"num_deleted":"0","num_feature":"13","num_nodes":"39","size_leaf_vector":"1"}},{"base_weights":[-7.2356716E-2,-5.2241033E-1,2.2628574E-1,4.1845188E-2,-9.150506E-2,3.2732397E-1,-7.0691206E-2,4.9930257E-1,-4.129702E-1,7.1473205E-1,1.0328961E-1,2.6028467E-4,6.8300706E-1,-6.1404437E-1,1.701724E-2,-1.3151518E-1,1.0160726E-1,-3.5378215E-1,7.528663E-1,8.4838195E-4,9.529442E-2,-1.3127225E-2,-7.3619865E-2,2.6599584E-2,-5.5156272E-2,2.1410623E-1,-6.625574E-1,-3.054179E-3,8.9516425E-1,6.4810134E-2,-3.7939038E-2,-6.921724E-4,-7.745472E-2,2.4821175E-2,9.961114E-2],"categories":[],"categories_nodes":[],"categories_segments":[],"categories_sizes":[],"default_left":[0,0,0,0,0,0,0,0,0,0,0,0,0,0,0,0,0,0,0,0,0,0,0,0,0,0,0,0,0,0,0,0,0,0,0],"id":30,"left_children":[1,3,5,7,-1,9,-1,11,13,15,17,-1,19,21,-1,23,-1,25,27,-1,-1,-1,-1,-1,-1,29,31,-1,33,-1,-1,-1,-1,-1,-1],"loss_changes":[6.5372195E0,4.325796E0,3.004067E0,2.0573094E0,0E0,2.2884111E0,0E0,4.4426298E-1,6.917925E-1,2.6335936E0,5.7333837E0,0E0,6.409707E-1,1.357975E-1,0E0,7.243833E-1,0E0,2.1563854E0,9.107871E-1,0E0,0E0,0E0,0E0,0E0,0E0,1.4828211E0,5.590067E-1,0E0,1.9290972E-1,0E0,0E0,0E0,0E0,0E0,0E0],"parents":[2147483647,0,0,1,1,2,2,3,3,5,5,7,7,8,8,9,9,10,10,12,12,13,13,15,15,17,17,18,18,25,25,26,26,28,28],"right_children":[2,4,6,8,-1,10,-1,12,14,16,18,-1,20,22,-1,24,-1,26,28,-1,-1,-1,-1,-1,-1,30,32,-1,34,-1,-1,-1,-1,-1,-1],"split_conditions":[2.880529E-1,8.317705E1,1.0641721E2,3.7287033E1,-9.150506E-2,1.7254187E0,-7.0691206E-2,-2.9000992E-1,9.091339E-2,3E0,2.6E1,2.6028467E-4,1.6E1,4.34E2,1.701724E-2,2.4807186E-1,1.0160726E-1,8.642578E1,1.28E2,8.4838195E-4,9.529442E-2,-1.3127225E-2,-7.3619865E-2,2.6599584E-2,-5.5156272E-2,6.59745E1,2.11E2,-3.054179E-3,3E0,6.4810134E-2,-3.7939038E-2,-6.921724E-4,-7.745472E-2,2.4821175E-2,9.961114E-2],"split_indices":[9,7,7,10,0,4,0,9,9,8,8,0,8,5,0,4,0,7,5,0,0,0,0,0,0,10,5,0,1,0,0,0,0,0,0],"split_type":[0,0,0,0,0,0,0,0,0,0,0,0,0,0,0,0,0,0,0,0,0,0,0,0,0,0,0,0,0,0,0,0,0,0,0],"sum_hessian":[4.6758636E1,1.835237E1,2.840627E1,7.8970704E0,1.0455298E1,2.6216976E1,2.1892924E0,3.888335E0,4.0087357E0,8.803455E0,1.7413523E1,1.3236425E0,2.5646925E0,2.941486E0,1.0672497E0,2.4596493E0,6.343806E0,1.0488618E1,6.924904E0,1.027811E0,1.5368813E0,1.0129192E0,1.9285668E0,1.4521546E0,1.0074947E0,3.8022506E0,6.6863675E0,1.1852093E0,5.7396946E0,2.1431005E0,1.65915E0,1.1303906E0,5.555977E0,1.2415632E0,4.4981313E0],"tree_param":{"num_deleted":"0","num_feature":"13","num_nodes":"35","size_leaf_vector":"1"}},{"base_weights":[2.5076715E-2,2.0326121E-1,-6.013819E-1,-2.563572E-1,4.108955E-1,-7.537354E-1,2.3384308E-2,-7.788305E-2,-4.2126123E-2,6.075243E-1,9.092458E-2,-8.994928E-2,-1.3803449E-2,-3.748886E-1,2.6806062E-1,6.526889E-1,4.977507E-3,-5.5051245E-2,2.480693E-1,-7.617611E-2,1.3737733E-2,5.431199E-1,-2.2817185E-2,2.3432383E-1,7.2780985E-1,-9.3741596E-2,5.730598E-1,1.4088504E-2,6.590783E-2,-2.1488173E-2,6.87641E-2,-1.3668193E-3,8.013156E-2,2.6712982E-2,-5.0136782E-2,8.005815E-2,9.378433E-3],"categories":[],"categories_nodes":[],"categories_segments":[],"categories_sizes":[],"default_left":[0,0,0,0,0,0,0,0,0,0,0,0,0,0,0,0,0,0,0,0,0,0,0,0,0,0,0,0,0,0,0,0,0,0,0,0,0],"id":31,"left_children":[1,3,5,7,9,11,-1,-1,13,15,17,-1,-1,19,21,23,-1,-1,25,-1,-1,27,-1,29,31,33,35,-1,-1,-1,-1,-1,-1,-1,-1,-1,-1],"loss_changes":[5.2701306E0,3.6031775E0,1.5079417E0,1.3127296E0,1.557364E0,6.9137573E-1,0E0,0E0,1.0896045E0,3.629899E-1,1.238474E0,0E0,0E0,1.1034906E0,8.804611E-1,2.8330278E-1,0E0,0E0,1.1056981E0,0E0,0E0,8.7272525E-2,0E0,8.9572245E-1,6.523285E-1,9.39303E-1,4.6960413E-1,0E0,0E0,0E0,0E0,0E0,0E0,0E0,0E0,0E0,0E0],"parents":[2147483647,0,0,1,1,2,2,3,3,4,4,5,5,8,8,9,9,10,10,13,13,14,14,15,15,18,18,21,21,23,23,24,24,25,25,26,26],"right_children":[2,4,6,8,10,12,-1,-1,14,16,18,-1,-1,20,22,24,-1,-1,26,-1,-1,28,-1,30,32,34,36,-1,-1,-1,-1,-1,-1,-1,-1,-1,-1],"split_conditions":[1.0024038E2,9E0,3.6759174E0,2E0,9.078192E1,3.4E1,2.3384308E-2,-7.788305E-2,4.9873035E1,3.5642025E0,1.8387323E1,-8.994928E-2,-1.3803449E-2,2.77608E0,7.82512E1,4.072898E4,4.977507E-3,-5.5051245E-2,1.8732972E0,-7.617611E-2,1.3737733E-2,4.9171257E1,-2.2817185E-2,8.017474E1,2E0,5.1432095E1,9E0,1.4088504E-2,6.590783E-2,-2.1488173E-2,6.87641E-2,-1.3668193E-3,8.013156E-2,2.6712982E-2,-5.0136782E-2,8.005815E-2,9.378433E-3],"split_indices":[7,8,11,8,7,8,0,0,3,11,3,0,0,11,3,2,0,0,11,0,0,10,0,3,1,10,1,0,0,0,0,0,0,0,0,0,0],"split_type":[0,0,0,0,0,0,0,0,0,0,0,0,0,0,0,0,0,0,0,0,0,0,0,0,0,0,0,0,0,0,0,0,0,0,0,0,0],"sum_hessian":[4.5117657E1,3.5652504E1,9.465153E0,1.1021252E1,2.4631254E1,8.08748E0,1.3776728E0,2.4385562E0,8.582696E0,1.46994505E1,9.931803E0,6.1666894E0,1.9207904E0,4.040034E0,4.5426617E0,1.3440838E1,1.2586125E0,1.4617947E0,8.470009E0,2.024245E0,2.0157888E0,2.8618598E0,1.6808021E0,2.6730912E0,1.0767747E1,4.4749775E0,3.995031E0,1.1360625E0,1.7257973E0,1.606822E0,1.066269E0,1.0445957E0,9.723151E0,2.556435E0,1.918542E0,2.2544153E0,1.7406158E0],"tree_param":{"num_deleted":"0","num_feature":"13","num_nodes":"37","size_leaf_vector":"1"}},{"base_weights":[5.3506896E-2,-5.053741E-1,2.6892275E-1,1.0038865E-2,-8.942544E-2,-4.2070723E-1,3.8201466E-1,4.2034617E-1,-3.9651257E-1,7.6281704E-2,-7.44017E-2,8.5734785E-1,1.5492336E-1,-3.391629E-2,9.500935E-2,1.3682264E-2,-6.8992965E-2,-5.781248E-4,1.2028053E-2,1.6374232E-2,9.5969725E-1,-4.139262E-1,6.0483783E-1,1.04523174E-1,2.3825612E-2,4.2759052E-1,-6.7576736E-1,8.627674E-2,2.2174042E-1,6.464158E-2,-3.4437378E-4,-2.6884237E-2,-8.686639E-2,-2.4821542E-2,8.6192705E-2],"categories":[],"categories_nodes":[],"categories_segments":[],"categories_sizes":[],"default_left":[0,0,0,0,0,0,0,0,0,0,0,0,0,0,0,0,0,0,0,0,0,0,0,0,0,0,0,0,0,0,0,0,0,0,0],"id":32,"left_children":[1,3,5,7,-1,9,11,13,15,17,-1,19,21,-1,-1,-1,-1,-1,-1,-1,23,25,27,-1,-1,29,31,-1,33,-1,-1,-1,-1,-1,-1],"loss_changes":[5.8448496E0,2.722826E0,2.8810496E0,1.3029147E0,0E0,9.2282164E-1,3.1583757E0,1.8815475E0,7.103453E-1,1.1640729E-2,0E0,5.26968E-1,5.843317E0,0E0,0E0,0E0,0E0,0E0,0E0,0E0,2.564702E-1,2.546297E0,1.0545621E0,0E0,0E0,2.8930706E-1,4.1019964E-1,0E0,2.1452167E0,0E0,0E0,0E0,0E0,0E0,0E0],"parents":[2147483647,0,0,1,1,2,2,3,3,5,5,6,6,7,7,8,8,9,9,11,11,12,12,20,20,21,21,22,22,25,25,26,26,28,28],"right_children":[2,4,6,8,-1,10,12,14,16,18,-1,20,22,-1,-1,-1,-1,-1,-1,-1,24,26,28,-1,-1,30,32,-1,34,-1,-1,-1,-1,-1,-1],"split_conditions":[1.012266E-1,8.264325E1,4E0,2.2335727E0,-8.942544E-2,8.6068115E1,1.9327025E0,9E0,2.4423012E1,7.951574E1,-7.44017E-2,5E0,2.5E1,-3.391629E-2,9.500935E-2,1.3682264E-2,-6.8992965E-2,-5.781248E-4,1.2028053E-2,1.6374232E-2,1.00217636E2,7.754114E1,9.519422E1,1.04523174E-1,2.3825612E-2,5.9814106E1,2.5352983E0,8.627674E-2,2E0,6.464158E-2,-3.4437378E-4,-2.6884237E-2,-8.686639E-2,-2.4821542E-2,8.6192705E-2],"split_indices":[9,7,8,4,0,7,4,8,10,7,0,8,8,0,0,0,0,0,0,0,7,7,7,0,0,10,4,0,12,0,0,0,0,0,0],"split_type":[0,0,0,0,0,0,0,0,0,0,0,0,0,0,0,0,0,0,0,0,0,0,0,0,0,0,0,0,0,0,0,0,0,0,0],"sum_hessian":[4.6419697E1,1.2539867E1,3.387983E1,5.811553E0,6.7283144E0,4.389963E0,2.9489864E1,2.8755283E0,2.9360247E0,2.0313892E0,2.358574E0,8.636708E0,2.0853157E1,1.3293616E0,1.5461668E0,1.231414E0,1.7046107E0,1.012173E0,1.0192162E0,1.4448727E0,7.1918354E0,9.2446575E0,1.1608499E1,6.028305E0,1.1635301E0,2.0436544E0,7.2010036E0,6.189312E0,5.419187E0,1.0240731E0,1.0195813E0,3.0855641E0,4.1154394E0,3.4781682E0,1.9410189E0],"tree_param":{"num_deleted":"0","num_feature":"13","num_nodes":"35","size_leaf_vector":"1"}},{"base_weights":[8.303904E-2,-4.6105593E-1,2.5944173E-1,-1.6949622E-1,-8.362228E-2,-8.653736E-2,5.2782166E-1,2.7480403E-1,-5.358182E-1,3.446867E-1,-6.9618654E-1,8.2493895E-1,1.7684779E-1,-3.727707E-2,7.626872E-2,-7.73322E-2,1.4533761E-2,-2.1950914E-2,7.897648E-1,-8.819774E-2,-2.4166094E-1,9.1078654E-2,3.517891E-1,-1.9213673E-1,7.1184325E-1,4.2236056E-2,-3.1902725E-1,9.36384E-2,2.8523436E-2,1.8316302E-2,-4.9085405E-2,4.1622035E-2,1.1831494E-2,4.5683015E-2,-4.800928E-1,1.7159434E-2,8.369401E-2,2.8655658E-2,-6.101756E-2,-7.170158E-2,1.3487274E-2],"categories":[],"categories_nodes":[],"categories_segments":[],"categories_sizes":[],"default_left":[0,0,0,0,0,0,0,0,0,0,0,0,0,0,0,0,0,0,0,0,0,0,0,0,0,0,0,0,0,0,0,0,0,0,0,0,0,0,0,0,0],"id":33,"left_children":[1,3,5,7,-1,9,11,13,15,17,19,21,23,-1,-1,-1,-1,25,27,-1,29,-1,31,33,35,-1,37,-1,-1,-1,-1,-1,-1,-1,39,-1,-1,-1,-1,-1,-1],"loss_changes":[4.69948E0,1.1755514E0,3.4510074E0,1.4543012E0,0E0,4.6776547E0,2.0225224E0,1.6397243E0,8.793173E-1,1.739833E0,4.0538192E-1,1.2591982E-1,2.2699108E0,0E0,0E0,0E0,0E0,1.0271338E0,8.7604046E-2,0E0,4.6070468E-1,0E0,6.4989924E-4,1.5615668E0,1.6884255E-1,0E0,9.896747E-1,0E0,0E0,0E0,0E0,0E0,0E0,0E0,8.926165E-1,0E0,0E0,0E0,0E0,0E0,0E0],"parents":[2147483647,0,0,1,1,2,2,3,3,5,5,6,6,7,7,8,8,9,9,10,10,11,11,12,12,17,17,18,18,20,20,22,22,23,23,24,24,26,26,34,34],"right_children":[2,4,6,8,-1,10,12,14,16,18,20,22,24,-1,-1,-1,-1,26,28,-1,30,-1,32,34,36,-1,38,-1,-1,-1,-1,-1,-1,-1,40,-1,-1,-1,-1,-1,-1],"split_conditions":[3.486512E-2,7.4450836E4,1.5E1,2.2335727E0,-8.362228E-2,1.4373083E0,3.154609E0,9E0,3.7E1,6E0,6.948123E-1,1.7E1,4.1E1,-3.727707E-2,7.626872E-2,-7.73322E-2,1.4533761E-2,3.4522954E-1,1.0935781E0,-8.819774E-2,6.3136367E4,9.1078654E-2,5.168173E-1,4.9541934E4,4.1080925E1,4.2236056E-2,5.3212566E4,9.36384E-2,2.8523436E-2,1.8316302E-2,-4.9085405E-2,4.1622035E-2,1.1831494E-2,4.5683015E-2,3E0,1.7159434E-2,8.369401E-2,2.8655658E-2,-6.101756E-2,-7.170158E-2,1.3487274E-2],"split_indices":[9,2,8,4,0,4,4,8,8,8,9,1,8,0,0,0,0,4,4,0,2,0,9,2,3,0,2,0,0,0,0,0,0,0,6,0,0,0,0,0,0],"split_type":[0,0,0,0,0,0,0,0,0,0,0,0,0,0,0,0,0,0,0,0,0,0,0,0,0,0,0,0,0,0,0,0,0,0,0,0,0,0,0,0,0],"sum_hessian":[4.671694E1,1.104284E1,3.56741E1,7.030724E0,4.012116E0,1.5880055E1,1.9794044E1,3.2900982E0,3.7406259E0,9.555655E0,6.324401E0,9.988143E0,9.805902E0,1.515068E0,1.7750303E0,2.6732242E0,1.0674016E0,5.76081E0,3.7948446E0,3.8217826E0,2.502618E0,7.671326E0,2.316817E0,6.1826277E0,3.623274E0,2.1393878E0,3.621422E0,2.2771435E0,1.5177013E0,1.0232162E0,1.479402E0,1.2022967E0,1.1145203E0,1.7199397E0,4.462688E0,1.1271601E0,2.496114E0,1.1809132E0,2.4405088E0,3.1017544E0,1.3609337E0],"tree_param":{"num_deleted":"0","num_feature":"13","num_nodes":"41","size_leaf_vector":"1"}},{"base_weights":[5.5658948E-2,-2.4047305E-1,3.1022683E-1,-3.4960002E-1,5.603048E-2,1.513323E-1,6.629685E-1,-6.492719E-2,-6.216668E-1,4.0996948E-1,-4.4293725E-1,8.9571245E-2,1.9400017E-1,-3.3225822E-1,4.9288458E-1,-8.555444E-2,-3.1837964E-1,-1.3172719E-1,5.8995134E-1,1.8022737E-2,-6.1139673E-1,-2.233369E-2,5.9670355E-2,5.559082E-2,-5.5052215E-1,7.3910765E-2,-5.0563565E-3,-6.101429E-2,8.827674E-2,4.101924E-2,-6.5503374E-2,7.605183E-1,-4.3694142E-2,-7.472631E-2,-4.260632E-3,3.422442E-4,-7.9597555E-2,3.6007535E-2,-2.6138825E-2,9.657231E-2,3.1072984E-2,-3.687368E-2,3.1046554E-2],"categories":[],"categories_nodes":[],"categories_segments":[],"categories_sizes":[],"default_left":[0,0,0,0,0,0,0,0,0,0,0,0,0,0,0,0,0,0,0,0,0,0,0,0,0,0,0,0,0,0,0,0,0,0,0,0,0,0,0,0,0,0,0],"id":34,"left_children":[1,3,5,7,-1,9,11,13,15,17,19,-1,21,23,25,-1,27,29,31,-1,33,-1,-1,-1,35,-1,-1,-1,37,-1,-1,39,41,-1,-1,-1,-1,-1,-1,-1,-1,-1,-1],"loss_changes":[3.4195666E0,2.0375123E0,1.2614768E0,1.4437969E0,0E0,2.9554088E0,6.175523E-1,1.7267071E0,4.1435742E-1,1.3542879E0,7.35152E-1,0E0,7.5192356E-1,1.7953734E0,5.456261E-1,0E0,7.429726E-1,1.4265729E0,1.1151798E0,0E0,3.4791827E-1,0E0,0E0,0E0,9.095743E-1,0E0,0E0,0E0,4.0773773E-1,0E0,0E0,4.3294525E-1,4.6775836E-1,0E0,0E0,0E0,0E0,0E0,0E0,0E0,0E0,0E0,0E0],"parents":[2147483647,0,0,1,1,2,2,3,3,5,5,6,6,7,7,8,8,9,9,10,10,12,12,13,13,14,14,16,16,17,17,18,18,20,20,24,24,28,28,31,31,32,32],"right_children":[2,4,6,8,-1,10,12,14,16,18,20,-1,22,24,26,-1,28,30,32,-1,34,-1,-1,-1,36,-1,-1,-1,38,-1,-1,40,42,-1,-1,-1,-1,-1,-1,-1,-1,-1,-1],"split_conditions":[3.794033E-1,4.3E1,2.6E1,2.2335727E0,5.603048E-2,2.5692723E0,3.8277338E0,1.4E1,2.4E1,3E0,4.6248516E4,8.9571245E-2,2E0,1.59E2,7.4450836E4,-8.555444E-2,2.5165254E-2,3.1228796E-1,8.7022734E4,1.8022737E-2,8.349124E-1,-2.233369E-2,5.9670355E-2,5.559082E-2,-4.9840334E-1,7.3910765E-2,-5.0563565E-3,-6.101429E-2,1E0,4.101924E-2,-6.5503374E-2,1.7122399E0,1.2E1,-7.472631E-2,-4.260632E-3,3.422442E-4,-7.9597555E-2,3.6007535E-2,-2.6138825E-2,9.657231E-2,3.1072984E-2,-3.687368E-2,3.1046554E-2],"split_indices":[9,8,8,4,0,4,4,8,8,8,2,0,0,5,2,0,9,4,2,0,9,0,0,0,9,0,0,0,0,0,0,4,8,0,0,0,0,0,0,0,0,0,0],"split_type":[0,0,0,0,0,0,0,0,0,0,0,0,0,0,0,0,0,0,0,0,0,0,0,0,0,0,0,0,0,0,0,0,0,0,0,0,0,0,0,0,0,0,0],"sum_hessian":[4.3371353E1,2.0074543E1,2.3296812E1,1.816281E1,1.9117346E0,1.7046938E1,6.2498736E0,9.481076E0,8.681733E0,1.2093674E1,4.9532638E0,3.5687687E0,2.6811051E0,6.682733E0,2.7983427E0,3.8736727E0,4.80806E0,3.0829468E0,9.010727E0,1.0392008E0,3.914063E0,1.5353589E0,1.1457461E0,1.0131278E0,5.6696057E0,1.6780332E0,1.1203095E0,2.5081508E0,2.299909E0,1.6207267E0,1.4622201E0,6.941864E0,2.068863E0,2.906108E0,1.0079551E0,2.0436063E0,3.6259992E0,1.277287E0,1.0226221E0,3.9793324E0,2.9625316E0,1.0573149E0,1.011548E0],"tree_param":{"num_deleted":"0","num_feature":"13","num_nodes":"43","size_leaf_vector":"1"}},{"base_weights":[5.6020163E-2,-2.2361661E-1,2.678919E-1,2.1246499E-1,-7.086067E-1,7.042769E-1,3.5198152E-2,-2.5905982E-1,6.109555E-1,3.5462254E-3,-8.002946E-2,7.614076E-1,1.2381627E-2,-4.9659184E-1,3.2888985E-1,7.550899E-2,-5.000101E-1,2.6820013E-3,7.590363E-1,2.924755E-1,8.90312E-2,2.7086347E-2,-7.1484727E-1,1.0893566E-1,6.9730955E-1,4.316482E-2,-2.8618356E-2,-6.661754E-2,-3.9947475E-3,8.78711E-2,3.0723268E-2,4.5041576E-2,-9.520484E-5,-1.6096693E-2,-8.071916E-2,5.969357E-2,-1.7355539E-1,8.5943975E-2,1.1360514E-2,1.3139221E-2,-5.594181E-2],"categories":[],"categories_nodes":[],"categories_segments":[],"categories_sizes":[],"default_left":[0,0,0,0,0,0,0,0,0,0,0,0,0,0,0,0,0,0,0,0,0,0,0,0,0,0,0,0,0,0,0,0,0,0,0,0,0,0,0,0,0],"id":35,"left_children":[1,3,5,7,9,11,13,15,17,-1,-1,19,-1,21,23,25,27,-1,29,31,-1,-1,33,35,37,-1,-1,-1,-1,-1,-1,-1,-1,-1,-1,-1,39,-1,-1,-1,-1],"loss_changes":[2.7294383E0,4.3736405E0,2.624479E0,2.278394E0,6.890712E-1,2.0488024E-1,2.9853604E0,5.1098716E-1,5.343654E-1,0E0,0E0,2.2430086E-1,0E0,1.3371576E0,9.160627E-1,5.5202657E-1,2.4429989E-1,0E0,4.674673E-3,1.495708E-1,0E0,0E0,1.5599322E-1,1.3237042E0,3.1793666E-1,0E0,0E0,0E0,0E0,0E0,0E0,0E0,0E0,0E0,0E0,0E0,8.2426834E-1,0E0,0E0,0E0,0E0],"parents":[2147483647,0,0,1,1,2,2,3,3,4,4,5,5,6,6,7,7,8,8,11,11,13,13,14,14,15,15,16,16,18,18,19,19,22,22,23,23,24,24,36,36],"right_children":[2,4,6,8,10,12,14,16,18,-1,-1,20,-1,22,24,26,28,-1,30,32,-1,-1,34,36,38,-1,-1,-1,-1,-1,-1,-1,-1,-1,-1,-1,40,-1,-1,-1,-1],"split_conditions":[1.4E1,1.1619216E0,2.5692723E0,4E0,3.9645508E4,1.0719368E5,2.8E1,3.1228796E-1,9E0,3.5462254E-3,-8.002946E-2,1E0,1.2381627E-2,4.3277504E4,4.4E1,7E0,8.48E2,2.6820013E-3,7.82E2,1.9139938E0,8.90312E-2,2.7086347E-2,3.27E2,3.208672E0,4.592132E0,4.316482E-2,-2.8618356E-2,-6.661754E-2,-3.9947475E-3,8.78711E-2,3.0723268E-2,4.5041576E-2,-9.520484E-5,-1.6096693E-2,-8.071916E-2,5.969357E-2,6.917858E4,8.5943975E-2,1.1360514E-2,1.3139221E-2,-5.594181E-2],"split_indices":[8,4,4,8,2,2,8,4,1,0,0,6,0,2,8,1,5,0,5,4,0,0,5,4,4,0,0,0,0,0,0,0,0,0,0,0,2,0,0,0,0],"split_type":[0,0,0,0,0,0,0,0,0,0,0,0,0,0,0,0,0,0,0,0,0,0,0,0,0,0,0,0,0,0,0,0,0,0,0,0,0,0,0,0,0],"sum_hessian":[4.40576E1,1.896776E1,2.508984E1,1.0283347E1,8.684412E0,8.020977E0,1.7068861E1,4.8703127E0,5.4130344E0,1.0200107E0,7.664401E0,7.0184684E0,1.0025092E0,5.8270016E0,1.124186E1,2.3264985E0,2.5438142E0,1.3335782E0,4.0794563E0,2.2181494E0,4.8003187E0,1.2368401E0,4.5901613E0,7.8505836E0,3.391277E0,1.0747944E0,1.2517041E0,1.5396963E0,1.0041178E0,2.478145E0,1.6013114E0,1.0941807E0,1.1239688E0,1.0479119E0,3.5422494E0,2.47021E0,5.3803735E0,2.2843778E0,1.1068993E0,3.3736553E0,2.006718E0],"tree_param":{"num_deleted":"0","num_feature":"13","num_nodes":"41","size_leaf_vector":"1"}},{"base_weights":[2.7982113E-3,-2.9105347E-1,1.954819E-1,1.20203845E-1,-6.8967E-1,6.6877705E-1,-2.3274962E-2,-5.131159E-2,3.9210874E-1,-7.5430876E-1,-2.0425573E-2,1.2098561E-2,7.66388E-1,-2.562655E-1,5.533285E-1,4.7024336E-2,7.349346E-2,-3.342736E-1,-8.7602764E-2,2.6621375E-2,8.470803E-2,1.645868E-1,-4.712291E-1,7.835484E-2,9.539348E-2,3.355774E-2,-2.4740035E-2,-5.110893E-3,-4.4605523E-2,3.881917E-1,-2.7149126E-2,-7.0205764E-3,-6.186675E-1,3.3956826E-2,-1.9524878E-2,-5.9013027E-3,5.8862995E-2,-2.4026586E-2,2.3130516E-2,-9.206254E-3,-6.986521E-2],"categories":[],"categories_nodes":[],"categories_segments":[],"categories_sizes":[],"default_left":[0,0,0,0,0,0,0,0,0,0,0,0,0,0,0,0,0,0,0,0,0,0,0,0,0,0,0,0,0,0,0,0,0,0,0,0,0,0,0,0,0],"id":36,"left_children":[1,3,5,7,9,11,13,-1,15,17,-1,-1,19,21,23,25,-1,27,-1,-1,-1,29,31,-1,33,-1,-1,-1,-1,35,-1,37,39,-1,-1,-1,-1,-1,-1,-1,-1],"loss_changes":[2.4520352E0,2.895125E0,2.7227433E0,1.8018227E0,1.2391186E-1,3.510127E-1,2.6739495E0,0E0,8.0183375E-1,8.7911606E-2,0E0,0E0,5.121088E-2,1.3538369E0,5.3048813E-1,4.7311887E-1,0E0,8.134639E-2,0E0,0E0,0E0,6.427413E-1,6.524794E-1,0E0,2.834044E-1,0E0,0E0,0E0,0E0,3.9816058E-1,0E0,2.4039438E-1,2.4197745E-1,0E0,0E0,0E0,0E0,0E0,0E0,0E0,0E0],"parents":[2147483647,0,0,1,1,2,2,3,3,4,4,5,5,6,6,8,8,9,9,12,12,13,13,14,14,15,15,17,17,21,21,22,22,24,24,29,29,31,31,32,32],"right_children":[2,4,6,8,10,12,14,-1,16,18,-1,-1,20,22,24,26,-1,28,-1,-1,-1,30,32,-1,34,-1,-1,-1,-1,36,-1,38,40,-1,-1,-1,-1,-1,-1,-1,-1],"split_conditions":[1.4E1,1.0539654E0,2.5556457E0,2E0,3.8767307E0,4E0,4.1E1,-5.131159E-2,3E0,1.4969779E0,-2.0425573E-2,1.2098561E-2,2.9913029E1,4.9541934E4,1.8795596E0,5.3212566E4,7.349346E-2,2E0,-8.7602764E-2,2.6621375E-2,8.470803E-2,3.850791E0,3.039526E0,7.835484E-2,4.5411425E0,3.355774E-2,-2.4740035E-2,-5.110893E-3,-4.4605523E-2,2.8E1,-2.7149126E-2,2.6E1,3.4265676E-1,3.3956826E-2,-1.9524878E-2,-5.9013027E-3,5.8862995E-2,-2.4026586E-2,2.3130516E-2,-9.206254E-3,-6.986521E-2],"split_indices":[8,4,4,8,4,1,8,0,0,4,0,0,10,2,11,2,0,0,0,0,0,4,4,0,4,0,0,0,0,8,0,8,11,0,0,0,0,0,0,0,0],"split_type":[0,0,0,0,0,0,0,0,0,0,0,0,0,0,0,0,0,0,0,0,0,0,0,0,0,0,0,0,0,0,0,0,0,0,0,0,0,0,0,0,0],"sum_hessian":[4.1301685E1,1.6154613E1,2.514707E1,8.295007E0,7.8596067E0,7.2986913E0,