{"learner":{"attributes":{"scikit_learn":"{\"_estimator_type\": \"classifier\"}"},"feature_names":["department","job_title","salary","engagement_score","years_at_company","level","comp_vs_band_pct","months_since_promo","perf_trend","pto_usage","one_on_one_freq","internal_moves"],"feature_types":["int","int","float","float","float","int","float","int","float","float","float","int"],"gradient_booster":{"model":{"gbtree_model_param":{"num_parallel_tree":"1","num_trees":"100"},"iteration_indptr":[0,1,2,3,4,5,6,7,8,9,10,11,12,13,14,15,16,17,18,19,20,21,22,23,24,25,26,27,28,29,30,31,32,33,34,35,36,37,38,39,40,41,42,43,44,45,46,47,48,49,50,51,52,53,54,55,56,57,58,59,60,61,62,63,64,65,66,67,68,69,70,71,72,73,74,75,76,77,78,79,80,81,82,83,84,85,86,87,88,89,90,91,92,93,94,95,96,97,98,99,100],"tree_info":[0,0,0,0,0,0,0,0,0,0,0,0,0,0,0,0,0,0,0,0,0,0,0,0,0,0,0,0,0,0,0,0,0,0,0,0,0,0,0,0,0,0,0,0,0,0,0,0,0,0,0,0,0,0,0,0,0,0,0,0,0,0,0,0,0,0,0,0,0,0,0,0,0,0,0,0,0,0,0,0,0,0,0,0,0,0,0,0,0,0,0,0,0,0,0,0,0,0,0,0],"trees":[{"base_weights":[-4.397544E-1,-4.994345E-1,6.787039E-1,-5.423689E-1,3.087364E-1,1.3509889E0,-3.561994E-1,-8.1715524E-1,-3.8166568E-1,-4.94794E-1,1.1524448E0,1.8970948E0,-1.8746749E-2,-7.697749E-2,3.8298193E-2,-1.6795087E-1,-9.455962E-1,4.0362585E-2,-4.7155428E-1,-8.624568E-2,3.8298193E-2,2.6521806E-3,1.9194393E-1,2.9599568E-1,-1.8746749E-2,9.1700606E-2,-5.055143E-1,-3.2180357E-1,-9.822156E-1,-1.9969691E-1,1.4851658E-1,-5.309959E-1,6.3895035E-1,-8.48146E-2,6.166188E-2,3.8298193E-2,-7.4502826E-2,-1.0043728E-1,-1.1373769E-2,4.603946E-2,-5.001346E-2,-1.00034334E-1,-4.3327373E-2,1.8731408E-1,-4.4501487E-2],"categories":[],"categories_nodes":[],"categories_segments":[],"categories_sizes":[],"default_left":[0,0,0,0,0,0,0,0,0,0,0,0,0,0,0,0,0,0,0,0,0,0,0,0,0,0,0,0,0,0,0,0,0,0,0,0,0,0,0,0,0,0,0,0,0],"id":0,"left_children":[1,3,5,7,9,11,13,15,17,19,21,23,-1,-1,-1,25,27,29,31,-1,-1,-1,-1,-1,-1,-1,33,35,37,39,-1,41,43,-1,-1,-1,-1,-1,-1,-1,-1,-1,-1,-1,-1],"loss_changes":[9.680876E0,4.7976265E0,5.7087264E0,5.2994995E0,5.5658255E0,4.3576155E0,1.441254E0,3.6781578E0,3.131895E0,1.7741334E0,3.312621E0,8.543012E0,0E0,0E0,0E0,3.6924126E0,5.564995E-1,5.6135025E0,4.8099566E0,0E0,0E0,0E0,0E0,0E0,0E0,0E0,3.3561025E0,1.3607582E0,5.706978E-1,3.0120354E0,0E0,2.5401459E0,6.044222E0,0E0,0E0,0E0,0E0,0E0,0E0,0E0,0E0,0E0,0E0,0E0,0E0],"parents":[2147483647,0,0,1,1,2,2,3,3,4,4,5,5,6,6,7,7,8,8,9,9,10,10,11,11,15,15,16,16,17,17,18,18,26,26,27,27,28,28,29,29,31,31,32,32],"right_children":[2,4,6,8,10,12,14,16,18,20,22,24,-1,-1,-1,26,28,30,32,-1,-1,-1,-1,-1,-1,-1,34,36,38,40,-1,42,44,-1,-1,-1,-1,-1,-1,-1,-1,-1,-1,-1,-1],"split_conditions":[9.03531E-1,1.9E1,1E0,3.555435E1,2.5296035E0,1.9E1,7.370877E1,6.4323697E0,5.0771438E4,2.6079547E-1,-9.715399E-2,5.028941E1,-1.8746749E-2,-7.697749E-2,3.8298193E-2,3E0,2.6054895E-1,3.6346223E0,9.694728E1,-8.624568E-2,3.8298193E-2,2.6521806E-3,1.9194393E-1,2.9599568E-1,-1.8746749E-2,9.1700606E-2,4.9790254E0,1.2E1,4.813842E0,5.4706123E1,1.4851658E-1,-7.026549E-1,7E0,-8.48146E-2,6.166188E-2,3.8298193E-2,-7.4502826E-2,-1.0043728E-1,-1.1373769E-2,4.603946E-2,-5.001346E-2,-1.00034334E-1,-4.3327373E-2,1.8731408E-1,-4.4501487E-2],"split_indices":[8,1,11,9,10,7,9,9,2,8,8,9,0,0,0,1,10,10,9,0,0,0,0,0,0,0,9,7,4,9,0,8,7,0,0,0,0,0,0,0,0,0,0,0,0],"split_type":[0,0,0,0,0,0,0,0,0,0,0,0,0,0,0,0,0,0,0,0,0,0,0,0,0,0,0,0,0,0,0,0,0,0,0,0,0,0,0,0,0,0,0,0,0],"sum_hessian":[1.3895428E2,1.324408E2,6.5134816E0,1.2607206E2,6.3687377E0,3.763345E0,2.7501369E0,4.5015396E1,8.105666E1,3.473857E0,2.8948808E0,2.6053927E0,1.1579523E0,1.7369285E0,1.0132083E0,7.8161783E0,3.719922E1,1.4329659E1,6.6727005E1,2.4606485E0,1.0132083E0,1.5921844E0,1.3026963E0,1.4474404E0,1.1579523E0,1.4474404E0,6.3687377E0,2.6053927E0,3.4593826E1,1.3026963E1,1.3026963E0,6.3832123E1,2.8948808E0,5.0660415E0,1.3026963E0,1.0132083E0,1.5921844E0,3.3580616E1,1.0132083E0,3.9080892E0,9.118875E0,9.408362E0,5.442376E1,1.0132083E0,1.8816725E0],"tree_param":{"num_deleted":"0","num_feature":"12","num_nodes":"45","size_leaf_vector":"1"}},{"base_weights":[-3.7845585E-1,1.151258E0,-4.1101292E-1,3.5220083E-2,1.3910916E-1,-5.027659E-1,1.02254346E-1,-5.5203575E-1,4.1630602E-1,9.320618E-1,-1.3599375E-1,6.667371E-1,-5.919381E-1,-6.732402E-2,8.283096E-1,1.547931E0,-2.9847566E-2,1.4643826E-1,-6.7270344E-1,-7.102492E-3,1.3698548E-1,1.23828925E-1,-6.798291E-1,1.4006863E0,-3.2186463E-2,3.676137E-2,1.9147979E-1,-1.7411861E-1,1.7076854E-1,-9.567818E-2,2.9628789E-2,-1.7789094E-2,1.003074E-1,1.7765777E-2,-7.155352E-2,2.553976E-2,1.8706466E-1,5.5378504E-2,-4.6265744E-2],"categories":[],"categories_nodes":[],"categories_segments":[],"categories_sizes":[],"default_left":[0,0,0,0,0,0,0,0,0,0,0,0,0,0,0,0,0,0,0,0,0,0,0,0,0,0,0,0,0,0,0,0,0,0,0,0,0,0,0],"id":1,"left_children":[1,3,5,-1,-1,7,9,11,13,15,17,19,21,-1,23,25,-1,27,29,-1,-1,31,33,35,-1,-1,-1,37,-1,-1,-1,-1,-1,-1,-1,-1,-1,-1,-1],"loss_changes":[7.1202145E0,9.350157E-2,6.240568E0,0E0,0E0,5.286089E0,4.2313013E0,5.5695343E0,3.3639061E0,4.0682755E0,2.6758854E0,2.091123E0,6.59943E0,0E0,3.7322936E0,7.3933697E-1,0E0,6.283809E0,1.9464464E0,0E0,0E0,3.4075525E0,2.9559746E0,1.4142013E0,0E0,0E0,0E0,2.531152E0,0E0,0E0,0E0,0E0,0E0,0E0,0E0,0E0,0E0,0E0,0E0],"parents":[2147483647,0,0,1,1,2,2,5,5,6,6,7,7,8,8,9,9,10,10,11,11,12,12,14,14,15,15,17,17,18,18,21,21,22,22,23,23,27,27],"right_children":[2,4,6,-1,-1,8,10,12,14,16,18,20,22,-1,24,26,-1,28,30,-1,-1,32,34,36,-1,-1,-1,38,-1,-1,-1,-1,-1,-1,-1,-1,-1,-1,-1],"split_conditions":[1.7325972E0,8.73046E1,8.47574E1,3.5220083E-2,1.3910916E-1,1.9E1,3E0,3.9818617E4,9.299862E1,1.07568726E2,3.2237263E0,4.464779E1,8.562923E0,-6.732402E-2,3.1477885E0,4.168346E1,-2.9847566E-2,2.8468869E0,4.587429E0,-7.102492E-3,1.3698548E-1,7.1451383E0,7.5519775E1,3.367926E1,-3.2186463E-2,3.676137E-2,1.9147979E-1,9.2552025E1,1.7076854E-1,-9.567818E-2,2.9628789E-2,-1.7789094E-2,1.003074E-1,1.7765777E-2,-7.155352E-2,2.553976E-2,1.8706466E-1,5.5378504E-2,-4.6265744E-2],"split_indices":[9,6,9,0,0,1,1,2,6,6,4,9,3,0,4,3,0,4,4,0,0,3,6,3,0,0,0,6,0,0,0,0,0,0,0,0,0,0,0],"split_type":[0,0,0,0,0,0,0,0,0,0,0,0,0,0,0,0,0,0,0,0,0,0,0,0,0,0,0,0,0,0,0,0,0,0,0,0,0,0,0],"sum_hessian":[1.3246645E2,2.0444725E0,1.3042197E2,1.0418494E0,1.0026231E0,1.1066048E2,1.9761488E1,1.05409035E2,5.251446E0,3.7585342E0,1.6002953E1,2.8436477E0,1.02565384E2,1.2669431E0,3.9845028E0,2.3329766E0,1.4255576E0,1.0961732E1,5.0412216E0,1.8263232E0,1.0173246E0,1.11722145E1,9.139317E1,2.5150843E0,1.4694185E0,1.0279139E0,1.3050627E0,9.831577E0,1.1301548E0,3.9080906E0,1.1331313E0,8.911754E0,2.260461E0,3.494585E0,8.789858E1,1.1808383E0,1.3342459E0,2.5299468E0,7.30163E0],"tree_param":{"num_deleted":"0","num_feature":"12","num_nodes":"39","size_leaf_vector":"1"}},{"base_weights":[-3.6402136E-1,2.8901523E-1,-4.529046E-1,-7.739929E-2,4.7656783E-1,-5.0697887E-1,5.534962E-1,2.4704242E-2,9.3831515E-1,-5.529036E-1,2.426135E-1,1.2508323E0,-7.7255026E-2,-6.9758284E-1,6.563587E-1,2.078334E-1,2.6358312E-1,3.946524E-1,-5.838138E-1,-6.0794294E-1,9.2771155E-1,3.610377E-1,2.0093386E-1,-8.4262155E-2,-1.0566364E-2,1.1053357E-1,-7.1166637E-3,-2.797147E-1,1.3616656E-1,1.3651392E-1,-4.325443E-2,-6.44986E-1,-1.9773284E-1,-1.3350843E-2,-7.489638E-2,1.4579536E-1,-2.246308E-2,7.933764E-2,-2.0662246E-2,6.523101E-2,-8.331923E-2,-3.3361215E-2,-7.349541E-2,2.0210229E-2,-8.301805E-2],"categories":[],"categories_nodes":[],"categories_segments":[],"categories_sizes":[],"default_left":[0,0,0,0,0,0,0,0,0,0,0,0,0,0,0,0,0,0,0,0,0,0,0,0,0,0,0,0,0,0,0,0,0,0,0,0,0,0,0,0,0,0,0,0,0],"id":2,"left_children":[1,3,5,-1,7,9,11,13,15,17,19,21,-1,23,25,-1,27,29,31,33,35,37,-1,-1,-1,-1,-1,39,-1,-1,-1,41,43,-1,-1,-1,-1,-1,-1,-1,-1,-1,-1,-1,-1],"loss_changes":[7.6763935E0,3.5955033E0,6.528715E0,0E0,2.976304E0,3.902956E0,6.821897E0,4.241314E0,4.9005938E0,3.2607803E0,4.651859E0,2.3331432E0,0E0,2.8472686E-1,1.6919994E0,0E0,3.7186842E0,3.693359E0,2.2483559E0,1.4981711E-1,2.9435322E0,9.7491574E-1,0E0,0E0,0E0,0E0,0E0,2.9022639E0,0E0,0E0,0E0,2.175129E0,4.0118217E0,0E0,0E0,0E0,0E0,0E0,0E0,0E0,0E0,0E0,0E0,0E0,0E0],"parents":[2147483647,0,0,1,1,2,2,4,4,5,5,6,6,7,7,8,8,9,9,10,10,11,11,13,13,14,14,16,16,17,17,18,18,19,19,20,20,21,21,27,27,31,31,32,32],"right_children":[2,4,6,-1,8,10,12,14,16,18,20,22,-1,24,26,-1,28,30,32,34,36,38,-1,-1,-1,-1,-1,40,-1,-1,-1,42,44,-1,-1,-1,-1,-1,-1,-1,-1,-1,-1,-1,-1],"split_conditions":[4.767763E4,7.1451383E0,9.03531E-1,-7.739929E-2,1E1,9.4893585E1,5.1203163E1,-1.2938339E-2,1.4E1,2.4178045E0,-4.7958586E-2,1.5E1,-7.7255026E-2,6.729179E1,2E0,2.078334E-1,3.2E1,1.1E1,3.4696164E0,2.0307353E0,2.4576852E0,1.4511073E1,2.0093386E-1,-8.4262155E-2,-1.0566364E-2,1.1053357E-1,-7.1166637E-3,4.818734E1,1.3616656E-1,1.3651392E-1,-4.325443E-2,8.010646E-1,3.8082337E0,-1.3350843E-2,-7.489638E-2,1.4579536E-1,-2.246308E-2,7.933764E-2,-2.0662246E-2,6.523101E-2,-8.331923E-2,-3.3361215E-2,-7.349541E-2,2.0210229E-2,-8.301805E-2],"split_indices":[2,3,8,0,7,9,3,8,7,9,8,1,0,3,0,0,7,7,10,10,10,3,0,0,0,0,0,3,0,0,0,10,10,0,0,0,0,0,0,0,0,0,0,0,0],"split_type":[0,0,0,0,0,0,0,0,0,0,0,0,0,0,0,0,0,0,0,0,0,0,0,0,0,0,0,0,0,0,0,0,0,0,0,0,0,0,0,0,0,0,0,0,0],"sum_hessian":[1.2899608E2,1.5184201E1,1.13811874E2,1.8083059E0,1.33758955E1,1.08479485E2,5.332395E0,7.292749E0,6.083146E0,1.0246427E2,6.015207E0,3.5318174E0,1.8005776E0,3.3535933E0,3.9391556E0,1.4882989E0,4.594847E0,2.865147E0,9.959913E1,2.7337933E0,3.2814138E0,2.3044639E0,1.2273536E0,2.353396E0,1.0001974E0,2.1147645E0,1.8243911E0,3.572535E0,1.0223123E0,1.0191438E0,1.8460033E0,8.5397766E1,1.4201358E1,1.0724597E0,1.6613336E0,2.065692E0,1.2157218E0,1.0824374E0,1.2220265E0,1.2645457E0,2.3079896E0,2.0198868E1,6.5198906E1,9.117619E0,5.0837393E0],"tree_param":{"num_deleted":"0","num_feature":"12","num_nodes":"45","size_leaf_vector":"1"}},{"base_weights":[-3.195794E-1,1.3537729E-1,-3.4908044E-1,9.7192764E-1,-3.9070478E-1,1.5816358E-1,6.4047385E-4,-9.2898685E-1,-3.049947E-1,-1.04976995E-2,-1.0278507E0,-4.567901E-1,6.327846E-2,-1.4511953E-2,-1.0877959E-1,7.706762E-1,-5.104525E-1,-1.5045962E-1,7.8580934E-1,1.3265781E-1,3.0897104E-3,1.147767E-3,-5.9829958E-2,1.0873027E-1,-2.5789222E-2,1.829056E-1,-4.5742217E-2],"categories":[],"categories_nodes":[],"categories_segments":[],"categories_sizes":[],"default_left":[0,0,0,0,0,0,0,0,0,0,0,0,0,0,0,0,0,0,0,0,0,0,0,0,0,0,0],"id":3,"left_children":[1,-1,3,5,7,-1,-1,9,11,-1,13,15,17,-1,-1,19,21,23,25,-1,-1,-1,-1,-1,-1,-1,-1],"loss_changes":[6.830578E0,0E0,7.38264E0,2.4488895E0,5.4458866E0,0E0,0E0,1.2418385E0,6.100566E0,0E0,6.189232E-1,5.4674397E0,5.149578E0,0E0,0E0,1.4498115E0,3.4184551E0,3.73531E0,1.0691498E1,0E0,0E0,0E0,0E0,0E0,0E0,0E0,0E0],"parents":[2147483647,0,0,2,2,3,3,4,4,7,7,8,8,10,10,11,11,12,12,15,15,16,16,17,17,18,18],"right_children":[2,-1,4,6,8,-1,-1,10,12,-1,14,16,18,-1,-1,20,22,24,26,-1,-1,-1,-1,-1,-1,-1,-1],"split_conditions":[-9.793088E-1,1.3537729E-1,2.4178045E0,5.7395042E1,-7.2447413E-1,1.5816358E-1,6.4047385E-4,4.767763E4,7.15002E1,-1.04976995E-2,6.9785786E0,3.9818617E4,3.4473126E0,-1.4511953E-2,-1.0877959E-1,3.9270855E1,1.3264387E1,1.9906878E-1,8.760329E1,1.3265781E-1,3.0897104E-3,1.147767E-3,-5.9829958E-2,1.0873027E-1,-2.5789222E-2,1.829056E-1,-4.5742217E-2],"split_indices":[8,0,9,3,8,0,0,2,9,0,9,2,10,0,0,3,3,10,9,0,0,0,0,0,0,0,0],"split_type":[0,0,0,0,0,0,0,0,0,0,0,0,0,0,0,0,0,0,0,0,0,0,0,0,0,0,0],"sum_hessian":[1.2779403E2,1.4362869E0,1.2635774E2,3.1771252E0,1.2318062E2,1.5562634E0,1.6208618E0,1.5568373E1,1.0761224E2,1.8886557E0,1.3679717E1,7.603264E1,3.1579605E1,1.0874318E0,1.2592285E1,2.6250916E0,7.340755E1,2.4981401E1,6.598203E0,1.0459279E0,1.5791636E0,1.0700642E1,6.270691E1,1.2666917E0,2.371471E1,3.331442E0,3.266761E0],"tree_param":{"num_deleted":"0","num_feature":"12","num_nodes":"27","size_leaf_vector":"1"}},{"base_weights":[-3.1798393E-1,-2.5900573E-1,-1.042454E-1,3.6213864E-2,-4.359516E-1,1.3411006E-1,-5.075105E-2,-5.0811607E-1,2.1952759E-1,-2.918656E-1,2.3949271E-1,-5.4262745E-1,8.15552E-2,1.3571395E0,-5.815767E-1,-4.1644746E-1,1.0179483E-1,1.520749E-1,3.9734464E-2,-6.1336404E-1,1.5143733E-1,-1.2211856E-2,1.9941424E-1,-8.827984E-2,2.240304E-2,1.1174766E-3,-8.18496E-2,-2.464945E-2,8.2704775E-2,-8.974459E-2,-4.2857233E-2,-5.128924E-2,1.1005304E-1],"categories":[],"categories_nodes":[],"categories_segments":[],"categories_sizes":[],"default_left":[0,0,0,0,0,0,0,0,0,0,0,0,0,0,0,0,0,0,0,0,0,0,0,0,0,0,0,0,0,0,0,0,0],"id":4,"left_children":[1,3,-1,5,7,-1,9,11,13,15,17,19,-1,21,23,25,-1,-1,27,29,31,-1,-1,-1,-1,-1,-1,-1,-1,-1,-1,-1,-1],"loss_changes":[5.0099287E0,6.0544395E0,0E0,5.0889015E0,3.5340872E0,0E0,3.040187E0,3.433794E0,7.96532E0,4.2806053E0,5.009498E0,3.2554932E0,0E0,3.5921173E0,1.4888656E0,3.8416276E0,0E0,0E0,4.297138E0,2.694641E0,4.826666E0,0E0,0E0,0E0,0E0,0E0,0E0,0E0,0E0,0E0,0E0,0E0,0E0],"parents":[2147483647,0,0,1,1,3,3,4,4,6,6,7,7,8,8,9,9,10,10,11,11,13,13,14,14,15,15,18,18,19,19,20,20],"right_children":[2,4,-1,6,8,-1,10,12,14,16,18,20,-1,22,24,26,-1,-1,28,30,32,-1,-1,-1,-1,-1,-1,-1,-1,-1,-1,-1,-1],"split_conditions":[1.2067705E2,1E1,-1.042454E-1,3.6777792E0,3.6821408E0,1.3411006E-1,2E0,9.7935005E1,3.8250368E0,1.1580837E2,7.754114E1,1.9E1,8.15552E-2,8.9328064E1,6.668666E1,7.2522164E4,1.0179483E-1,1.520749E-1,1.02042914E5,3.452745E1,2.522434E0,-1.2211856E-2,1.9941424E-1,-8.827984E-2,2.240304E-2,1.1174766E-3,-8.18496E-2,-2.464945E-2,8.2704775E-2,-8.974459E-2,-4.2857233E-2,-5.128924E-2,1.1005304E-1],"split_indices":[6,1,0,9,10,0,0,9,10,6,6,1,0,6,9,2,0,0,2,9,10,0,0,0,0,0,0,0,0,0,0,0,0],"split_type":[0,0,0,0,0,0,0,0,0,0,0,0,0,0,0,0,0,0,0,0,0,0,0,0,0,0,0,0,0,0,0,0,0],"sum_hessian":[1.2257095E2,1.145991E2,7.9718547E0,4.3244514E1,7.135458E1,1.8009245E0,4.1443592E1,6.448047E1,6.8741117E0,2.2634674E1,1.8808918E1,6.3417084E1,1.0633864E0,2.553672E0,4.32044E0,2.1291597E1,1.3430765E0,1.6449845E0,1.7163933E1,5.7657146E1,5.759936E0,1.0119643E0,1.5417079E0,3.074898E0,1.2455418E0,1.0788774E1,1.0502824E1,1.3091437E1,4.0724955E0,2.1203814E1,3.6453335E1,3.6586292E0,2.1013067E0],"tree_param":{"num_deleted":"0","num_feature":"12","num_nodes":"33","size_leaf_vector":"1"}},{"base_weights":[-3.1547433E-1,-2.0443425E-1,-7.597263E-1,-2.673398E-1,7.024753E-1,2.3176271E-2,-8.535609E-1,-3.3821237E-1,3.2143614E-1,1.0678561E0,-1.3827029E-2,-9.2926013E-1,3.135652E-2,1.2072753E-1,-3.7359792E-1,7.3663193E-1,-3.297971E-1,1.3190265E0,2.060258E-2,-3.3123505E-1,-1.04621E0,-9.332029E-1,-2.628075E-1,-1.408835E-1,1.1450661E0,-8.2613684E-2,4.3658286E-2,1.7217682E-1,2.6083127E-2,5.014644E-2,-8.303136E-2,-8.840907E-3,-1.1001259E-1,-1.1608768E-2,-9.919012E-2,-3.319221E-2,3.5126816E-2,-5.9583582E-2,3.9114017E-2,1.7462936E-1,4.9483668E-2],"categories":[],"categories_nodes":[],"categories_segments":[],"categories_sizes":[],"default_left":[0,0,0,0,0,0,0,0,0,0,0,0,0,0,0,0,0,0,0,0,0,0,0,0,0,0,0,0,0,0,0,0,0,0,0,0,0,0,0,0,0],"id":5,"left_children":[1,3,5,7,9,-1,11,13,15,17,-1,19,-1,-1,21,23,25,27,-1,29,31,33,35,37,39,-1,-1,-1,-1,-1,-1,-1,-1,-1,-1,-1,-1,-1,-1,-1,-1],"loss_changes":[6.00126E0,5.9621267E0,2.4854507E0,4.0885262E0,2.249115E0,0E0,2.2948437E0,5.133155E0,3.1522715E0,7.8528404E-1,0E0,1.1604614E0,0E0,0E0,4.9913263E0,2.6271298E0,2.2169118E0,1.0834785E0,0E0,2.4892278E0,8.0953026E-1,5.355396E-1,3.1679792E0,9.774879E-1,1.0140486E0,0E0,0E0,0E0,0E0,0E0,0E0,0E0,0E0,0E0,0E0,0E0,0E0,0E0,0E0,0E0,0E0],"parents":[2147483647,0,0,1,1,2,2,3,3,4,4,6,6,7,7,8,8,9,9,11,11,14,14,15,15,16,16,17,17,19,19,20,20,21,21,22,22,23,23,24,24],"right_children":[2,4,6,8,10,-1,12,14,16,18,-1,20,-1,-1,22,24,26,28,-1,30,32,34,36,38,40,-1,-1,-1,-1,-1,-1,-1,-1,-1,-1,-1,-1,-1,-1,-1,-1],"split_conditions":[1.117961E2,9.03531E-1,4.3546385E-1,1.2497847E5,2.4380813E0,2.3176271E-2,3.8082337E0,-9.793088E-1,2.885613E0,1E0,-1.3827029E-2,2E0,3.135652E-2,1.2072753E-1,-7.026549E-1,-4.7794268E-1,1.0297591E2,1.3E1,2.060258E-2,1.3124139E0,-8.8745004E-1,2.927004E-1,3.6821408E0,1.362557E5,5.0946194E-1,-8.2613684E-2,4.3658286E-2,1.7217682E-1,2.6083127E-2,5.014644E-2,-8.303136E-2,-8.840907E-3,-1.1001259E-1,-1.1608768E-2,-9.919012E-2,-3.319221E-2,3.5126816E-2,-5.9583582E-2,3.9114017E-2,1.7462936E-1,4.9483668E-2],"split_indices":[6,8,4,2,10,0,10,8,4,11,0,1,0,0,8,8,6,1,0,10,8,10,10,2,4,0,0,0,0,0,0,0,0,0,0,0,0,0,0,0,0],"split_type":[0,0,0,0,0,0,0,0,0,0,0,0,0,0,0,0,0,0,0,0,0,0,0,0,0,0,0,0,0,0,0,0,0,0,0,0,0,0,0,0,0],"sum_hessian":[1.2380445E2,1.00215836E2,2.3588615E1,9.437497E1,5.840868E0,1.912334E0,2.1676281E1,8.461517E1,9.759792E0,3.883153E0,1.9577148E0,2.0547392E1,1.1288887E0,1.1526964E0,8.346248E1,5.879906E0,3.8798862E0,2.5960658E0,1.2870873E0,3.987832E0,1.655956E1,1.2566363E1,7.089612E1,2.075591E0,3.804315E0,2.3074877E0,1.5723985E0,1.4261883E0,1.1698774E0,1.4926327E0,2.4951994E0,1.0231613E0,1.5536399E1,1.0417863E0,1.1524577E1,6.413694E1,6.759175E0,1.0541811E0,1.02141E0,1.1008079E0,2.7035072E0],"tree_param":{"num_deleted":"0","num_feature":"12","num_nodes":"41","size_leaf_vector":"1"}},{"base_weights":[-2.401741E-1,-2.9604653E-1,7.375895E-1,1.0136632E-1,-3.2612848E-1,-4.7859707E-1,1.3741482E0,-7.9748887E-1,-2.5208604E-1,-1.1383719E-2,-6.032541E-2,1.9747628E-1,-1.85183E-2,-2.6803696E-1,-9.4921045E-2,-1.3913111E-1,-5.254076E-1,2.8824998E-2,-7.39386E-2,-2.674437E-1,2.6702356E-1,1.8015781E-1,-7.4459684E-1,6.416183E-2,-3.3160344E-2,-6.8569034E-2,5.5698134E-2,1.3089572E-1,-7.188604E-2,3.4660455E-2,-8.193699E-2],"categories":[],"categories_nodes":[],"categories_segments":[],"categories_sizes":[],"default_left":[0,0,0,0,0,0,0,0,0,0,0,0,0,0,0,0,0,0,0,0,0,0,0,0,0,0,0,0,0,0,0],"id":6,"left_children":[1,3,5,-1,7,9,11,13,15,-1,-1,-1,-1,17,-1,19,21,-1,-1,23,25,27,29,-1,-1,-1,-1,-1,-1,-1,-1],"loss_changes":[6.6978574E0,4.7790556E0,5.8427877E0,0E0,3.6775026E0,6.968403E-2,4.725176E0,9.203615E-1,2.9372082E0,0E0,0E0,0E0,0E0,1.4326227E0,0E0,3.7378728E0,4.4880013E0,0E0,0E0,3.360166E0,5.186007E0,8.529732E0,2.052476E0,0E0,0E0,0E0,0E0,0E0,0E0,0E0,0E0],"parents":[2147483647,0,0,1,1,2,2,4,4,5,5,6,6,7,7,8,8,13,13,15,15,16,16,19,19,20,20,21,21,22,22],"right_children":[2,4,6,-1,8,10,12,14,16,-1,-1,-1,-1,18,-1,20,22,-1,-1,24,26,28,30,-1,-1,-1,-1,-1,-1,-1,-1],"split_conditions":[9.0880305E-1,-9.793088E-1,5E0,1.0136632E-1,-7.2447413E-1,4.227588E1,5.1203163E1,1E0,3.5660343E0,-1.1383719E-2,-6.032541E-2,1.9747628E-1,-1.85183E-2,5.97911E1,-9.4921045E-2,7.511472E1,8.8057945E1,2.8824998E-2,-7.39386E-2,7.461594E1,-4.145169E-1,3.9691193E1,1.3062014E-1,6.416183E-2,-3.3160344E-2,-6.8569034E-2,5.5698134E-2,1.3089572E-1,-7.188604E-2,3.4660455E-2,-8.193699E-2],"split_indices":[8,8,7,0,8,3,3,5,4,0,0,0,0,3,0,3,6,0,0,6,8,3,10,0,0,0,0,0,0,0,0],"split_type":[0,0,0,0,0,0,0,0,0,0,0,0,0,0,0,0,0,0,0,0,0,0,0,0,0,0,0,0,0,0,0],"sum_hessian":[1.17606895E2,1.1190927E2,5.6976194E0,1.778538E0,1.1013074E2,2.0428233E0,3.6547961E0,1.3624615E1,9.650612E1,1.0076203E0,1.0352029E0,2.4461753E0,1.2086208E0,3.6509151E0,9.9737E0,6.935358E1,2.7152542E1,1.8527517E0,1.7981634E0,5.2963005E1,1.6390574E1,6.478017E0,2.0674526E1,2.8982449E0,5.006476E1,3.5060277E0,1.2884546E1,2.6698241E0,3.8081927E0,1.0927058E0,1.958182E1],"tree_param":{"num_deleted":"0","num_feature":"12","num_nodes":"31","size_leaf_vector":"1"}},{"base_weights":[-2.068307E-1,-2.3855342E-1,9.6772116E-1,-6.9964087E-1,-1.631608E-1,2.6546875E-2,1.2285459E-1,-8.605289E-1,6.4555876E-2,-2.641677E-1,1.5340547E-1,-3.2412487E-1,-9.560058E-2,3.0664712E-1,-3.6554855E-1,2.8468522E-1,-6.1455667E-1,-7.4800305E-2,3.9830964E-2,6.367715E-1,-8.0536105E-2,4.6588734E-1,-4.3642616E-1,-2.010032E-1,5.480883E-1,-8.825652E-3,-7.684483E-2,1.0317194E-1,-5.026815E-2,-4.199008E-2,1.872348E-1,7.5032435E-2,-4.821987E-2,2.371485E-2,-6.629996E-2,-6.4806536E-2,7.0925534E-2],"categories":[],"categories_nodes":[],"categories_segments":[],"categories_sizes":[],"default_left":[0,0,0,0,0,0,0,0,0,0,0,0,0,0,0,0,0,0,0,0,0,0,0,0,0,0,0,0,0,0,0,0,0,0,0,0,0],"id":7,"left_children":[1,3,5,7,9,-1,-1,11,-1,13,15,17,-1,19,21,23,25,-1,-1,27,-1,29,31,33,35,-1,-1,-1,-1,-1,-1,-1,-1,-1,-1,-1,-1],"loss_changes":[4.588986E0,3.8728309E0,2.7349162E-1,3.9780345E0,3.2341635E0,0E0,0E0,4.3545818E-1,0E0,4.515163E0,2.674449E0,1.4346144E0,0E0,4.925062E0,4.0377235E0,2.9062693E0,2.5096655E-1,0E0,0E0,4.94067E0,0E0,7.7562685E0,3.6466827E0,1.8610287E0,3.2432456E0,0E0,0E0,0E0,0E0,0E0,0E0,0E0,0E0,0E0,0E0,0E0,0E0],"parents":[2147483647,0,0,1,1,2,2,3,3,4,4,7,7,9,9,10,10,11,11,13,13,14,14,15,15,16,16,19,19,21,21,22,22,23,23,24,24],"right_children":[2,4,6,8,10,-1,-1,12,-1,14,16,18,-1,20,22,24,26,-1,-1,28,-1,30,32,34,36,-1,-1,-1,-1,-1,-1,-1,-1,-1,-1,-1,-1],"split_conditions":[9.7935005E1,-7.026549E-1,7.117432E4,4.6036983E0,1.7E1,2.6546875E-2,1.2285459E-1,5.2633742E4,6.4555876E-2,1.3264387E1,8.4672195E1,4.7411266E4,-9.560058E-2,1.4E1,-6.0435116E-1,5.9416926E4,1.3905912E1,-7.4800305E-2,3.9830964E-2,7.245407E1,-8.0536105E-2,7.068729E1,2.4178045E0,5.0645832E4,6.500549E0,-8.825652E-3,-7.684483E-2,1.0317194E-1,-5.026815E-2,-4.199008E-2,1.872348E-1,7.5032435E-2,-4.821987E-2,2.371485E-2,-6.629996E-2,-6.4806536E-2,7.0925534E-2],"split_indices":[9,8,2,4,1,0,0,2,0,3,3,2,0,1,8,2,9,0,0,9,0,9,9,2,3,0,0,0,0,0,0,0,0,0,0,0,0],"split_type":[0,0,0,0,0,0,0,0,0,0,0,0,0,0,0,0,0,0,0,0,0,0,0,0,0,0,0,0,0,0,0,0,0,0,0,0,0],"sum_hessian":[1.1596553E2,1.136918E2,2.2737305E0,1.4813738E1,9.887807E1,1.1622524E0,1.1114781E0,1.3553065E1,1.2606721E0,7.50859E1,2.3792162E1,2.7119136E0,1.0841152E1,1.1019122E1,6.406678E1,2.0856186E1,2.935976E0,1.68681E0,1.0251037E0,8.826228E0,2.1928942E0,4.5947347E0,5.9472046E1,7.416962E0,1.3439224E1,1.0202565E0,1.9157195E0,6.624609E0,2.2016191E0,3.249592E0,1.3451425E0,1.6369956E0,5.783505E1,4.0565076E0,3.3604546E0,1.2370415E0,1.2202183E1],"tree_param":{"num_deleted":"0","num_feature":"12","num_nodes":"37","size_leaf_vector":"1"}},{"base_weights":[-2.4754068E-1,-2.7941808E-1,6.096939E-1,-4.7738945E-1,-1.0324102E-1,1.0761007E-1,-6.3002743E-3,-5.742422E-1,3.852378E-1,-4.605382E-1,7.455148E-2,-2.2864589E-1,-7.4326295E-1,-7.098837E-2,9.6303034E-1,-1.0594738E-2,-6.929127E-1,6.0824436E-1,-6.314903E-2,-4.1224548E-1,1.2646762E-1,-8.3272004E-1,6.63237E-2,1.3438366E-1,-1.1313187E-2,-5.4652107E-1,3.451639E-1,-8.038E-1,1.1216736E-2,1.6671464E0,-1.3551551E-1,8.69308E-2,-7.854247E-1,-8.6511284E-2,-6.0747815E-3,-8.832993E-2,-9.841856E-3,-7.30421E-2,9.084483E-2,-1.0217303E-2,-6.8652414E-2,1.21241234E-1,-3.3662148E-2,-9.343698E-2,-1.235972E-2,2.1268198E-2,2.4009638E-1,-6.1214484E-2,5.3845357E-2,-9.4006694E-4,1.3290991E-1,-9.0964735E-2,-1.1370848E-2],"categories":[],"categories_nodes":[],"categories_segments":[],"categories_sizes":[],"default_left":[0,0,0,0,0,0,0,0,0,0,0,0,0,0,0,0,0,0,0,0,0,0,0,0,0,0,0,0,0,0,0,0,0,0,0,0,0,0,0,0,0,0,0,0,0,0,0,0,0,0,0,0,0],"id":8,"left_children":[1,3,5,7,9,-1,-1,11,13,15,17,19,21,-1,23,25,27,29,31,33,-1,35,37,-1,-1,39,41,43,-1,45,47,49,51,-1,-1,-1,-1,-1,-1,-1,-1,-1,-1,-1,-1,-1,-1,-1,-1,-1,-1,-1,-1],"loss_changes":[3.3004832E0,3.8265228E0,1.454914E0,4.569871E0,3.8505716E0,0E0,0E0,2.5869913E0,4.386865E0,2.0942407E0,3.0496264E0,5.1674385E0,2.3185692E0,0E0,1.8959892E0,1.6874156E0,1.2720666E0,6.9185386E0,3.6971307E0,2.469622E0,0E0,9.6101E-1,3.3714263E0,0E0,0E0,1.4904737E-1,3.564103E0,9.2887163E-1,0E0,3.3117046E0,2.230198E0,3.4368997E0,3.8545322E-1,0E0,0E0,0E0,0E0,0E0,0E0,0E0,0E0,0E0,0E0,0E0,0E0,0E0,0E0,0E0,0E0,0E0,0E0,0E0,0E0],"parents":[2147483647,0,0,1,1,2,2,3,3,4,4,7,7,8,8,9,9,10,10,11,11,12,12,14,14,15,15,16,16,17,17,18,18,19,19,21,21,22,22,25,25,26,26,27,27,29,29,30,30,31,31,32,32],"right_children":[2,4,6,8,10,-1,-1,12,14,16,18,20,22,-1,24,26,28,30,32,34,-1,36,38,-1,-1,40,42,44,-1,46,48,50,52,-1,-1,-1,-1,-1,-1,-1,-1,-1,-1,-1,-1,-1,-1,-1,-1,-1,-1,-1,-1],"split_conditions":[9.732802E1,1E1,7E0,1.4112197E5,3.273132E1,1.0761007E-1,-6.3002743E-3,3.1116697E1,1.5766819E0,1.8E1,1.3E1,2.7473625E1,3.663968E0,-7.098837E-2,7.5592735E1,2.0377152E0,4.2E1,5.2318306E1,8.38501E1,5.7720805E4,1.2646762E-1,9.204723E1,1.2E1,1.3438366E-1,-1.1313187E-2,5.4892477E4,2.9081116E0,1.2497847E5,1.1216736E-2,4.1791767E1,8.56653E1,8.184026E1,2.6299763E0,-8.6511284E-2,-6.0747815E-3,-8.832993E-2,-9.841856E-3,-7.30421E-2,9.084483E-2,-1.0217303E-2,-6.8652414E-2,1.21241234E-1,-3.3662148E-2,-9.343698E-2,-1.235972E-2,2.1268198E-2,2.4009638E-1,-6.1214484E-2,5.3845357E-2,-9.4006694E-4,1.3290991E-1,-9.0964735E-2,-1.1370848E-2],"split_indices":[9,7,7,2,9,0,0,3,10,7,7,3,10,0,9,4,7,9,3,2,0,9,1,0,0,2,4,2,0,9,9,3,10,0,0,0,0,0,0,0,0,0,0,0,0,0,0,0,0,0,0,0,0],"split_type":[0,0,0,0,0,0,0,0,0,0,0,0,0,0,0,0,0,0,0,0,0,0,0,0,0,0,0,0,0,0,0,0,0,0,0,0,0,0,0,0,0,0,0,0,0,0,0,0,0,0,0,0,0],"sum_hessian":[1.1354577E2,1.1012469E2,3.4210844E0,5.1049873E1,5.907481E1,1.6661769E0,1.7549076E0,4.6197315E1,4.852561E0,1.9100185E1,3.9974625E1,1.5945783E1,3.0251532E1,1.5970231E0,3.255538E0,6.860972E0,1.2239213E1,7.4978137E0,3.2476814E1,1.4844621E1,1.1011624E0,2.7215696E1,3.0358343E0,2.2209215E0,1.0346164E0,2.5234108E0,4.3375607E0,1.0758927E1,1.4802856E0,2.581286E0,4.9165273E0,2.7617819E1,4.8589935E0,5.8483825E0,8.996238E0,2.5272026E1,1.9436699E0,1.628107E0,1.4077275E0,1.0190127E0,1.5043981E0,1.5665627E0,2.7709982E0,8.712782E0,2.046145E0,1.298138E0,1.283148E0,2.9336143E0,1.9829133E0,2.655118E1,1.06664E0,3.801716E0,1.0572772E0],"tree_param":{"num_deleted":"0","num_feature":"12","num_nodes":"53","size_leaf_vector":"1"}},{"base_weights":[-2.1717711E-1,-2.6482826E-1,9.6207E-1,9.656344E-2,-2.9521042E-1,1.9471769E-3,1.4245062E-1,-3.850807E-1,1.7317556E-2,-4.9555436E-1,-7.285171E-2,-8.167993E-1,3.1183857E-1,5.4645944E-2,-5.288457E-1,4.6606532E-1,-2.7886996E-1,-9.324259E-2,-8.5365055E-3,6.1711216E-1,-4.5647252E-1,-1.9153397E-3,-6.0457595E-2,-3.970211E-2,8.4946685E-2,-8.237713E-2,4.221831E-3,1.1976766E-2,1.1970861E-1,-9.100618E-2,8.4893756E-2],"categories":[],"categories_nodes":[],"categories_segments":[],"categories_sizes":[],"default_left":[0,0,0,0,0,0,0,0,0,0,0,0,0,0,0,0,0,0,0,0,0,0,0,0,0,0,0,0,0,0,0],"id":9,"left_children":[1,3,5,-1,7,-1,-1,9,11,13,15,17,19,-1,21,23,25,-1,-1,27,29,-1,-1,-1,-1,-1,-1,-1,-1,-1,-1],"loss_changes":[6.4970574E0,4.3059897E0,1.9470005E0,0E0,2.9763365E0,0E0,0E0,2.7978659E0,6.290843E0,2.388277E0,2.6441789E0,4.860344E-1,4.7105007E0,0E0,2.2715607E0,2.5335104E0,3.010526E0,0E0,0E0,3.8771372E0,4.2921834E0,0E0,0E0,0E0,0E0,0E0,0E0,0E0,0E0,0E0,0E0],"parents":[2147483647,0,0,1,1,2,2,4,4,7,7,8,8,9,9,10,10,11,11,12,12,14,14,15,15,16,16,19,19,20,20],"right_children":[2,4,6,-1,8,-1,-1,10,12,14,16,18,20,-1,22,24,26,-1,-1,28,30,-1,-1,-1,-1,-1,-1,-1,-1,-1,-1],"split_conditions":[9.493568E-1,-9.793088E-1,1E0,9.656344E-2,7.554311E1,1.9471769E-3,1.4245062E-1,1.7E1,-5.198607E-1,2.4178045E0,4E0,1.3490506E5,9.294257E1,5.4645944E-2,4.767763E4,2.7154476E1,5.6668652E4,-9.324259E-2,-8.5365055E-3,3E0,1.15982625E5,-1.9153397E-3,-6.0457595E-2,-3.970211E-2,8.4946685E-2,-8.237713E-2,4.221831E-3,1.1976766E-2,1.1970861E-1,-9.100618E-2,8.4893756E-2],"split_indices":[8,8,0,0,3,0,0,1,8,9,7,2,3,0,2,3,2,0,0,0,2,0,0,0,0,0,0,0,0,0,0],"split_type":[0,0,0,0,0,0,0,0,0,0,0,0,0,0,0,0,0,0,0,0,0,0,0,0,0,0,0,0,0,0,0],"sum_hessian":[1.1008736E2,1.06557014E2,3.5303419E0,1.825903E0,1.0473111E2,1.5049211E0,2.0254207E0,8.1160515E1,2.3570595E1,5.9515457E1,2.164506E1,5.688058E0,1.7882536E1,1.3653632E0,5.8150093E1,5.6370406E0,1.600802E1,4.6743374E0,1.0137204E0,1.2938477E1,4.9440603E0,7.6843696E0,5.046572E1,1.7229453E0,3.9140952E0,5.354919E0,1.0653101E1,7.614945E0,5.3235316E0,3.893904E0,1.0501565E0],"tree_param":{"num_deleted":"0","num_feature":"12","num_nodes":"31","size_leaf_vector":"1"}},{"base_weights":[-1.6884105E-1,8.0993396E-1,-2.0718075E-1,-2.7404105E-2,1.3795082E-1,-1.4497966E-1,-8.8569885E-1,-1.8178596E-1,9.7376746E-1,-9.76736E-2,-1.6517336E-2,-2.1370353E-1,9.6403144E-2,1.3483787E-1,2.0923762E-2,-3.047468E-1,1.0915068E-1,2.6400972E-3,-4.2949624E-2,8.318067E-2,-2.8987942E-2],"categories":[],"categories_nodes":[],"categories_segments":[],"categories_sizes":[],"default_left":[0,0,0,0,0,0,0,0,0,0,0,0,0,0,0,0,0,0,0,0,0],"id":10,"left_children":[1,3,5,-1,-1,7,9,11,13,-1,-1,15,-1,-1,-1,17,19,-1,-1,-1,-1],"loss_changes":[4.2968006E0,3.064521E0,4.3739448E0,0E0,0E0,4.250106E0,4.13445E-1,3.739165E0,6.6527796E-1,0E0,0E0,2.820055E0,0E0,0E0,0E0,3.0773253E0,6.46715E0,0E0,0E0,0E0,0E0],"parents":[2147483647,0,0,1,1,2,2,5,5,6,6,7,7,8,8,11,11,15,15,16,16],"right_children":[2,4,6,-1,-1,8,10,12,14,-1,-1,16,-1,-1,-1,18,20,-1,-1,-1,-1],"split_conditions":[2.4178045E0,-2.732536E-1,1.1942478E2,-2.7404105E-2,1.3795082E-1,4.8496327E0,8.565682E1,9.7935005E1,3.9691193E1,-9.76736E-2,-1.6517336E-2,3.1626382E0,9.6403144E-2,1.3483787E-1,2.0923762E-2,1.3937993E0,5.9680688E4,2.6400972E-3,-4.2949624E-2,8.318067E-2,-2.8987942E-2],"split_indices":[9,8,6,0,0,4,3,9,3,0,0,10,0,0,0,4,2,0,0,0,0],"split_type":[0,0,0,0,0,0,0,0,0,0,0,0,0,0,0,0,0,0,0,0,0],"sum_hessian":[1.09030525E2,3.3512478E0,1.0567928E2,1.3330826E0,2.0181653E0,9.791673E1,7.7625494E0,9.560876E1,2.3079774E0,6.5760846E0,1.1864648E0,9.380913E1,1.799629E0,1.0364554E0,1.2715219E0,7.321808E1,2.0591047E1,2.0250751E1,5.2967327E1,6.9392595E0,1.3651788E1],"tree_param":{"num_deleted":"0","num_feature":"12","num_nodes":"21","size_leaf_vector":"1"}},{"base_weights":[-2.1429059E-1,-2.5944242E-1,7.3430926E-1,-3.3314678E-1,2.3978439E-1,1.5681462E-1,-7.0764475E-2,-5.068641E-1,-1.6619246E-1,7.710992E-1,-2.6815727E-1,-6.945747E-2,6.6012055E-2,6.928974E-2,-5.546746E-1,-4.9755073E-1,-4.403959E-3,3.6566827E-1,1.4673223E-1,2.4997942E-1,-8.66566E-2,2.3285706E-1,-6.2901396E-1,1.6189806E-1,-8.3370775E-1,3.975934E-1,-2.4898338E-1,-6.273518E-2,7.3020804E-1,-5.9499145E-1,1.4902477E-1,7.800667E-2,-6.399476E-2,-7.4612685E-2,5.1075434E-3,-3.2422584E-2,1.2195533E-1,-2.842018E-2,-9.855894E-2,8.6470746E-2,-3.4428976E-4,-4.867808E-2,3.167279E-2,1.9539708E-2,1.342388E-1,-1.4880146E-2,-7.0977814E-2],"categories":[],"categories_nodes":[],"categories_segments":[],"categories_sizes":[],"default_left":[0,0,0,0,0,0,0,0,0,0,0,0,0,0,0,0,0,0,0,0,0,0,0,0,0,0,0,0,0,0,0,0,0,0,0,0,0,0,0,0,0,0,0,0,0,0,0],"id":11,"left_children":[1,3,5,7,9,-1,11,13,15,17,19,-1,-1,-1,21,23,25,27,-1,29,-1,31,33,35,37,39,41,-1,43,45,-1,-1,-1,-1,-1,-1,-1,-1,-1,-1,-1,-1,-1,-1,-1,-1,-1],"loss_changes":[4.7662096E0,3.8593507E0,3.5446937E0,2.5237284E0,3.9298239E0,0E0,2.0812733E0,2.8841438E0,2.5357518E0,1.4395013E0,2.633454E0,0E0,0E0,0E0,2.6325865E0,3.575949E0,3.3257198E0,2.5417957E0,0E0,6.078115E0,0E0,2.597142E0,3.1501493E0,3.520614E0,5.915489E-1,2.4006624E0,2.9817834E0,0E0,1.2675102E0,8.189082E-2,0E0,0E0,0E0,0E0,0E0,0E0,0E0,0E0,0E0,0E0,0E0,0E0,0E0,0E0,0E0,0E0,0E0],"parents":[2147483647,0,0,1,1,2,2,3,3,4,4,6,6,7,7,8,8,9,9,10,10,14,14,15,15,16,16,17,17,19,19,21,21,22,22,23,23,24,24,25,25,26,26,28,28,29,29],"right_children":[2,4,6,8,10,-1,12,14,16,18,20,-1,-1,-1,22,24,26,28,-1,30,-1,32,34,36,38,40,42,-1,44,46,-1,-1,-1,-1,-1,-1,-1,-1,-1,-1,-1,-1,-1,-1,-1,-1,-1],"split_conditions":[9.66097E1,3.6346223E0,3E0,1E1,3.8082337E0,1.5681462E-1,7.327066E4,2.4178045E0,3.242576E1,1.8E1,5.97911E1,-6.945747E-2,6.6012055E-2,6.928974E-2,4.3708305E4,9.898709E-1,5.4706123E1,-2.1039847E-1,1.4673223E-1,4.492958E1,-8.66566E-2,5E0,1.8E1,7.5998604E-1,1.7E1,1.8E1,2.9E1,-6.273518E-2,2.7E1,7.881808E0,1.4902477E-1,7.800667E-2,-6.399476E-2,-7.4612685E-2,5.1075434E-3,-3.2422584E-2,1.2195533E-1,-2.842018E-2,-9.855894E-2,8.6470746E-2,-3.4428976E-4,-4.867808E-2,3.167279E-2,1.9539708E-2,1.342388E-1,-1.4880146E-2,-7.0977814E-2],"split_indices":[9,10,1,7,10,0,2,9,9,1,3,0,0,0,2,10,9,8,0,3,0,7,1,10,7,7,7,0,7,3,0,0,0,0,0,0,0,0,0,0,0,0,0,0,0,0,0],"split_type":[0,0,0,0,0,0,0,0,0,0,0,0,0,0,0,0,0,0,0,0,0,0,0,0,0,0,0,0,0,0,0,0,0,0,0,0,0,0,0,0,0,0,0,0,0,0,0],"sum_hessian":[1.0583138E2,1.0171635E2,4.1150365E0,8.892099E1,1.2795354E1,1.5558112E0,2.5592253E0,4.2580105E1,4.634089E1,6.000574E0,6.79478E0,1.407556E0,1.1516691E0,1.1147189E0,4.1465385E1,1.4522371E1,3.1818516E1,4.756148E0,1.2444263E0,3.9536994E0,2.8410804E0,3.3926072E0,3.807278E1,5.078371E0,9.443999E0,1.1799279E1,2.0019238E1,1.0835567E0,3.6725914E0,2.6610496E0,1.2926496E0,2.1505568E0,1.2420504E0,3.2396866E1,5.6759133E0,3.954319E0,1.1240523E0,2.66679E0,6.7772098E0,4.916508E0,6.8827715E0,1.41928005E1,5.8264365E0,2.6642442E0,1.0083473E0,1.014376E0,1.6466736E0],"tree_param":{"num_deleted":"0","num_feature":"12","num_nodes":"47","size_leaf_vector":"1"}},{"base_weights":[-2.1554886E-1,-2.6123893E-1,5.999314E-1,-1.8122315E-1,-6.025605E-1,-4.199629E-2,1.1671555E0,-3.5256085E-1,1.4180285E-1,-7.8462756E-1,9.897214E-2,1.584097E-1,1.6131831E-2,-4.152756E-1,5.457496E-1,4.2135403E-1,-4.9998587E-1,-8.6393946E-1,-1.6554846E-1,-5.6101847E-1,4.564913E-2,1.474161E-1,-6.9000386E-2,-4.3670216E-1,7.738431E-1,-7.361446E-1,3.0746764E-2,-3.153085E-1,-1.03103556E-1,4.129542E-2,-6.1963674E-2,-8.457797E-2,-4.348657E-2,-3.609399E-2,7.294016E-2,4.5256815E-3,-6.938833E-2,1.10106826E-1,-4.0148295E-2,-9.52931E-2,9.821686E-3,-7.9283945E-2,3.5239194E-2],"categories":[],"categories_nodes":[],"categories_segments":[],"categories_sizes":[],"default_left":[0,0,0,0,0,0,0,0,0,0,0,0,0,0,0,0,0,0,0,0,0,0,0,0,0,0,0,0,0,0,0,0,0,0,0,0,0,0,0,0,0,0,0],"id":12,"left_children":[1,3,5,7,9,-1,11,13,15,17,-1,-1,-1,19,21,23,25,27,29,31,33,-1,-1,35,37,39,-1,41,-1,-1,-1,-1,-1,-1,-1,-1,-1,-1,-1,-1,-1,-1,-1],"loss_changes":[4.108151E0,2.652554E0,3.9207306E0,4.66302E0,6.21914E0,0E0,1.4535298E0,3.3109884E0,5.5213118E0,7.115793E-1,0E0,0E0,0E0,3.5015268E0,5.611912E0,6.7383738E0,2.0261493E0,1.0675812E0,1.1000787E0,1.0471449E0,3.976115E0,0E0,0E0,8.744074E-1,6.349634E0,1.4677825E0,0E0,1.8695552E0,0E0,0E0,0E0,0E0,0E0,0E0,0E0,0E0,0E0,0E0,0E0,0E0,0E0,0E0,0E0],"parents":[2147483647,0,0,1,1,2,2,3,3,4,4,6,6,7,7,8,8,9,9,13,13,14,14,15,15,16,16,17,17,18,18,19,19,20,20,23,23,24,24,25,25,27,27],"right_children":[2,4,6,8,10,-1,12,14,16,18,-1,-1,-1,20,22,24,26,28,30,32,34,-1,-1,36,38,40,-1,42,-1,-1,-1,-1,-1,-1,-1,-1,-1,-1,-1,-1,-1,-1,-1],"split_conditions":[9.2460597E-1,4E0,5E0,2E0,4E1,-4.199629E-2,1.9E1,9.6275536E1,3.331927E0,8.266418E1,9.897214E-2,1.584097E-1,1.6131831E-2,3.786551E0,7E0,1.1479908E0,7.4882744E1,1.1479908E0,5.9416926E4,-5.198607E-1,7.15002E1,1.474161E-1,-6.9000386E-2,-6.528542E-2,7.820343E1,1.0094807E5,3.0746764E-2,6.1501646E-1,-1.03103556E-1,4.129542E-2,-6.1963674E-2,-8.457797E-2,-4.348657E-2,-3.609399E-2,7.294016E-2,4.5256815E-3,-6.938833E-2,1.10106826E-1,-4.0148295E-2,-9.52931E-2,9.821686E-3,-7.9283945E-2,3.5239194E-2],"split_indices":[8,0,7,0,7,0,7,9,4,3,0,0,0,4,7,4,3,4,2,8,9,0,0,8,9,2,0,4,0,0,0,0,0,0,0,0,0,0,0,0,0,0,0],"split_type":[0,0,0,0,0,0,0,0,0,0,0,0,0,0,0,0,0,0,0,0,0,0,0,0,0,0,0,0,0,0,0,0,0,0,0,0,0,0,0,0,0,0,0],"sum_hessian":[1.05051926E2,1.001219E2,4.930022E0,8.234805E1,1.7773848E1,1.8547378E0,3.0752838E0,5.3747936E1,2.860012E1,1.6405247E1,1.3686017E0,1.7676501E0,1.3076336E0,5.074307E1,3.0048683E0,2.0161581E1,8.4385395E0,1.4191599E1,2.2136476E0,3.8387814E1,1.2355254E1,1.6056397E0,1.3992286E0,5.8011246E0,1.4360457E1,6.5973134E0,1.841226E0,3.9872253E0,1.0204373E1,1.013301E0,1.2003466E0,1.0033978E1,2.8353834E1,8.044038E0,4.3112164E0,2.3051977E0,3.4959269E0,1.1282462E1,3.0779948E0,5.1238985E0,1.4734149E0,2.215389E0,1.7718364E0],"tree_param":{"num_deleted":"0","num_feature":"12","num_nodes":"43","size_leaf_vector":"1"}},{"base_weights":[-1.9664074E-1,-1.4236426E-1,-9.4815485E-2,-6.0498916E-2,-5.111414E-1,8.005274E-2,-3.4216923E-1,-7.2096825E-1,4.5231643E-1,-4.7057346E-1,3.104025E-1,-6.0447913E-1,8.100073E-2,2.8532261E-2,-8.2703507E-1,8.6247005E-2,-1.9761955E-2,1.47368E-1,-7.113203E-1,8.6088854E-1,1.581518E-1,-9.038409E-1,3.968037E-1,7.424471E-1,-3.4838054E-1,-8.8300335E-1,-6.3529015E-3,6.7674786E-2,-6.924596E-2,-9.9156715E-2,-8.5087735E-3,1.12884186E-1,-5.90739E-3,-6.145272E-3,8.0842614E-2,-1.03568174E-1,-1.7259166E-2,1.066698E-1,-4.0307455E-2,-6.077794E-2,1.3081878E-1,-7.147431E-2,2.6301924E-2,-9.095209E-3,-9.465291E-2],"categories":[],"categories_nodes":[],"categories_segments":[],"categories_sizes":[],"default_left":[0,0,0,0,0,0,0,0,0,0,0,0,0,0,0,0,0,0,0,0,0,0,0,0,0,0,0,0,0,0,0,0,0,0,0,0,0,0,0,0,0,0,0,0,0],"id":13,"left_children":[1,3,-1,5,7,9,11,13,15,17,19,21,23,-1,25,-1,-1,27,29,31,33,35,37,39,41,43,-1,-1,-1,-1,-1,-1,-1,-1,-1,-1,-1,-1,-1,-1,-1,-1,-1,-1,-1],"loss_changes":[4.068494E0,2.906209E0,0E0,3.2241669E0,3.8718686E0,7.0813594E0,3.0537403E0,1.8143821E0,1.1704094E0,2.5632195E0,3.1454096E0,5.403124E0,3.4510908E0,0E0,5.265417E-1,0E0,0E0,2.8967128E0,2.032792E0,2.1022878E0,4.6045423E0,1.0997019E0,2.8778577E0,4.418887E0,1.8671678E0,5.491924E-1,0E0,0E0,0E0,0E0,0E0,0E0,0E0,0E0,0E0,0E0,0E0,0E0,0E0,0E0,0E0,0E0,0E0,0E0,0E0],"parents":[2147483647,0,0,1,1,3,3,4,4,5,5,6,6,7,7,8,8,9,9,10,10,11,11,12,12,14,14,17,17,18,18,19,19,20,20,21,21,22,22,23,23,24,24,25,25],"right_children":[2,4,-1,6,8,10,12,14,16,18,20,22,24,-1,26,-1,-1,28,30,32,34,36,38,40,42,44,-1,-1,-1,-1,-1,-1,-1,-1,-1,-1,-1,-1,-1,-1,-1,-1,-1,-1,-1],"split_conditions":[1.2044843E2,4E0,-9.4815485E-2,1.9E1,3.2E1,-4.0361023E-1,6.457104E1,3.190537E-1,4.679854E1,-8.4096056E-1,2E0,1.15982625E5,6.450082E4,2.8532261E-2,9.1444466E1,8.6247005E-2,-1.9761955E-2,6.570652E1,6.3562138E1,5.895955E-1,1.07783066E2,5.6707996E1,1.3672938E5,8.688347E1,9.0416855E1,9.92289E0,-6.3529015E-3,6.7674786E-2,-6.924596E-2,-9.9156715E-2,-8.5087735E-3,1.12884186E-1,-5.90739E-3,-6.145272E-3,8.0842614E-2,-1.03568174E-1,-1.7259166E-2,1.066698E-1,-4.0307455E-2,-6.077794E-2,1.3081878E-1,-7.147431E-2,2.6301924E-2,-9.095209E-3,-9.465291E-2],"split_indices":[6,0,0,7,7,8,9,10,3,8,7,2,2,0,3,0,0,3,9,8,6,9,2,6,9,3,0,0,0,0,0,0,0,0,0,0,0,0,0,0,0,0,0,0,0],"split_type":[0,0,0,0,0,0,0,0,0,0,0,0,0,0,0,0,0,0,0,0,0,0,0,0,0,0,0,0,0,0,0,0,0,0,0,0,0,0,0,0,0,0,0,0,0],"sum_hessian":[1.0205281E2,9.6288055E1,5.7647614E0,7.9748604E1,1.6539448E1,5.367895E1,2.6069654E1,1.3788257E1,2.7511916E0,1.5525074E1,3.8153877E1,1.5829182E1,1.0240472E1,1.153604E0,1.2634653E1,1.4862559E0,1.2649357E0,4.461446E0,1.1063628E1,7.257791E0,3.0896084E1,1.226079E1,3.5683918E0,3.7439473E0,6.496525E0,1.1625912E1,1.0087408E0,2.8556116E0,1.6058341E0,7.240175E0,3.8234534E0,5.4448433E0,1.8129474E0,2.377314E1,7.122944E0,1.0035176E1,2.2256134E0,1.7604489E0,1.807943E0,1.0835596E0,2.6603875E0,3.9566164E0,2.5399084E0,1.0437673E0,1.0582145E1],"tree_param":{"num_deleted":"0","num_feature":"12","num_nodes":"45","size_leaf_vector":"1"}},{"base_weights":[-1.07326455E-1,1.140462E-2,-5.6149584E-1,9.012799E-1,-6.296762E-2,1.6633347E-1,-7.2440743E-1,3.2174394E-2,1.4548903E0,4.3020326E-1,-1.4153408E-1,8.355495E-2,-6.882497E-2,-8.0607414E-1,1.0281289E-2,-5.8366533E-2,5.374548E-2,4.838988E-2,1.8807232E-1,9.711438E-1,-2.3468451E-1,-3.6065382E-1,1.8317165E-2,-9.365792E-1,-3.329443E-1,-2.5094567E-2,1.367313E0,3.101968E-1,-7.6681934E-2,4.174929E-1,-4.8562083E-1,-1.2704028E-1,6.1857647E-1,-7.862921E-3,-1.0107648E-1,-7.550275E-2,2.1159401E-2,2.7751653E-2,1.6351013E-1,-2.9502127E-2,9.0344004E-2,-8.863979E-3,8.4265895E-2,3.3042375E-2,-5.9244502E-2,1.4943661E-2,-5.851577E-2,1.2115464E-1,-3.2684322E-2],"categories":[],"categories_nodes":[],"categories_segments":[],"categories_sizes":[],"default_left":[0,0,0,0,0,0,0,0,0,0,0,0,0,0,0,0,0,0,0,0,0,0,0,0,0,0,0,0,0,0,0,0,0,0,0,0,0,0,0,0,0,0,0,0,0,0,0,0,0],"id":14,"left_children":[1,3,5,7,9,11,13,15,17,19,21,-1,-1,23,-1,-1,-1,-1,-1,25,27,29,31,33,35,-1,37,39,-1,41,43,45,47,-1,-1,-1,-1,-1,-1,-1,-1,-1,-1,-1,-1,-1,-1,-1,-1],"loss_changes":[5.459196E0,5.4269824E0,2.6077218E0,2.9958944E0,2.998642E0,3.2342691E0,1.2534103E0,1.3976214E0,6.7789173E-1,4.0642543E0,2.3237195E0,0E0,0E0,6.688833E-1,0E0,0E0,0E0,0E0,0E0,3.2848654E0,1.8588008E0,2.9208608E0,3.4989672E0,6.777744E-1,1.3056196E0,0E0,9.305868E-1,1.5138801E0,0E0,1.0227191E0,2.3355474E0,4.1897364E0,4.7757807E0,0E0,0E0,0E0,0E0,0E0,0E0,0E0,0E0,0E0,0E0,0E0,0E0,0E0,0E0,0E0,0E0],"parents":[2147483647,0,0,1,1,2,2,3,3,4,4,5,5,6,6,7,7,8,8,9,9,10,10,13,13,19,19,20,20,21,21,22,22,23,23,24,24,26,26,27,27,29,29,30,30,31,31,32,32],"right_children":[2,4,6,8,10,12,14,16,18,20,22,-1,-1,24,-1,-1,-1,-1,-1,26,28,30,32,34,36,-1,38,40,-1,42,44,46,48,-1,-1,-1,-1,-1,-1,-1,-1,-1,-1,-1,-1,-1,-1,-1,-1],"split_conditions":[1.1064029E2,2.6054895E-1,2E0,6.013139E4,2E0,1.5E1,1.9E1,9.087474E1,1.5E1,1E0,1.8947645E0,8.355495E-2,-6.882497E-2,7.4151726E1,1.0281289E-2,-5.8366533E-2,5.374548E-2,4.838988E-2,1.8807232E-1,5.2869902E4,6.913149E4,4.4852906E4,7.8052055E1,5.6944812E4,1.178967E2,-2.5094567E-2,6E0,4.7219784E1,-7.6681934E-2,4.1808938E4,1E0,4.8680706E1,1E0,-7.862921E-3,-1.0107648E-1,-7.550275E-2,2.1159401E-2,2.7751653E-2,1.6351013E-1,-2.9502127E-2,9.0344004E-2,-8.863979E-3,8.4265895E-2,3.3042375E-2,-5.9244502E-2,1.4943661E-2,-5.851577E-2,1.2115464E-1,-3.2684322E-2],"split_indices":[6,10,1,2,1,7,1,6,1,11,10,0,0,3,0,0,0,0,0,2,2,2,3,2,6,0,7,3,0,2,7,3,11,0,0,0,0,0,0,0,0,0,0,0,0,0,0,0,0],"split_type":[0,0,0,0,0,0,0,0,0,0,0,0,0,0,0,0,0,0,0,0,0,0,0,0,0,0,0,0,0,0,0,0,0,0,0,0,0,0,0,0,0,0,0,0,0,0,0,0,0],"sum_hessian":[1.0011991E2,8.014335E1,1.9976559E1,5.323874E0,7.481947E1,3.6497612E0,1.6326797E1,2.4833746E0,2.8404994E0,9.666439E0,6.515304E1,2.0593646E0,1.5903966E0,1.4883043E1,1.4437546E0,1.0493217E0,1.434053E0,1.5172344E0,1.323265E0,5.076047E0,4.590392E0,2.6951908E1,3.820113E1,1.0897585E1,3.9854586E0,1.3324181E0,3.743629E0,2.4740999E0,2.116292E0,3.4055219E0,2.3546387E1,3.1388514E1,6.8126144E0,1.0312413E0,9.8663435E0,2.0274177E0,1.9580408E0,1.1401165E0,2.6035125E0,1.4735271E0,1.0005729E0,1.9160755E0,1.4894465E0,2.4832609E0,2.1063126E1,1.9995127E1,1.1393389E1,4.013712E0,2.7989025E0],"tree_param":{"num_deleted":"0","num_feature":"12","num_nodes":"49","size_leaf_vector":"1"}},{"base_weights":[-1.05516024E-1,2.625839E-1,-1.9404177E-1,7.2617537E-1,-2.1574827E-1,-4.0422884E-1,-7.8032278E-3,1.2107534E0,-5.925771E-3,2.2691444E-1,-7.3804945E-1,5.6654602E-2,-4.7040337E-1,9.586126E-2,-8.9374274E-2,-4.567448E-3,1.723867E0,-5.350254E-1,6.6998646E-2,-2.812637E-1,1.0204919E-1,-1.2763537E-2,-8.7011375E-2,-5.4532135E-1,1.5407443E-1,-7.529364E-2,9.062787E-1,2.016937E-1,5.7559937E-2,-6.676041E-2,-1.08455075E-2,-8.103406E-2,7.274928E-2,-6.0376203E-1,3.8124293E-2,-6.5659925E-2,6.805861E-1,-5.6725025E-1,1.6670899E-1,1.3972826E0,-6.645846E-2,-2.0344606E-2,-8.03126E-2,1.2957059E-1,-1.9481966E-2,1.3976161E-2,-9.7040795E-2,-1.4874195E-2,9.128435E-2,4.556898E-2,2.0949514E-1],"categories":[],"categories_nodes":[],"categories_segments":[],"categories_sizes":[],"default_left":[0,0,0,0,0,0,0,0,0,0,0,0,0,0,0,0,0,0,0,0,0,0,0,0,0,0,0,0,0,0,0,0,0,0,0,0,0,0,0,0,0,0,0,0,0,0,0,0,0,0,0],"id":15,"left_children":[1,3,5,7,9,11,13,15,17,19,21,-1,23,25,-1,-1,27,29,-1,31,-1,-1,-1,33,35,37,39,-1,-1,-1,-1,-1,-1,41,-1,-1,43,45,47,49,-1,-1,-1,-1,-1,-1,-1,-1,-1,-1,-1],"loss_changes":[3.3550005E0,4.609889E0,3.2189302E0,3.7063413E0,2.6309114E0,2.7493944E0,4.187434E0,4.1268473E0,2.1995416E0,2.9212227E0,3.0192018E-1,0E0,1.8024054E0,5.739468E0,0E0,0E0,3.4808636E-1,1.2234753E-1,0E0,3.1331494E0,0E0,0E0,0E0,2.0179453E0,2.458998E0,4.223438E0,6.486599E0,0E0,0E0,0E0,0E0,0E0,0E0,2.3460941E0,0E0,0E0,2.055789E0,3.4597437E0,5.7889585E0,2.863577E0,0E0,0E0,0E0,0E0,0E0,0E0,0E0,0E0,0E0,0E0,0E0],"parents":[2147483647,0,0,1,1,2,2,3,3,4,4,5,5,6,6,7,7,8,8,9,9,10,10,12,12,13,13,16,16,17,17,19,19,23,23,24,24,25,25,26,26,33,33,36,36,37,37,38,38,39,39],"right_children":[2,4,6,8,10,12,14,16,18,20,22,-1,24,26,-1,-1,28,30,-1,32,-1,-1,-1,34,36,38,40,-1,-1,-1,-1,-1,-1,42,-1,-1,44,46,48,50,-1,-1,-1,-1,-1,-1,-1,-1,-1,-1,-1],"split_conditions":[3E0,1.00565445E2,1E1,7.08044E4,2.3547668E0,7.067427E1,8.908267E1,1.6005819E0,4.955557E1,1.169167E2,2.9389008E1,5.6654602E-2,8.908267E1,7.554311E1,-8.9374274E-2,-4.567448E-3,3.0346956E0,6.9053856E1,6.6998646E-2,8.357423E1,1.0204919E-1,-1.2763537E-2,-8.7011375E-2,3.7534602E0,9.572359E1,3.0556307E1,1.102953E2,2.016937E-1,5.7559937E-2,-6.676041E-2,-1.08455075E-2,-8.103406E-2,7.274928E-2,1.3514155E0,3.8124293E-2,-6.5659925E-2,9.585654E1,1.9E1,9.700476E4,7.220011E4,-6.645846E-2,-2.0344606E-2,-8.03126E-2,1.2957059E-1,-1.9481966E-2,1.3976161E-2,-9.7040795E-2,-1.4874195E-2,9.128435E-2,4.556898E-2,2.0949514E-1],"split_indices":[1,6,7,2,10,6,3,10,3,6,9,0,3,3,0,0,10,9,0,9,0,0,0,10,6,9,6,0,0,0,0,0,0,10,0,0,3,7,2,2,0,0,0,0,0,0,0,0,0,0,0],"split_type":[0,0,0,0,0,0,0,0,0,0,0,0,0,0,0,0,0,0,0,0,0,0,0,0,0,0,0,0,0,0,0,0,0,0,0,0,0,0,0,0,0,0,0,0,0,0,0,0,0,0,0],"sum_hessian":[1.0039374E2,1.908209E1,8.131165E1,9.427234E0,9.654857E0,3.7649868E1,4.366178E1,5.279154E0,4.1480803E0,5.5319476E0,4.1229086E0,1.9201422E0,3.5729725E1,3.9886433E1,3.7753463E0,1.7949537E0,3.4842E0,2.443648E0,1.704432E0,3.765947E0,1.7660006E0,1.0831137E0,3.039795E0,3.2015602E1,3.7141247E0,3.368044E1,6.205997E0,2.1730685E0,1.3111315E0,1.433167E0,1.0104811E0,2.5993319E0,1.1666151E0,3.044382E1,1.5717807E0,1.3651379E0,2.3489866E0,1.06620455E1,2.3018393E1,4.8123145E0,1.3936825E0,1.0792774E1,1.9651047E1,1.0976105E0,1.2513762E0,4.109176E0,6.55287E0,1.6741196E1,6.277197E0,2.7517023E0,2.0606122E0],"tree_param":{"num_deleted":"0","num_feature":"12","num_nodes":"51","size_leaf_vector":"1"}},{"base_weights":[-1.2102753E-1,-7.911025E-2,-7.585495E-2,-4.021404E-2,-6.4046353E-1,-1.00644454E-1,6.4636564E-1,-9.02145E-2,9.038857E-3,1.7077182E-1,-1.9039045E-1,-6.1470844E-2,9.6237606E-1,-8.024525E-2,1.477704E0,-2.737405E-1,2.6670444E-1,1.2779611E-1,4.1048947E-1,-4.223117E-2,2.7176673E-2,2.3249416E-1,1.3592573E-2,-3.3004727E-2,7.24706E-2,-1.0950065E-2,1.1900804E-1,-3.3814035E-2,1.0919706E-1],"categories":[],"categories_nodes":[],"categories_segments":[],"categories_sizes":[],"default_left":[0,0,0,0,0,0,0,0,0,0,0,0,0,0,0,0,0,0,0,0,0,0,0,0,0,0,0,0,0],"id":16,"left_children":[1,3,-1,5,7,9,11,-1,-1,13,15,-1,17,19,21,23,25,-1,27,-1,-1,-1,-1,-1,-1,-1,-1,-1,-1],"loss_changes":[2.5845952E0,2.0261197E0,0E0,3.7556734E0,1.2333534E0,2.0450354E0,3.512908E0,0E0,0E0,7.0268464E0,2.4565895E0,0E0,5.642128E-1,2.3560433E0,3.5995255E0,3.241734E0,3.6580453E0,0E0,2.2811184E0,0E0,0E0,0E0,0E0,0E0,0E0,0E0,0E0,0E0,0E0],"parents":[2147483647,0,0,1,1,3,3,4,4,5,5,6,6,9,9,10,10,12,12,13,13,14,14,15,15,16,16,18,18],"right_children":[2,4,-1,6,8,10,12,-1,-1,14,16,-1,18,20,22,24,26,-1,28,-1,-1,-1,-1,-1,-1,-1,-1,-1,-1],"split_conditions":[1.2044843E2,3.8250368E0,-7.585495E-2,3.6346223E0,1.8E1,8.339779E-1,-6.386746E-1,-9.02145E-2,9.038857E-3,7.527367E-1,7.143859E-1,-6.1470844E-2,1.4E1,2E0,2.1541962E-1,4.8496327E0,2.8405676E0,1.2779611E-1,2.8E1,-4.223117E-2,2.7176673E-2,2.3249416E-1,1.3592573E-2,-3.3004727E-2,7.24706E-2,-1.0950065E-2,1.1900804E-1,-3.3814035E-2,1.0919706E-1],"split_indices":[6,10,0,10,7,10,8,0,0,10,8,0,7,0,8,4,10,0,7,0,0,0,0,0,0,0,0,0,0],"split_type":[0,0,0,0,0,0,0,0,0,0,0,0,0,0,0,0,0,0,0,0,0,0,0,0,0,0,0,0,0],"sum_hessian":[9.796291E1,9.297394E1,4.9889774E0,8.7951416E1,5.022522E0,8.162084E1,6.3305774E0,3.525753E0,1.4967692E0,2.0057793E1,6.1563046E1,1.0790992E0,5.251478E0,1.761345E1,2.4443424E0,5.240776E1,9.155286E0,2.5039964E0,2.747482E0,8.831633E0,8.7818165E0,1.0491482E0,1.395194E0,5.0243736E1,2.164026E0,7.131257E0,2.024029E0,1.5493188E0,1.1981633E0],"tree_param":{"num_deleted":"0","num_feature":"12","num_nodes":"29","size_leaf_vector":"1"}},{"base_weights":[-8.540627E-2,-4.6610873E-2,-7.255489E-1,-1.585313E-1,2.2941065E-1,-1.8901981E-2,-8.3786875E-2,-2.7681844E-2,-5.018866E-1,-2.2954425E-1,4.985303E-1,3.2536966E-1,-1.6764174E-1,4.280034E-2,-6.1392945E-1,-4.2054015E-1,7.834137E-2,1.2126207E0,1.4172336E-2,-9.955806E-2,9.521184E-1,-8.536053E-1,7.8162156E-2,-7.820709E-1,2.631244E-1,3.7339892E-2,-5.592861E-1,1.4620827E0,-1.1449512E-2,-7.067123E-1,4.622517E-1,9.625872E-2,-4.015398E-2,1.4109854E-1,2.1169888E-2,-1.53011335E-2,-1.0115772E-1,-1.5202591E-2,9.207904E-2,5.187863E-4,-9.45615E-2,7.602835E-2,-2.6925707E-2,-8.1121765E-2,1.6233204E-2,2.3924915E-2,1.7302689E-1,-1.1733882E-2,-8.404041E-2,-4.140648E-2,7.8792885E-2],"categories":[],"categories_nodes":[],"categories_segments":[],"categories_sizes":[],"default_left":[0,0,0,0,0,0,0,0,0,0,0,0,0,0,0,0,0,0,0,0,0,0,0,0,0,0,0,0,0,0,0,0,0,0,0,0,0,0,0,0,0,0,0,0,0,0,0,0,0,0,0],"id":17,"left_children":[1,3,5,7,9,-1,-1,11,13,15,17,19,21,-1,23,25,-1,27,29,31,33,35,37,39,41,-1,43,45,-1,47,49,-1,-1,-1,-1,-1,-1,-1,-1,-1,-1,-1,-1,-1,-1,-1,-1,-1,-1,-1,-1],"loss_changes":[2.4246473E0,2.9527905E0,1.783731E-1,3.0304713E0,3.5289087E0,0E0,0E0,2.5312223E0,2.2047424E0,2.4388707E0,6.1191516E0,3.9748585E0,6.2299914E0,0E0,2.7194967E0,1.2910132E0,0E0,2.5373192E0,4.068146E0,3.4617825E0,1.7334514E0,9.2170954E-1,5.5372367E0,1.8789215E0,1.1285472E0,0E0,1.7247806E0,1.5859861E0,0E0,2.8238678E-1,2.5374033E0,0E0,0E0,0E0,0E0,0E0,0E0,0E0,0E0,0E0,0E0,0E0,0E0,0E0,0E0,0E0,0E0,0E0,0E0,0E0,0E0],"parents":[2147483647,0,0,1,1,2,2,3,3,4,4,7,7,8,8,9,9,10,10,11,11,12,12,14,14,15,15,17,17,18,18,19,19,20,20,21,21,22,22,23,23,24,24,26,26,27,27,29,29,30,30],"right_children":[2,4,6,8,10,-1,-1,12,14,16,18,20,22,-1,24,26,-1,28,30,32,34,36,38,40,42,-1,44,46,-1,48,50,-1,-1,-1,-1,-1,-1,-1,-1,-1,-1,-1,-1,-1,-1,-1,-1,-1,-1,-1,-1],"split_conditions":[1.2067705E2,9.67014E4,1.3124139E0,7.521385E4,1.7173711E0,-1.8901981E-2,-8.3786875E-2,4E0,7.5519775E1,9.370097E1,3.0135524E0,1.5E1,8.4881325E1,4.280034E-2,8.7113815E1,8.4881325E1,7.834137E-2,2.9E1,3.4696164E0,7.939896E1,1.9199322E0,3.9254965E4,3.1626382E0,1.680906E1,9.812669E1,3.7339892E-2,1.7E1,4E0,-1.1449512E-2,1.5637362E1,9.505766E1,9.625872E-2,-4.015398E-2,1.4109854E-1,2.1169888E-2,-1.53011335E-2,-1.0115772E-1,-1.5202591E-2,9.207904E-2,5.187863E-4,-9.45615E-2,7.602835E-2,-2.6925707E-2,-8.1121765E-2,1.6233204E-2,2.3924915E-2,1.7302689E-1,-1.1733882E-2,-8.404041E-2,-4.140648E-2,7.8792885E-2],"split_indices":[6,2,10,2,10,0,0,7,6,9,10,1,6,0,9,6,0,7,10,6,10,2,10,9,6,0,1,1,0,9,6,0,0,0,0,0,0,0,0,0,0,0,0,0,0,0,0,0,0,0,0],"split_type":[0,0,0,0,0,0,0,0,0,0,0,0,0,0,0,0,0,0,0,0,0,0,0,0,0,0,0,0,0,0,0,0,0,0,0,0,0,0,0,0,0,0,0,0,0,0,0,0,0,0,0],"sum_hessian":[9.799363E1,9.3405655E1,4.587971E0,6.676118E1,2.6644478E1,1.2586287E0,3.3293426E0,4.912191E1,1.763927E1,9.9030075E0,1.674147E1,1.3569033E1,3.5552876E1,1.5935695E0,1.6045702E1,8.824049E0,1.0789583E0,6.1584644E0,1.0583005E1,8.587779E0,4.981254E0,8.726679E0,2.6826199E1,1.3555291E1,2.4904096E0,1.0610747E0,7.7629743E0,5.0984025E0,1.0600619E0,3.8353562E0,6.747649E0,1.4168379E0,7.170941E0,2.516206E0,2.465048E0,1.9678781E0,6.7588005E0,2.1713984E1,5.1122155E0,2.4981465E0,1.1057145E1,1.0664426E0,1.423967E0,5.662068E0,2.1009066E0,1.257365E0,3.8410378E0,1.056317E0,2.7790391E0,1.7547241E0,4.992925E0],"tree_param":{"num_deleted":"0","num_feature":"12","num_nodes":"51","size_leaf_vector":"1"}},{"base_weights":[-5.558127E-2,1.4594227E-1,-1.9493067E-1,-1.8944113E-2,7.6039225E-1,6.2223494E-1,-2.4726112E-1,2.9958993E-1,-3.6120984E-1,1.0554192E0,-1.265383E-2,1.0335358E-1,-2.0784752E-2,-4.3687916E-1,-6.432216E-2,-7.3338616E-1,6.4111143E-1,5.000689E-1,-5.5791914E-1,-1.182315E-2,1.2911156E0,-5.1145405E-1,6.237926E-2,1.091141E-1,-6.695764E-1,-1.2616061E-2,-8.638801E-2,1.3760138E0,1.2371662E-1,1.1385268E-1,-2.772368E-2,-7.716213E-1,2.811423E-1,1.5043318E-1,2.4702674E-2,4.9930118E-2,-5.9008217E-1,-1.2419814E-2,1.13666885E-1,-9.163864E-3,-7.5740016E-1,1.6926199E-1,1.2086785E-2,-2.1478929E-2,9.745624E-2,-8.858455E-2,-2.285888E-2,8.682451E-2,-3.0265287E-2,-6.876463E-2,2.1501634E-2,5.6796398E-2,-1.9712446E-2,-7.096801E-3,-8.869334E-2],"categories":[],"categories_nodes":[],"categories_segments":[],"categories_sizes":[],"default_left":[0,0,0,0,0,0,0,0,0,0,0,0,0,0,0,0,0,0,0,0,0,0,0,0,0,0,0,0,0,0,0,0,0,0,0,0,0,0,0,0,0,0,0,0,0,0,0,0,0,0,0,0,0,0,0],"id":18,"left_children":[1,3,5,7,9,11,13,15,17,19,-1,-1,-1,21,23,25,27,29,31,-1,33,35,-1,37,39,-1,-1,41,43,-1,-1,45,47,-1,-1,-1,49,51,-1,-1,53,-1,-1,-1,-1,-1,-1,-1,-1,-1,-1,-1,-1,-1,-1],"loss_changes":[2.8322296E0,4.2075477E0,2.6962888E0,3.7721233E0,2.431199E0,1.5335736E0,1.9349899E0,6.803854E0,3.1004145E0,2.004952E0,0E0,0E0,0E0,2.5034552E0,3.2197208E0,2.8144932E-1,5.1629744E0,2.1139696E0,2.7325716E0,0E0,8.884249E-1,2.388875E0,0E0,3.031196E0,2.7658057E-1,0E0,0E0,2.0590057E0,2.896494E0,0E0,0E0,5.076432E-1,1.4901013E0,0E0,0E0,0E0,2.104329E0,2.5339482E0,0E0,0E0,4.509666E-1,0E0,0E0,0E0,0E0,0E0,0E0,0E0,0E0,0E0,0E0,0E0,0E0,0E0,0E0],"parents":[2147483647,0,0,1,1,2,2,3,3,4,4,5,5,6,6,7,7,8,8,9,9,13,13,14,14,15,15,16,16,17,17,18,18,20,20,21,21,23,23,24,24,27,27,28,28,31,31,32,32,36,36,37,37,40,40],"right_children":[2,4,6,8,10,12,14,16,18,20,-1,-1,-1,22,24,26,28,30,32,-1,34,36,-1,38,40,-1,-1,42,44,-1,-1,46,48,-1,-1,-1,50,52,-1,-1,54,-1,-1,-1,-1,-1,-1,-1,-1,-1,-1,-1,-1,-1,-1],"split_conditions":[1E1,3E0,3.9818617E4,7.3011125E4,3.2581987E0,6.9053856E1,4.7683777E1,8.590805E1,1.3264387E1,2.504434E1,-1.265383E-2,1.0335358E-1,-2.0784752E-2,4.8351765E0,8.5125786E1,1.4287916E0,9.505766E1,1E0,8.8171265E1,-1.182315E-2,7.940606E1,1.3062014E-1,6.237926E-2,8.266418E1,5.4892477E4,-1.2616061E-2,-8.638801E-2,6.6418946E-1,6.849578E4,1.1385268E-1,-2.772368E-2,6.6418946E-1,9.355455E1,1.5043318E-1,2.4702674E-2,4.9930118E-2,9.0880305E-1,5.520324E1,1.13666885E-1,-9.163864E-3,1.0014101E0,1.6926199E-1,1.2086785E-2,-2.1478929E-2,9.745624E-2,-8.858455E-2,-2.285888E-2,8.682451E-2,-3.0265287E-2,-6.876463E-2,2.1501634E-2,5.6796398E-2,-1.9712446E-2,-7.096801E-3,-8.869334E-2],"split_indices":[1,0,2,2,4,9,3,6,3,3,0,0,0,4,3,4,6,0,3,0,3,10,0,3,2,0,0,8,2,0,0,8,3,0,0,0,8,3,0,0,4,0,0,0,0,0,0,0,0,0,0,0,0,0,0],"split_type":[0,0,0,0,0,0,0,0,0,0,0,0,0,0,0,0,0,0,0,0,0,0,0,0,0,0,0,0,0,0,0,0,0,0,0,0,0,0,0,0,0,0,0,0,0,0,0,0,0,0,0,0,0,0,0],"sum_hessian":[9.884198E1,4.038742E1,5.8454563E1,3.260666E1,7.7807603E0,2.8626342E0,5.559193E1,1.6953423E1,1.5653236E1,5.696064E0,2.0846965E0,1.7502806E0,1.1123537E0,2.6616035E1,2.8975893E1,3.927321E0,1.3026102E1,2.623638E0,1.3029599E1,1.0359457E0,4.660118E0,2.5351402E1,1.2646325E0,2.3159294E1,5.816599E0,1.0425992E0,2.8847218E0,4.6961846E0,8.329917E0,1.1853303E0,1.4383075E0,1.044876E1,2.5808384E0,3.5037916E0,1.1563268E0,1.4436256E0,2.3907778E1,2.1593267E1,1.5660279E0,1.0368541E0,4.7797446E0,3.4718723E0,1.2243122E0,6.4939003E0,1.8360168E0,8.111296E0,2.337465E0,1.0438409E0,1.5369977E0,2.1453829E1,2.4539495E0,4.712027E0,1.688124E1,1.0045002E0,3.7752445E0],"tree_param":{"num_deleted":"0","num_feature":"12","num_nodes":"55","size_leaf_vector":"1"}},{"base_weights":[-4.616255E-2,4.9432844E-2,-4.2340592E-1,1.0497319E-1,-7.323409E-1,2.98361E-1,-5.823458E-1,-3.0773668E-2,7.597076E-1,-8.534846E-2,-1.2696824E-2,-6.3647784E-2,9.407512E-2,-6.741048E-1,4.0758643E-2,-9.020269E-2,8.1687427E-1,-9.67398E-2,1.4658811E0,-7.6738036E-1,1.9917214E-2,2.165955E-2,-5.774478E-1,1.1756078E-2,1.0382547E0,4.0665835E-1,-5.726986E-1,2.0097675E0,4.2442462E-1,-8.6804444E-1,7.922433E-3,1.2208956E-2,-5.7962995E-2,-9.8022036E-2,3.592027E-2,1.2343895E-1,3.2681115E-2,-3.5997476E-2,1.1741594E-1,-7.298666E-2,-7.070813E-3,2.2811405E-1,6.628414E-2,-2.46947E-2,9.131684E-2,-7.1908454E-3,-9.33237E-2],"categories":[],"categories_nodes":[],"categories_segments":[],"categories_sizes":[],"default_left":[0,0,0,0,0,0,0,0,0,0,0,0,0,0,0,0,0,0,0,0,0,0,0,0,0,0,0,0,0,0,0,0,0,0,0,0,0,0,0,0,0,0,0,0,0,0,0],"id":19,"left_children":[1,3,5,7,9,11,13,15,17,-1,-1,-1,-1,19,-1,21,23,25,27,29,-1,31,33,-1,35,37,39,41,43,45,-1,-1,-1,-1,-1,-1,-1,-1,-1,-1,-1,-1,-1,-1,-1,-1,-1],"loss_changes":[3.49121E0,3.449285E0,2.4175646E0,6.546342E0,2.7865696E-1,3.1156518E0,1.7615814E0,3.1843266E0,7.787902E0,0E0,0E0,0E0,0E0,1.4037247E0,0E0,3.2067194E0,5.1966476E-1,1.8265389E0,3.1069307E0,1.2687712E0,0E0,3.0071833E0,4.4938264E0,0E0,1.809764E-2,2.6687217E0,2.5089025E-1,6.87809E-2,1.4284644E0,5.9039307E-1,0E0,0E0,0E0,0E0,0E0,0E0,0E0,0E0,0E0,0E0,0E0,0E0,0E0,0E0,0E0,0E0,0E0],"parents":[2147483647,0,0,1,1,2,2,3,3,4,4,5,5,6,6,7,7,8,8,13,13,15,15,16,16,17,17,18,18,19,19,21,21,22,22,24,24,25,25,26,26,27,27,28,28,29,29],"right_children":[2,4,6,8,10,12,14,16,18,-1,-1,-1,-1,20,-1,22,24,26,28,30,-1,32,34,-1,36,38,40,42,44,46,-1,-1,-1,-1,-1,-1,-1,-1,-1,-1,-1,-1,-1,-1,-1,-1,-1],"split_conditions":[1.1064029E2,9.39335E1,5.9110805E4,7.774456E1,2.1E1,1.13480034E2,9.3210236E1,9.3911374E-1,2E0,-8.534846E-2,-1.2696824E-2,-6.3647784E-2,9.407512E-2,9.4425705E1,4.0758643E-2,4E0,7.18891E4,9.2233635E1,5.837542E1,1.9E1,1.9917214E-2,6.6418946E-1,1.0340552E2,1.1756078E-2,4.558665E1,8.444401E1,7.40773E4,7.770225E4,9.725049E1,-7.8622943E-1,7.922433E-3,1.2208956E-2,-5.7962995E-2,-9.8022036E-2,3.592027E-2,1.2343895E-1,3.2681115E-2,-3.5997476E-2,1.1741594E-1,-7.298666E-2,-7.070813E-3,2.2811405E-1,6.628414E-2,-2.46947E-2,9.131684E-2,-7.1908454E-3,-9.33237E-2],"split_indices":[6,3,2,3,7,6,3,8,0,0,0,0,0,9,0,0,2,6,9,1,0,8,6,0,3,6,2,2,6,8,0,0,0,0,0,0,0,0,0,0,0,0,0,0,0,0,0],"split_type":[0,0,0,0,0,0,0,0,0,0,0,0,0,0,0,0,0,0,0,0,0,0,0,0,0,0,0,0,0,0,0,0,0,0,0,0,0,0,0,0,0,0,0,0,0,0,0],"sum_hessian":[9.522899E1,7.666951E1,1.855948E1,7.23922E1,4.2773085E0,3.1910968E0,1.5368384E1,6.074986E1,1.1642341E1,3.2225752E0,1.0547335E0,1.3034515E0,1.8876451E0,1.4356672E1,1.0117123E0,5.7604744E1,3.1451132E0,5.651368E0,5.990973E0,1.3080767E1,1.2759057E0,4.7626217E1,9.97853E0,1.124378E0,2.0207353E0,2.817276E0,2.8340921E0,3.3248494E0,2.6661236E0,1.1668071E1,1.4126958E0,4.149285E1,6.133364E0,6.945397E0,3.0331326E0,1.0078394E0,1.0128958E0,1.6750743E0,1.1422018E0,1.8126309E0,1.0214611E0,2.1900227E0,1.1348267E0,1.3316331E0,1.3344904E0,1.0423123E0,1.0625758E1],"tree_param":{"num_deleted":"0","num_feature":"12","num_nodes":"47","size_leaf_vector":"1"}},{"base_weights":[-4.4309948E-2,-4.095553E-1,4.5850176E-2,-6.627808E-1,1.3552529E-1,4.8136765E-1,-4.3995302E-2,1.2825646E-1,-8.364863E-1,-5.774514E-1,7.5249887E-1,1.0484756E0,1.387963E-1,-1.176966E-1,7.5181943E-1,4.3047983E-2,-1.9226907E-2,-9.019721E-1,-1.0889537E-2,-7.292319E-2,-9.0894485E-3,1.4591527E-1,-5.4222853E-3,1.5205953E0,4.325909E-3,3.5176107E-1,-6.480112E-2,-5.6224298E-2,-7.457526E-1,1.1392841E0,-2.5950814E-2,-9.809484E-2,-2.2448776E-2,2.2140777E-1,2.0455746E-2,1.06981136E-1,6.803793E-2,-2.2451459E-1,2.2364299E-1,-8.859121E-2,-7.530808E-3,5.238921E-1,1.5210158E-1,-3.6965057E-2,4.9189363E-2,-2.7807105E-2,7.64011E-2,5.9972282E-2,-2.2180265E-2,1.0558502E-1,-2.393794E-2],"categories":[],"categories_nodes":[],"categories_segments":[],"categories_sizes":[],"default_left":[0,0,0,0,0,0,0,0,0,0,0,0,0,0,0,0,0,0,0,0,0,0,0,0,0,0,0,0,0,0,0,0,0,0,0,0,0,0,0,0,0,0,0,0,0,0,0,0,0,0,0],"id":20,"left_children":[1,3,5,7,9,11,13,15,17,19,21,23,25,27,29,-1,-1,31,-1,-1,-1,-1,-1,33,-1,35,-1,37,39,41,-1,-1,-1,-1,-1,-1,43,45,47,-1,-1,49,-1,-1,-1,-1,-1,-1,-1,-1,-1],"loss_changes":[3.2402132E0,2.7769396E0,3.126368E0,1.9571128E0,3.5161693E0,2.507319E0,4.000737E0,4.0156835E-1,4.3405962E-1,2.1550703E-1,2.4676073E0,2.3022556E0,1.8474967E0,2.3484106E0,2.56414E0,0E0,0E0,3.2081318E-1,0E0,0E0,0E0,0E0,0E0,2.6189342E0,0E0,1.6089174E0,0E0,2.757219E0,4.4429564E-1,2.2997761E-1,0E0,0E0,0E0,0E0,0E0,0E0,1.4776075E0,2.1390698E0,3.8325534E0,0E0,0E0,1.5515473E0,0E0,0E0,0E0,0E0,0E0,0E0,0E0,0E0,0E0],"parents":[2147483647,0,0,1,1,2,2,3,3,4,4,5,5,6,6,7,7,8,8,9,9,10,10,11,11,12,12,13,13,14,14,17,17,23,23,25,25,27,27,28,28,29,29,36,36,37,37,38,38,41,41],"right_children":[2,4,6,8,10,12,14,16,18,20,22,24,26,28,30,-1,-1,32,-1,-1,-1,-1,-1,34,-1,36,-1,38,40,42,-1,-1,-1,-1,-1,-1,44,46,48,-1,-1,50,-1,-1,-1,-1,-1,-1,-1,-1,-1],"split_conditions":[-5.2637416E-1,2E1,2E0,1.6034464E1,1.0050854E2,-1.515086E-1,9.1462725E-1,4.6183445E1,1.4112197E5,-7.0489633E-1,5.9110805E4,7.770225E4,4E0,8.0424446E-1,5.1203163E1,4.3047983E-2,-1.9226907E-2,8.633035E1,-1.0889537E-2,-7.292319E-2,-9.0894485E-3,1.4591527E-1,-5.4222853E-3,3.1248833E1,4.325909E-3,8.550765E1,-6.480112E-2,6.2459724E1,1.11334984E2,4.3480152E1,-2.5950814E-2,-9.809484E-2,-2.2448776E-2,2.2140777E-1,2.0455746E-2,1.06981136E-1,1E0,1.56E5,1E0,-8.859121E-2,-7.530808E-3,9E0,1.5210158E-1,-3.6965057E-2,4.9189363E-2,-2.7807105E-2,7.64011E-2,5.9972282E-2,-2.2180265E-2,1.0558502E-1,-2.393794E-2],"split_indices":[8,7,7,9,6,8,8,3,2,8,2,2,0,8,3,0,0,9,0,0,0,0,0,3,0,6,0,3,6,3,0,0,0,0,0,0,0,2,11,0,0,1,0,0,0,0,0,0,0,0,0],"split_type":[0,0,0,0,0,0,0,0,0,0,0,0,0,0,0,0,0,0,0,0,0,0,0,0,0,0,0,0,0,0,0,0,0,0,0,0,0,0,0,0,0,0,0,0,0,0,0,0,0,0,0],"sum_hessian":[9.682507E1,1.8467863E1,7.835721E1,1.2462354E1,6.005509E0,1.2655096E1,6.570211E1,2.2910023E0,1.0171351E1,2.8157165E0,3.1897926E0,3.9897237E0,8.665373E0,6.0913E1,4.789116E0,1.0026039E0,1.2883985E0,9.111604E0,1.0597475E0,1.766043E0,1.0496734E0,1.2692449E0,1.9205477E0,2.3658512E0,1.6238725E0,7.2546782E0,1.4106941E0,5.647492E1,4.438081E0,3.3710568E0,1.4180592E0,7.759167E0,1.3524365E0,1.1025068E0,1.2633443E0,1.2699798E0,5.984699E0,3.53912E1,2.1083717E1,3.4048917E0,1.0331888E0,2.198787E0,1.1722698E0,3.0072207E0,2.9774778E0,3.4254078E1,1.1371204E0,1.1244171E1,9.839546E0,1.0698434E0,1.1289437E0],"tree_param":{"num_deleted":"0","num_feature":"12","num_nodes":"51","size_leaf_vector":"1"}},{"base_weights":[-2.4172284E-2,-7.577679E-2,5.570654E-1,-1.8429415E-1,1.7678602E-1,8.7189066E-1,-6.288838E-2,1.163393E-1,-2.3590846E-1,6.8212587E-1,-3.41481E-2,1.1669337E0,-2.556907E-2,4.8488128E-1,-3.159346E-1,1.6150102E-1,1.5652674E-1,8.501314E-1,-2.342792E-1,2.429787E-2,1.574058E-1,1.2414447E0,-5.6479275E-1,-7.9753834E-1,-2.43381E-1,5.3025126E-1,-6.494128E-2,-2.3558227E-2,1.5199612E-1,2.1081719E-1,-6.099976E-1,1.1857795E-2,1.7946307E-1,-1.6533172E-2,-6.73374E-2,-8.320198E-3,-9.0898626E-2,-1.077104E-2,-4.7784984E-2,-3.5837095E-2,1.16304055E-1,-5.215332E-2,1.0013592E-1,1.7797869E-2,-8.47693E-2],"categories":[],"categories_nodes":[],"categories_segments":[],"categories_sizes":[],"default_left":[0,0,0,0,0,0,0,0,0,0,0,0,0,0,0,0,0,0,0,0,0,0,0,0,0,0,0,0,0,0,0,0,0,0,0,0,0,0,0,0,0,0,0,0,0],"id":21,"left_children":[1,3,5,7,9,11,-1,-1,13,15,17,19,-1,21,23,25,-1,27,29,-1,-1,31,33,35,37,39,-1,-1,-1,41,43,-1,-1,-1,-1,-1,-1,-1,-1,-1,-1,-1,-1,-1,-1],"loss_changes":[2.9348783E0,2.4843435E0,3.5292175E0,4.6609707E0,2.9434316E0,2.5367012E0,0E0,0E0,3.704461E0,3.4784622E0,3.7881396E0,1.6911225E0,0E0,5.9003363E0,1.7633305E0,2.204438E0,0E0,3.237055E0,3.0252287E0,0E0,0E0,2.344698E0,3.7423134E-2,4.7330713E-1,1.5430083E0,3.1308222E0,0E0,0E0,0E0,5.5427637E0,1.958194E0,0E0,0E0,0E0,0E0,0E0,0E0,0E0,0E0,0E0,0E0,0E0,0E0,0E0,0E0],"parents":[2147483647,0,0,1,1,2,2,3,3,4,4,5,5,8,8,9,9,10,10,11,11,13,13,14,14,15,15,17,17,18,18,21,21,22,22,23,23,24,24,25,25,29,29,30,30],"right_children":[2,4,6,8,10,12,-1,-1,14,16,18,20,-1,22,24,26,-1,28,30,-1,-1,32,34,36,38,40,-1,-1,-1,42,44,-1,-1,-1,-1,-1,-1,-1,-1,-1,-1,-1,-1,-1,-1],"split_conditions":[9.03531E-1,9.700476E4,6.5886665E1,-9.793088E-1,1.09230695E5,2.5E1,-6.288838E-2,1.163393E-1,7.5519775E1,8.47574E1,5.0946194E-1,5E0,-2.556907E-2,5.615246E1,-7.026549E-1,5.735846E1,1.5652674E-1,-2.1039847E-1,-9.347663E-2,2.429787E-2,1.574058E-1,1.21624686E-1,7.2291504E1,-9.327006E-1,7.117432E4,3.330733E1,-6.494128E-2,-2.3558227E-2,1.5199612E-1,-4.352058E-1,9.283884E1,1.1857795E-2,1.7946307E-1,-1.6533172E-2,-6.73374E-2,-8.320198E-3,-9.0898626E-2,-1.077104E-2,-4.7784984E-2,-3.5837095E-2,1.16304055E-1,-5.215332E-2,1.0013592E-1,1.7797869E-2,-8.47693E-2],"split_indices":[8,2,3,8,2,7,0,0,6,9,4,7,0,9,8,9,0,8,8,0,0,8,9,8,2,9,0,0,0,8,6,0,0,0,0,0,0,0,0,0,0,0,0,0,0],"split_type":[0,0,0,0,0,0,0,0,0,0,0,0,0,0,0,0,0,0,0,0,0,0,0,0,0,0,0,0,0,0,0,0,0,0,0,0,0,0,0,0,0,0,0,0,0],"sum_hessian":[9.543991E1,8.845607E1,6.9838395E0,6.2060963E1,2.639511E1,5.7280674E0,1.2557719E0,1.4946423E0,6.0566322E1,7.1152067E0,1.9279903E1,4.512442E0,1.2156255E0,5.546886E0,5.5019436E1,5.2205105E0,1.8946962E0,2.9587574E0,1.6321146E1,1.8685797E0,2.6438622E0,3.1173375E0,2.4295487E0,5.8952107E0,4.9124226E1,3.8265526E0,1.3939579E0,1.3762752E0,1.5824821E0,7.671714E0,8.649432E0,1.429687E0,1.6876503E0,1.0584087E0,1.37114E0,1.0313332E0,4.863878E0,3.2042732E1,1.7081491E1,1.7719202E0,2.0546324E0,4.159073E0,3.5126405E0,2.0626943E0,6.5867376E0],"tree_param":{"num_deleted":"0","num_feature":"12","num_nodes":"45","size_leaf_vector":"1"}},{"base_weights":[-1.6138209E-2,2.6956279E-2,-8.443556E-2,2.3454936E-1,-1.1342266E-1,1.11893E0,1.4475197E-1,-3.822938E-1,9.172686E-2,1.5153614E-1,1.614961E-2,-2.8184643E-1,3.493044E-1,-4.6922308E-1,6.846124E-2,-3.2417065E-1,3.9171752E-1,3.0739155E-1,-6.9069797E-1,5.274958E-1,-4.8901764E-1,-2.9717147E-2,-6.355007E-1,-5.5928314E-1,6.9699526E-2,9.8472124E-1,8.534045E-2,-6.70168E-2,8.353429E-2,3.2692935E-2,-9.336082E-2,3.3293955E-2,1.8594527E-1,-8.280695E-2,3.576633E-2,4.0884923E-2,-7.675513E-2,-9.56917E-2,-3.452395E-2,3.6673494E-2,-7.444789E-2,-1.9464027E-2,1.2647744E-1,-1.8912118E-2,1.0797963E-1],"categories":[],"categories_nodes":[],"categories_segments":[],"categories_sizes":[],"default_left":[0,0,0,0,0,0,0,0,0,0,0,0,0,0,0,0,0,0,0,0,0,0,0,0,0,0,0,0,0,0,0,0,0,0,0,0,0,0,0,0,0,0,0,0,0],"id":22,"left_children":[1,3,-1,5,7,9,11,13,15,-1,-1,17,19,21,-1,23,25,27,29,31,33,35,37,39,-1,41,43,-1,-1,-1,-1,-1,-1,-1,-1,-1,-1,-1,-1,-1,-1,-1,-1,-1,-1],"loss_changes":[3.3554459E0,2.641351E0,0E0,2.7385068E0,3.024803E0,9.766922E-1,3.0919597E0,2.5148065E0,4.0634336E0,0E0,0E0,3.0241017E0,3.7883625E0,1.6227098E0,0E0,3.69547E0,3.3283975E0,3.3844862E0,2.0846164E0,4.5563855E0,1.6344252E0,2.6484354E0,1.1855049E0,2.2874873E0,0E0,2.3280835E0,3.8831654E0,0E0,0E0,0E0,0E0,0E0,0E0,0E0,0E0,0E0,0E0,0E0,0E0,0E0,0E0,0E0,0E0,0E0,0E0],"parents":[2147483647,0,0,1,1,3,3,4,4,5,5,6,6,7,7,8,8,11,11,12,12,13,13,15,15,16,16,17,17,18,18,19,19,20,20,21,21,22,22,23,23,25,25,26,26],"right_children":[2,4,-1,6,8,10,12,14,16,-1,-1,18,20,22,-1,24,26,28,30,32,34,36,38,40,-1,42,44,-1,-1,-1,-1,-1,-1,-1,-1,-1,-1,-1,-1,-1,-1,-1,-1,-1,-1],"split_conditions":[1.2067705E2,1E1,-8.443556E-2,3.6777792E0,1.7660748E0,6E0,4.320837E1,9.4893585E1,2.1617312E0,1.5153614E-1,1.614961E-2,1.9835648E1,3.9186912E0,4E0,6.846124E-2,1.9E1,2.918864E0,9.657658E0,1.0014101E0,3.786551E0,2E0,6.742314E1,1.5E1,4.59607E4,6.9699526E-2,9.031642E1,3.9E1,-6.70168E-2,8.353429E-2,3.2692935E-2,-9.336082E-2,3.3293955E-2,1.8594527E-1,-8.280695E-2,3.576633E-2,4.0884923E-2,-7.675513E-2,-9.56917E-2,-3.452395E-2,3.6673494E-2,-7.444789E-2,-1.9464027E-2,1.2647744E-1,-1.8912118E-2,1.0797963E-1],"split_indices":[6,1,0,9,10,1,9,9,4,0,0,9,4,7,0,1,4,9,4,4,11,9,7,2,0,6,7,0,0,0,0,0,0,0,0,0,0,0,0,0,0,0,0,0,0],"split_type":[0,0,0,0,0,0,0,0,0,0,0,0,0,0,0,0,0,0,0,0,0,0,0,0,0,0,0,0,0,0,0,0,0,0,0,0,0,0,0,0,0,0,0,0,0],"sum_hessian":[9.237449E1,8.872531E1,3.649176E0,3.5522957E1,5.320236E1,2.2180102E0,3.3304947E1,2.2651531E1,3.0550825E1,1.156445E0,1.0615653E0,1.0671481E1,2.2633465E1,2.1462976E1,1.1885564E0,1.2768451E1,1.7782375E1,4.4730573E0,6.198424E0,1.8971672E1,3.661793E0,6.2147737E0,1.5248201E1,1.0746494E1,2.0219562E0,5.303391E0,1.2478984E1,1.474144E0,2.9989133E0,1.1278056E0,5.0706186E0,1.764436E1,1.3273128E0,2.6304255E0,1.0313677E0,4.1775374E0,2.0372365E0,6.145896E0,9.102306E0,1.6276492E0,9.118845E0,1.0762149E0,4.227176E0,1.04144945E1,2.06449E0],"tree_param":{"num_deleted":"0","num_feature":"12","num_nodes":"45","size_leaf_vector":"1"}},{"base_weights":[1.8678743E-2,6.8778016E-2,-5.8026403E-1,1.16481036E-1,-8.350704E-2,-7.9680383E-1,4.095017E-2,6.308967E-2,6.820501E-1,-1.0769881E-2,-9.069998E-2,-7.782181E-3,3.7116173E-1,1.0572172E0,-3.5357773E-2,-1.0881865E-1,2.8597328E-1,7.1182385E-2,9.432429E-1,3.695665E-2,1.1808794E-1,1.0210627E-1,-1.579463E-2,4.876514E-2,-5.5901855E-2,6.6450566E-2,-7.237974E-2,1.3108365E-1,4.814844E-3],"categories":[],"categories_nodes":[],"categories_segments":[],"categories_sizes":[],"default_left":[0,0,0,0,0,0,0,0,0,0,0,0,0,0,0,0,0,0,0,0,0,0,0,0,0,0,0,0,0],"id":23,"left_children":[1,3,5,7,-1,9,-1,11,13,-1,-1,15,17,19,-1,21,23,25,27,-1,-1,-1,-1,-1,-1,-1,-1,-1,-1],"loss_changes":[2.9068136E0,3.9372764E0,1.929615E0,2.537997E0,0E0,3.941927E-1,0E0,1.7321844E0,3.1988616E0,0E0,0E0,1.9712957E0,2.4784737E0,3.8780212E-2,0E0,2.9014182E0,3.1705866E0,5.5810385E0,1.5889297E0,0E0,0E0,0E0,0E0,0E0,0E0,0E0,0E0,0E0,0E0],"parents":[2147483647,0,0,1,1,2,2,3,3,5,5,7,7,8,8,11,11,12,12,13,13,15,15,16,16,17,17,18,18],"right_children":[2,4,6,8,-1,10,-1,12,14,-1,-1,16,18,20,-1,22,24,26,28,-1,-1,-1,-1,-1,-1,-1,-1,-1,-1],"split_conditions":[9.294257E1,1.2067705E2,1.178967E2,9.03531E-1,-8.350704E-2,5.08213E-1,4.095017E-2,7.774456E1,4.80254E1,-1.0769881E-2,-9.069998E-2,1.02042914E5,4.5018625E-1,5.2633742E4,-3.5357773E-2,-9.793088E-1,4.8366544E-1,1E0,3.331927E0,3.695665E-2,1.1808794E-1,1.0210627E-1,-1.579463E-2,4.876514E-2,-5.5901855E-2,6.6450566E-2,-7.237974E-2,1.3108365E-1,4.814844E-3],"split_indices":[3,6,6,8,0,10,0,3,3,0,0,2,8,2,0,8,8,11,4,0,0,0,0,0,0,0,0,0,0],"split_type":[0,0,0,0,0,0,0,0,0,0,0,0,0,0,0,0,0,0,0,0,0,0,0,0,0,0,0,0,0],"sum_hessian":[9.454245E1,8.806161E1,6.4808483E0,8.447437E1,3.5872335E0,5.4774547E0,1.003394E0,7.82033E1,6.2710686E0,1.0277581E0,4.4496965E0,6.43698E1,1.3833507E1,4.588125E0,1.6829433E0,4.8364506E1,1.6005291E1,9.812567E0,4.0209394E0,1.307271E0,3.2808542E0,1.1909145E0,4.717359E1,1.3262711E1,2.7425807E0,5.7129216E0,4.099645E0,2.5211127E0,1.4998269E0],"tree_param":{"num_deleted":"0","num_feature":"12","num_nodes":"29","size_leaf_vector":"1"}},{"base_weights":[-5.547022E-2,3.335563E-1,-1.3110709E-1,4.8129556E-1,-6.6147946E-2,3.6846074E-1,-1.8911925E-1,-4.3204155E-2,6.599113E-1,-6.3379824E-2,6.4186263E-1,2.8710154E-1,-2.683421E-1,9.016394E-1,-6.5350555E-2,1.061909E0,-2.0672809E-1,-3.5033306E-1,5.380662E-1,-3.2537207E-1,3.042683E-1,2.6028123E-2,1.3823667E0,7.791461E-3,1.4749933E0,-6.1888624E-2,3.353311E-2,-7.1777135E-2,2.751658E-2,8.5960454E-1,-1.9400233E-1,-1.8356778E-1,-7.6202226E-1,-4.995392E-1,8.520486E-1,9.214376E-2,-5.716122E-2,1.6674702E-1,4.839481E-2,3.6560554E-2,1.8049227E-1,1.5452321E-1,3.4721658E-2,3.896063E-2,-6.285899E-2,-4.3958884E-2,4.2999038E-3,-8.509401E-2,-2.0124014E-2,-1.0575726E-2,-6.377538E-2,1.351783E-2,1.199454E-1],"categories":[],"categories_nodes":[],"categories_segments":[],"categories_sizes":[],"default_left":[0,0,0,0,0,0,0,0,0,0,0,0,0,0,0,0,0,0,0,0,0,0,0,0,0,0,0,0,0,0,0,0,0,0,0,0,0,0,0,0,0,0,0,0,0,0,0,0,0,0,0,0,0],"id":24,"left_children":[1,3,5,7,-1,9,11,-1,13,-1,15,17,19,21,-1,23,25,27,29,31,33,35,37,-1,39,-1,-1,-1,-1,41,43,45,47,49,51,-1,-1,-1,-1,-1,-1,-1,-1,-1,-1,-1,-1,-1,-1,-1,-1,-1,-1],"loss_changes":[2.7805557E0,2.5855308E0,2.347262E0,2.5702083E0,0E0,2.740296E0,2.7584505E0,0E0,4.434574E0,0E0,2.781487E0,1.8874595E0,2.1057959E0,4.446642E0,0E0,1.9055138E0,9.262164E-1,1.0262301E0,2.0532734E0,3.3504734E0,3.1039762E0,3.0919344E0,9.490633E-1,0E0,6.0111284E-1,0E0,0E0,0E0,0E0,1.4844527E0,1.072167E0,2.5635312E0,5.019808E-1,1.0104126E-1,8.3083916E-1,0E0,0E0,0E0,0E0,0E0,0E0,0E0,0E0,0E0,0E0,0E0,0E0,0E0,0E0,0E0,0E0,0E0,0E0],"parents":[2147483647,0,0,1,1,2,2,3,3,5,5,6,6,8,8,10,10,11,11,12,12,13,13,15,15,16,16,17,17,18,18,19,19,20,20,21,21,22,22,24,24,29,29,30,30,31,31,32,32,33,33,34,34],"right_children":[2,4,6,8,-1,10,12,-1,14,-1,16,18,20,22,-1,24,26,28,30,32,34,36,38,-1,40,-1,-1,-1,-1,42,44,46,48,50,52,-1,-1,-1,-1,-1,-1,-1,-1,-1,-1,-1,-1,-1,-1,-1,-1,-1,-1],"split_conditions":[2E0,3.1E1,3.7396944E-1,6.780806E-1,-6.6147946E-2,2.1676386E1,4.7160652E4,-4.3204155E-2,2E0,-6.3379824E-2,6.7787315E1,9E0,3.9E1,1.5813508E0,-6.5350555E-2,1.5972875E-1,1.5E1,4.3708305E4,1E0,3.4386103E0,1.9331579E-1,1.7308197E0,1.5E1,7.791461E-3,5.7720805E4,-6.1888624E-2,3.353311E-2,-7.1777135E-2,2.751658E-2,3.9818617E4,5E0,7E0,3.594772E0,4.5440975E1,1.4849106E0,9.214376E-2,-5.716122E-2,1.6674702E-1,4.839481E-2,3.6560554E-2,1.8049227E-1,1.5452321E-1,3.4721658E-2,3.896063E-2,-6.285899E-2,-4.3958884E-2,4.2999038E-3,-8.509401E-2,-2.0124014E-2,-1.0575726E-2,-6.377538E-2,1.351783E-2,1.199454E-1],"split_indices":[1,7,10,10,0,9,2,0,11,0,9,1,7,4,0,10,1,2,11,4,8,10,7,0,2,0,0,0,0,2,7,7,10,9,10,0,0,0,0,0,0,0,0,0,0,0,0,0,0,0,0,0,0],"split_type":[0,0,0,0,0,0,0,0,0,0,0,0,0,0,0,0,0,0,0,0,0,0,0,0,0,0,0,0,0,0,0,0,0,0,0,0,0,0,0,0,0,0,0,0,0,0,0,0,0,0,0,0,0],"sum_hessian":[9.201095E1,1.4422271E1,7.7588684E1,1.30072975E1,1.4149727E0,7.5157604E0,7.007292E1,1.8955781E0,1.111172E1,1.3282738E0,6.1874866E0,9.620236E0,6.0452682E1,9.649323E0,1.4623961E0,3.9706595E0,2.2168272E0,2.6057777E0,7.014458E0,5.536982E1,5.082863E0,3.7936316E0,5.8556924E0,1.5254806E0,2.445179E0,1.1787927E0,1.0380344E0,1.5485759E0,1.057202E0,4.752748E0,2.26171E0,4.2868473E1,1.2501347E1,2.095708E0,2.987155E0,1.301651E0,2.4919806E0,3.795292E0,2.0604002E0,1.0437388E0,1.40144E0,1.1706082E0,3.58214E0,1.0095229E0,1.252187E0,1.9684605E1,2.3183868E1,1.0343812E1,2.1575353E0,1.0030693E0,1.0926385E0,1.4285184E0,1.5586365E0],"tree_param":{"num_deleted":"0","num_feature":"12","num_nodes":"53","size_leaf_vector":"1"}},{"base_weights":[-7.948994E-2,-4.1039774E-1,2.1198038E-2,-6.8295765E-1,7.165809E-2,3.910804E-1,-7.983756E-2,4.897173E-4,-7.7614194E-1,-5.2756554E-1,6.57016E-1,-4.082687E-2,5.2602255E-1,1.0739898E-1,-1.24867365E-1,-1.07507035E-2,-8.2809955E-1,1.877699E-3,-7.856168E-2,-1.3649349E-2,1.2716137E-1,6.9202805E-1,-3.793362E-2,2.3987097E-1,-2.7608898E-1,-1.2395819E-2,-8.9006174E-1,3.590551E-1,1.4405075E-1,6.015396E-1,-2.7440205E-1,3.538014E-1,-3.6167285E-1,-2.1999998E-2,-9.634372E-2,-1.3750593E-2,8.2711995E-2,-2.8334802E-2,1.1125814E-1,-6.0922395E-2,3.3564504E-2,1.3407178E-1,-1.9658579E-2,-7.454926E-2,-1.45870615E-2],"categories":[],"categories_nodes":[],"categories_segments":[],"categories_sizes":[],"default_left":[0,0,0,0,0,0,0,0,0,0,0,0,0,0,0,0,0,0,0,0,0,0,0,0,0,0,0,0,0,0,0,0,0,0,0,0,0,0,0,0,0,0,0,0,0],"id":25,"left_children":[1,3,5,7,9,11,13,-1,15,17,19,-1,21,-1,23,-1,25,-1,-1,-1,-1,27,-1,29,31,-1,33,35,-1,37,39,41,43,-1,-1,-1,-1,-1,-1,-1,-1,-1,-1,-1,-1],"loss_changes":[3.121003E0,2.9186282E0,2.743246E0,9.0419483E-1,3.431153E0,1.9125018E0,3.138774E0,0E0,3.4098005E-1,7.055887E-1,2.560196E0,0E0,2.3520696E0,0E0,3.185537E0,0E0,3.8425732E-1,0E0,0E0,0E0,0E0,2.4991055E0,0E0,3.347536E0,2.3082135E0,0E0,2.9235458E-1,2.3702106E0,0E0,4.9997063E0,1.7877755E0,3.1659727E0,2.8814135E0,0E0,0E0,0E0,0E0,0E0,0E0,0E0,0E0,0E0,0E0,0E0,0E0],"parents":[2147483647,0,0,1,1,2,2,3,3,4,4,5,5,6,6,8,8,9,9,10,10,12,12,14,14,16,16,21,21,23,23,24,24,26,26,27,27,29,29,30,30,31,31,32,32],"right_children":[2,4,6,8,10,12,14,-1,16,18,20,-1,22,-1,24,-1,26,-1,-1,-1,-1,28,-1,30,32,-1,34,36,-1,38,40,42,44,-1,-1,-1,-1,-1,-1,-1,-1,-1,-1,-1,-1],"split_conditions":[-4.352058E-1,7.15002E1,3E0,7.973856E0,1.3E1,6.780806E-1,-4.145169E-1,4.897173E-4,2.808804E-1,6E0,2.6299763E0,-4.082687E-2,2E0,1.0739898E-1,2.6951061E1,-1.07507035E-2,5.992665E0,1.877699E-3,-7.856168E-2,-1.3649349E-2,1.2716137E-1,3.786551E0,-3.793362E-2,2.2320976E0,4.1399002E-1,-1.2395819E-2,3.7396944E-1,5.558405E1,1.4405075E-1,9.758326E-1,8.330565E4,-1.24072075E-1,1.8305066E0,-2.1999998E-2,-9.634372E-2,-1.3750593E-2,8.2711995E-2,-2.8334802E-2,1.1125814E-1,-6.0922395E-2,3.3564504E-2,1.3407178E-1,-1.9658579E-2,-7.454926E-2,-1.45870615E-2],"split_indices":[8,9,1,3,7,10,8,0,4,1,10,0,11,0,3,0,9,0,0,0,0,4,0,4,10,0,10,3,0,4,2,8,10,0,0,0,0,0,0,0,0,0,0,0,0],"split_type":[0,0,0,0,0,0,0,0,0,0,0,0,0,0,0,0,0,0,0,0,0,0,0,0,0,0,0,0,0,0,0,0,0,0,0,0,0,0,0,0,0,0,0,0,0],"sum_hessian":[9.241085E1,2.0841148E1,7.15697E1,1.3047297E1,7.793851E0,1.4739389E1,5.6830315E1,1.669687E0,1.1377609E1,3.9000983E0,3.8937526E0,1.8362993E0,1.290309E1,1.276297E0,5.5554016E1,1.0416672E0,1.0335942E1,1.5486187E0,2.3514795E0,2.039046E0,1.8547066E0,1.1102905E1,1.8001842E0,1.6110395E1,3.9443623E1,1.0786504E0,9.257292E0,8.708503E0,2.394403E0,9.358929E0,6.751467E0,4.3433003E0,3.510032E1,1.308293E0,7.948999E0,4.5683026E0,4.1402E0,3.5893629E0,5.7695656E0,4.359902E0,2.391565E0,1.0408916E0,3.302409E0,1.1749131E1,2.3351189E1],"tree_param":{"num_deleted":"0","num_feature":"12","num_nodes":"45","size_leaf_vector":"1"}},{"base_weights":[7.896672E-2,1.15786575E-1,-7.8802995E-2,1.6251385E-1,-5.923231E-1,1.1990774E-1,7.526068E-1,-8.2730144E-2,1.6240617E-3,1.5114027E-1,-7.547822E-2,1.2887158E0,-6.1934125E-2,9.904506E-2,6.475692E-1,1.7242752E-1,1.685476E-2,2.1435004E-2,-2.1372637E-2,8.866062E-2,-2.4168832E-2],"categories":[],"categories_nodes":[],"categories_segments":[],"categories_sizes":[],"default_left":[0,0,0,0,0,0,0,0,0,0,0,0,0,0,0,0,0,0,0,0,0],"id":26,"left_children":[1,3,-1,5,7,9,11,-1,-1,13,-1,15,-1,17,19,-1,-1,-1,-1,-1,-1],"loss_changes":[3.0279088E0,3.0449772E0,0E0,2.031336E0,8.331075E-1,2.2966387E0,4.838339E0,0E0,0E0,1.9523169E0,0E0,1.7947712E0,0E0,2.6332848E0,1.7499862E0,0E0,0E0,0E0,0E0,0E0,0E0],"parents":[2147483647,0,0,1,1,3,3,4,4,5,5,6,6,9,9,11,11,13,13,14,14],"right_children":[2,4,-1,6,8,10,12,-1,-1,14,-1,16,-1,18,20,-1,-1,-1,-1,-1,-1],"split_conditions":[1.2067705E2,9.294257E1,-7.8802995E-2,8.8716866E1,3E0,8.5125786E1,1.2E1,-8.2730144E-2,1.6240617E-3,9.03531E-1,-7.547822E-2,1E0,-6.1934125E-2,3.8369375E-1,4.80254E1,1.7242752E-1,1.685476E-2,2.1435004E-2,-2.1372637E-2,8.866062E-2,-2.4168832E-2],"split_indices":[6,3,0,3,5,3,1,0,0,8,0,11,0,8,3,0,0,0,0,0,0],"split_type":[0,0,0,0,0,0,0,0,0,0,0,0,0,0,0,0,0,0,0,0,0],"sum_hessian":[9.099306E1,8.811732E1,2.8757393E0,8.338532E1,4.731997E0,7.889231E1,4.49301E0,3.1545362E0,1.5774606E0,7.6971115E1,1.9211985E0,3.2742252E0,1.2187848E0,7.07465E1,6.224617E0,1.969224E0,1.3050013E0,5.1920414E1,1.8826082E1,4.908239E0,1.3163781E0],"tree_param":{"num_deleted":"0","num_feature":"12","num_nodes":"21","size_leaf_vector":"1"}},{"base_weights":[-2.6090048E-2,-9.408574E-2,2.4205953E-1,-1.6611099E-1,2.7569425E-1,-6.2639195E-1,4.4397753E-1,6.572268E-2,-2.8187338E-1,-2.8412688E-1,9.777315E-1,-1.1446788E-2,-7.714756E-2,6.0366356E-1,-6.85094E-2,-7.323076E-2,1.0619383E-1,-4.9216828E-1,-2.5851151E-2,9.65862E-2,-6.682023E-1,1.6022168E-1,1.5240158E-1,2.260676E-1,1.2603371E0,1.0800899E-1,-5.9689546E-1,-6.7073655E-1,5.279439E-1,3.1156573E-1,-6.2336916E-1,-6.111854E-3,-8.8322155E-2,-2.6437057E-2,5.350715E-2,7.9445845E-1,-1.7210686E-1,1.6209267E-1,2.9785594E-2,5.4286677E-2,-1.606997E-2,-8.324873E-2,1.0195769E-2,-1.43599585E-2,-8.303875E-2,-2.2538139E-2,9.6245036E-2,1.02360964E-1,7.810596E-3,-8.95903E-2,-1.02179255E-2,-1.2178025E-2,1.1182382E-1,-6.559549E-2,4.1411936E-2],"categories":[],"categories_nodes":[],"categories_segments":[],"categories_sizes":[],"default_left":[0,0,0,0,0,0,0,0,0,0,0,0,0,0,0,0,0,0,0,0,0,0,0,0,0,0,0,0,0,0,0,0,0,0,0,0,0,0,0,0,0,0,0,0,0,0,0,0,0,0,0,0,0,0,0],"id":27,"left_children":[1,3,5,7,9,11,13,15,17,19,21,-1,-1,23,-1,25,-1,27,29,-1,31,33,-1,35,37,39,41,43,45,47,49,-1,-1,-1,-1,51,53,-1,-1,-1,-1,-1,-1,-1,-1,-1,-1,-1,-1,-1,-1,-1,-1,-1,-1],"loss_changes":[1.7019831E0,2.021676E0,3.5939755E0,1.7017099E0,5.178872E0,2.0743465E-1,3.285238E0,3.0813859E0,2.2495985E0,4.3482223E0,2.3271446E0,0E0,0E0,3.30687E0,0E0,1.9605209E0,0E0,4.5464044E0,4.227447E0,0E0,7.933235E-1,6.863802E-1,0E0,2.49399E0,1.2767487E0,1.9203682E0,9.557985E-1,1.5661325E0,1.5222998E0,2.1562016E0,9.812951E-1,0E0,0E0,0E0,0E0,1.4618824E0,2.2420907E0,0E0,0E0,0E0,0E0,0E0,0E0,0E0,0E0,0E0,0E0,0E0,0E0,0E0,0E0,0E0,0E0,0E0,0E0],"parents":[2147483647,0,0,1,1,2,2,3,3,4,4,5,5,6,6,7,7,8,8,9,9,10,10,13,13,15,15,17,17,18,18,20,20,21,21,23,23,24,24,25,25,26,26,27,27,28,28,29,29,30,30,35,35,36,36],"right_children":[2,4,6,8,10,12,14,16,18,20,22,-1,-1,24,-1,26,-1,28,30,-1,32,34,-1,36,38,40,42,44,46,48,50,-1,-1,-1,-1,52,54,-1,-1,-1,-1,-1,-1,-1,-1,-1,-1,-1,-1,-1,-1,-1,-1,-1,-1],"split_conditions":[8.453372E1,1.8E1,1.7911928E1,2.8681263E1,2.6166732E0,5.3222344E4,1.311553E5,2.6707193E1,7.023384E1,9.153512E0,1E0,-1.1446788E-2,-7.714756E-2,9.153083E4,-6.85094E-2,1.4E1,1.0619383E-1,3.6346223E0,2.6918015E0,9.65862E-2,1.2341193E0,1E0,1.5240158E-1,9.709442E1,9.543646E1,1.3514155E0,3.1297665E0,5.2633742E4,4.3965572E1,8.5388176E1,3.2927027E0,-6.111854E-3,-8.8322155E-2,-2.6437057E-2,5.350715E-2,4.5794293E4,1.0479948E2,1.6209267E-1,2.9785594E-2,5.4286677E-2,-1.606997E-2,-8.324873E-2,1.0195769E-2,-1.43599585E-2,-8.303875E-2,-2.2538139E-2,9.6245036E-2,1.02360964E-1,7.810596E-3,-8.95903E-2,-1.02179255E-2,-1.2178025E-2,1.1182382E-1,-6.559549E-2,4.1411936E-2],"split_indices":[9,1,3,3,10,2,2,3,3,9,11,0,0,2,0,1,0,10,10,0,4,0,0,6,9,10,10,2,3,6,4,0,0,0,0,2,6,0,0,0,0,0,0,0,0,0,0,0,0,0,0,0,0,0,0],"split_type":[0,0,0,0,0,0,0,0,0,0,0,0,0,0,0,0,0,0,0,0,0,0,0,0,0,0,0,0,0,0,0,0,0,0,0,0,0,0,0,0,0,0,0,0,0,0,0,0,0,0,0,0,0,0,0],"sum_hessian":[9.1097145E1,7.3187775E1,1.7909369E1,6.171734E1,1.1470436E1,2.9819143E0,1.4927454E1,2.0698126E1,4.1019215E1,6.7127852E0,4.7576513E0,1.0535314E0,1.9283829E0,1.3485524E1,1.4419296E0,1.8977596E1,1.7205288E0,2.2014385E1,1.900483E1,1.2217569E0,5.4910283E0,2.4237792E0,2.333872E0,9.415659E0,4.0698657E0,1.4687881E1,4.289715E0,1.9026354E1,2.9880319E0,1.2451862E1,6.5529675E0,1.7720584E0,3.71897E0,1.2746795E0,1.1490997E0,3.4687681E0,5.946891E0,2.4630005E0,1.6068654E0,5.2199807E0,9.467901E0,3.065185E0,1.2245297E0,4.86442E0,1.4161934E1,1.2690722E0,1.7189597E0,2.238869E0,1.0212994E1,3.8308384E0,2.722129E0,1.0686264E0,2.4001415E0,3.192764E0,2.7541268E0],"tree_param":{"num_deleted":"0","num_feature":"12","num_nodes":"55","size_leaf_vector":"1"}},{"base_weights":[-2.5479112E-2,-3.0545712E-1,1.1097971E-1,-4.3220848E-1,3.8512576E-1,1.1147022E0,7.913733E-3,-2.1008402E-1,-7.507387E-1,9.1653097E-1,-6.4782016E-2,-1.7675312E-2,1.4949535E0,5.840322E-2,-8.047735E-2,-3.6624643E-1,6.8535924E-2,-9.882275E-2,-3.3582773E-2,1.609299E-2,1.2524043E-1,2.0106462E-1,1.997701E-2,-6.852988E-2,3.956462E-1,-6.933079E-1,2.0711628E-1,-6.129055E-2,5.359887E-2,3.119476E-1,-3.0169103E-1,3.3658653E-2,9.4210047E-1,-8.5954815E-3,-7.5640224E-2,9.557764E-2,-5.2469768E-2,6.761188E-2,-1.4355994E-2,-4.3994434E-2,6.770769E-2,7.851421E-2,-2.264551E-2,1.4590894E-1,-1.601166E-2],"categories":[],"categories_nodes":[],"categories_segments":[],"categories_sizes":[],"default_left":[0,0,0,0,0,0,0,0,0,0,0,0,0,0,0,0,0,0,0,0,0,0,0,0,0,0,0,0,0,0,0,0,0,0,0,0,0,0,0,0,0,0,0,0,0],"id":28,"left_children":[1,3,5,7,9,11,13,15,17,19,-1,-1,21,23,-1,25,-1,-1,27,-1,-1,-1,-1,29,31,33,35,-1,-1,37,39,41,43,-1,-1,-1,-1,-1,-1,-1,-1,-1,-1,-1,-1],"loss_changes":[3.4237487E0,2.7347116E0,6.2381034E0,1.6296344E0,3.3816338E0,3.0221806E0,2.335366E0,2.526356E0,1.668283E0,7.546525E-1,0E0,0E0,2.5668106E0,2.3147457E0,0E0,2.8640351E0,0E0,0E0,1.490129E0,0E0,0E0,0E0,0E0,3.6141274E0,2.8882267E0,2.9779053E-1,3.810357E0,0E0,0E0,2.679563E0,3.6957974E0,2.116176E0,3.5642548E0,0E0,0E0,0E0,0E0,0E0,0E0,0E0,0E0,0E0,0E0,0E0,0E0],"parents":[2147483647,0,0,1,1,2,2,3,3,4,4,5,5,6,6,7,7,8,8,9,9,12,12,13,13,15,15,18,18,23,23,24,24,25,25,26,26,29,29,30,30,31,31,32,32],"right_children":[2,4,6,8,10,12,14,16,18,20,-1,-1,22,24,-1,26,-1,-1,28,-1,-1,-1,-1,30,32,34,36,-1,-1,38,40,42,44,-1,-1,-1,-1,-1,-1,-1,-1,-1,-1,-1,-1],"split_conditions":[-2.4950719E-1,3E1,-1.515086E-1,2.6918015E0,8.3666734E4,2.1694323E1,3.8250368E0,2.3176224E0,3.7676423E0,9E0,-6.4782016E-2,-1.7675312E-2,1.00565445E2,6.948123E-1,-8.047735E-2,1.0396403E2,6.8535924E-2,-9.882275E-2,9.986227E1,1.609299E-2,1.2524043E-1,2.0106462E-1,1.997701E-2,9.400182E1,1.0609933E2,-8.951886E-1,1.0989475E2,-6.129055E-2,5.359887E-2,1.3E1,1.9E1,1.5401632E1,9.918311E4,-8.5954815E-3,-7.5640224E-2,9.557764E-2,-5.2469768E-2,6.761188E-2,-1.4355994E-2,-4.3994434E-2,6.770769E-2,7.851421E-2,-2.264551E-2,1.4590894E-1,-1.601166E-2],"split_indices":[8,7,8,10,2,3,10,10,10,1,0,0,6,8,0,6,0,0,6,0,0,0,0,6,6,8,6,0,0,7,1,3,2,0,0,0,0,0,0,0,0,0,0,0,0],"split_type":[0,0,0,0,0,0,0,0,0,0,0,0,0,0,0,0,0,0,0,0,0,0,0,0,0,0,0,0,0,0,0,0,0,0,0,0,0,0,0,0,0,0,0,0,0],"sum_hessian":[8.772681E1,2.834067E1,5.9386135E1,2.4261745E1,4.0789237E0,4.6161065E0,5.4770027E1,1.5271694E1,8.990051E0,2.7677436E0,1.3111805E0,1.1717238E0,3.444383E0,5.244023E1,2.3297973E0,1.350709E1,1.7646042E0,6.4696283E0,2.5204225E0,1.3068694E0,1.4608742E0,2.0684159E0,1.3759671E0,3.8678883E1,1.3761347E1,8.467694E0,5.0393953E0,1.2117971E0,1.3086255E0,1.4568226E1,2.4110659E1,8.916431E0,4.8449154E0,1.019189E0,7.4485054E0,2.3397489E0,2.6996467E0,7.8266344E0,6.741591E0,2.1608866E1,2.501792E0,1.7736886E0,7.142743E0,3.0776048E0,1.7673104E0],"tree_param":{"num_deleted":"0","num_feature":"12","num_nodes":"45","size_leaf_vector":"1"}},{"base_weights":[3.6115136E-2,1.4515233E-1,-2.144025E-1,-3.622272E-1,2.4471103E-1,1.4867033E-1,-3.4531134E-1,3.2761925E-1,-8.3038056E-1,6.2390864E-1,9.312769E-2,7.221823E-1,-3.5159174E-1,1.8746078E-1,-5.209452E-1,-3.6470562E-2,7.733121E-1,-9.4209135E-2,-1.2238526E-2,-2.4938612E-1,9.033216E-1,-7.1790256E-2,6.9450384E-1,-2.0445624E-2,1.1671718E-1,-7.9669386E-2,3.632427E-2,-3.182239E-1,1.2786569E-1,4.187884E-2,-6.526622E-1,1.2429335E-1,-1.449051E-2,7.682816E-2,-7.986926E-2,1.0889554E0,-1.4580867E-2,-2.0118184E-1,8.399029E-1,1.0880736E0,-3.1580728E-2,-7.140178E-2,1.356888E-1,2.0983584E-2,-7.4519026E-1,1.3750575E-1,3.97194E-2,9.260516E-2,-3.3339676E-2,1.4281687E-2,1.1131638E-1,5.2563823E-3,1.4395782E-1,-6.413557E-2,5.0939478E-2,7.430754E-2,-5.525881E-2,-8.7600194E-2,-3.5116456E-2],"categories":[],"categories_nodes":[],"categories_segments":[],"categories_sizes":[],"default_left":[0,0,0,0,0,0,0,0,0,0,0,0,0,0,0,0,0,0,0,0,0,0,0,0,0,0,0,0,0,0,0,0,0,0,0,0,0,0,0,0,0,0,0,0,0,0,0,0,0,0,0,0,0,0,0,0,0,0,0],"id":29,"left_children":[1,3,5,7,9,11,13,15,17,19,21,23,25,27,29,-1,31,-1,-1,33,35,37,39,-1,-1,-1,-1,41,-1,-1,43,-1,-1,-1,-1,45,-1,47,49,51,53,-1,55,-1,57,-1,-1,-1,-1,-1,-1,-1,-1,-1,-1,-1,-1,-1,-1],"loss_changes":[2.5176342E0,3.3225455E0,1.382574E0,3.793749E0,3.0524442E0,2.5840352E0,2.0521247E0,1.8636045E0,4.208622E-1,3.9535213E0,4.00072E0,1.9338636E0,1.8835583E0,3.6701882E0,2.2504778E0,0E0,1.6629155E0,0E0,0E0,3.1220486E0,2.455284E0,3.9638212E0,2.511094E0,0E0,0E0,0E0,0E0,9.66752E-1,0E0,0E0,1.3055997E0,0E0,0E0,0E0,0E0,1.4601202E0,0E0,4.6275005E0,6.394253E-1,1.9803748E0,1.6522464E0,0E0,1.7047517E0,0E0,3.740368E-1,0E0,0E0,0E0,0E0,0E0,0E0,0E0,0E0,0E0,0E0,0E0,0E0,0E0,0E0],"parents":[2147483647,0,0,1,1,2,2,3,3,4,4,5,5,6,6,7,7,8,8,9,9,10,10,11,11,12,12,13,13,14,14,16,16,19,19,20,20,21,21,22,22,27,27,30,30,35,35,37,37,38,38,39,39,40,40,42,42,44,44],"right_children":[2,4,6,8,10,12,14,16,18,20,22,24,26,28,30,-1,32,-1,-1,34,36,38,40,-1,-1,-1,-1,42,-1,-1,44,-1,-1,-1,-1,46,-1,48,50,52,54,-1,56,-1,58,-1,-1,-1,-1,-1,-1,-1,-1,-1,-1,-1,-1,-1,-1],"split_conditions":[3.331927E0,8.382231E1,8.8057945E1,7.5519775E1,9.400182E1,3.9691193E1,-5.198607E-1,1.2528199E-1,5.6783915E-1,8.3745545E-1,3.4696164E0,-2.8167635E-1,7.901664E1,-6.386746E-1,2.6054895E-1,-3.6470562E-2,3.8369375E-1,-9.4209135E-2,-1.2238526E-2,8.339779E-1,3.4116974E0,9.4425705E1,-6.528542E-2,-2.0445624E-2,1.1671718E-1,-7.9669386E-2,3.632427E-2,1.0317095E2,1.2786569E-1,4.187884E-2,4.767763E4,1.2429335E-1,-1.449051E-2,7.682816E-2,-7.986926E-2,2.3845005E0,-1.4580867E-2,6.9785786E0,9.284203E-2,-5.486106E-1,9.153083E4,-7.140178E-2,1.07783066E2,2.0983584E-2,3.0346956E0,1.3750575E-1,3.97194E-2,9.260516E-2,-3.3339676E-2,1.4281687E-2,1.1131638E-1,5.2563823E-3,1.4395782E-1,-6.413557E-2,5.0939478E-2,7.430754E-2,-5.525881E-2,-8.7600194E-2,-3.5116456E-2],"split_indices":[4,6,6,6,6,3,8,8,8,4,10,8,3,8,10,0,8,0,0,10,10,9,8,0,0,0,0,6,0,0,2,0,0,0,0,4,0,9,8,8,2,0,6,0,10,0,0,0,0,0,0,0,0,0,0,0,0,0,0],"split_type":[0,0,0,0,0,0,0,0,0,0,0,0,0,0,0,0,0,0,0,0,0,0,0,0,0,0,0,0,0,0,0,0,0,0,0,0,0,0,0,0,0,0,0,0,0,0,0,0,0,0,0,0,0,0,0,0,0,0,0],"sum_hessian":[9.002858E1,6.3019905E1,2.700867E1,9.904651E0,5.3115253E1,7.1215444E0,1.9887127E1,4.1255875E0,5.779063E0,1.4279078E1,3.8836178E1,3.111193E0,4.010351E0,4.913886E0,1.4973241E1,1.6869087E0,2.4386787E0,4.705899E0,1.0731646E0,3.4872558E0,1.0791822E1,3.1169151E1,7.6670256E0,1.1847101E0,1.9264829E0,2.400888E0,1.6094633E0,3.8418555E0,1.0720304E0,1.572783E0,1.3400458E1,1.379498E0,1.0591809E0,1.0827218E0,2.4045339E0,9.137133E0,1.6546899E0,2.7977755E1,3.191397E0,4.648685E0,3.0183408E0,1.7462049E0,2.0956507E0,1.1754763E0,1.2224982E1,5.7650375E0,3.3720949E0,2.3067548E0,2.5671E1,1.3275273E0,1.8638697E0,1.4694171E0,3.179268E0,1.3317121E0,1.6866286E0,1.0709491E0,1.0247016E0,8.2596655E0,3.965316E0],"tree_param":{"num_deleted":"0","num_feature":"12","num_nodes":"59","size_leaf_vector":"1"}},{"base_weights":[-6.4972505E-2,2.6049536E-1,-1.310582E-1,-7.044769E-2,4.1847506E-1,-3.195036E-1,9.730282E-3,9.9764156E-1,2.741097E-2,-5.374204E-1,1.0673215E-1,2.4587633E-1,-1.9868131E-1,1.215709E0,1.7651109E-2,-2.5138316E-1,1.0376363E-1,-6.509467E-2,-7.530795E-1,-2.3460616E-1,8.200599E-1,3.9919454E-1,-5.892917E-1,-4.659331E-2,-6.3555455E-1,4.6238042E-2,1.5787108E-1,-8.056212E-2,1.2990877E-1,4.295196E-1,-6.628057E-2,-2.262988E-1,-8.272292E-1,4.0227288E-1,-7.343367E-1,1.4099418E-1,9.0129126E-4,1.2302025E-1,7.871273E-1,-6.823778E-2,-1.7391637E-2,-4.068417E-1,9.637613E-2,-8.2646236E-2,-1.974644E-1,4.5370083E-2,-3.8420413E-2,-1.8688127E-2,1.0260524E-1,2.5802225E-2,-5.8039855E-2,-9.3311E-2,-2.2684013E-2,-4.0474616E-2,1.1092178E-1,-1.5860066E-2,-8.5316256E-2,8.562737E-2,-5.872901E-3,1.2451738E-1,-2.4619589E-2,-8.0657095E-2,2.9991826E-2,-5.300076E-2,2.826492E-2,2.6957778E-2,-5.8373947E-2],"categories":[],"categories_nodes":[],"categories_segments":[],"categories_sizes":[],"default_left":[0,0,0,0,0,0,0,0,0,0,0,0,0,0,0,0,0,0,0,0,0,0,0,0,0,0,0,0,0,0,0,0,0,0,0,0,0,0,0,0,0,0,0,0,0,0,0,0,0,0,0,0,0,0,0,0,0,0,0,0,0,0,0,0,0,0,0],"id":30,"left_children":[1,3,5,-1,7,9,11,13,15,17,19,21,23,25,-1,27,-1,29,31,33,35,37,39,41,43,-1,-1,-1,45,47,-1,49,51,53,55,-1,-1,57,59,-1,-1,61,63,-1,65,-1,-1,-1,-1,-1,-1,-1,-1,-1,-1,-1,-1,-1,-1,-1,-1,-1,-1,-1,-1,-1,-1],"loss_changes":[1.9372871E0,2.6224446E0,1.9720703E0,0E0,3.0864382E0,3.0078344E0,2.1871982E0,7.7258635E-1,2.8618057E0,2.108882E0,3.0120738E0,2.9006457E0,1.5406177E0,4.1482162E-1,0E0,1.8042544E0,0E0,2.5715187E0,3.77203E-1,3.0357063E0,1.8868265E0,1.8512869E0,2.1775365E-2,9.9766266E-1,3.405838E-1,0E0,0E0,0E0,1.1108137E0,1.9712365E0,0E0,6.916067E-1,5.6959915E-1,2.9772806E0,2.189548E-1,0E0,0E0,1.6237793E0,3.7979212E0,0E0,0E0,1.7896681E0,1.7985357E0,0E0,7.242294E-1,0E0,0E0,0E0,0E0,0E0,0E0,0E0,0E0,0E0,0E0,0E0,0E0,0E0,0E0,0E0,0E0,0E0,0E0,0E0,0E0,0E0,0E0],"parents":[2147483647,0,0,1,1,2,2,4,4,5,5,6,6,7,7,8,8,9,9,10,10,11,11,12,12,13,13,15,15,17,17,18,18,19,19,20,20,21,21,22,22,23,23,24,24,28,28,29,29,31,31,32,32,33,33,34,34,37,37,38,38,41,41,42,42,44,44],"right_children":[2,4,6,-1,8,10,12,14,16,18,20,22,24,26,-1,28,-1,30,32,34,36,38,40,42,44,-1,-1,-1,46,48,-1,50,52,54,56,-1,-1,58,60,-1,-1,62,64,-1,66,-1,-1,-1,-1,-1,-1,-1,-1,-1,-1,-1,-1,-1,-1,-1,-1,-1,-1,-1,-1,-1,-1],"split_conditions":[4.767763E4,1E0,2.1617312E0,-7.044769E-2,1.3937993E0,1.000393E5,3.3393395E0,3E0,3.4E1,3.1248833E1,1.1E1,4E0,1.09230695E5,2.5463414E-1,1.7651109E-2,4.2661254E4,1.0376363E-1,1.035379E0,3.3282363E-1,1E0,1.1359985E5,6.527598E1,6.668666E1,5.6668652E4,4.3794155E0,4.6238042E-2,1.5787108E-1,-8.056212E-2,1E0,6.978896E4,-6.628057E-2,6.087249E4,1.8586965E0,4.7683777E1,1.14534734E5,1.4099418E-1,9.0129126E-4,5.2633742E4,1.0745206E5,-6.823778E-2,-1.7391637E-2,4.6036983E0,2.650914E1,-8.2646236E-2,4.587429E0,4.5370083E-2,-3.8420413E-2,-1.8688127E-2,1.0260524E-1,2.5802225E-2,-5.8039855E-2,-9.3311E-2,-2.2684013E-2,-4.0474616E-2,1.1092178E-1,-1.5860066E-2,-8.5316256E-2,8.562737E-2,-5.872901E-3,1.2451738E-1,-2.4619589E-2,-8.0657095E-2,2.9991826E-2,-5.300076E-2,2.826492E-2,2.6957778E-2,-5.8373947E-2],"split_indices":[2,7,4,0,4,2,4,0,7,3,7,0,2,8,0,2,0,4,4,11,2,3,9,2,4,0,0,0,11,2,0,2,4,3,2,0,0,2,2,0,0,4,9,0,4,0,0,0,0,0,0,0,0,0,0,0,0,0,0,0,0,0,0,0,0,0,0],"split_type":[0,0,0,0,0,0,0,0,0,0,0,0,0,0,0,0,0,0,0,0,0,0,0,0,0,0,0,0,0,0,0,0,0,0,0,0,0,0,0,0,0,0,0,0,0,0,0,0,0,0,0,0,0,0,0,0,0,0,0,0,0,0,0,0,0,0,0],"sum_hessian":[8.7482376E1,1.4268606E1,7.321377E1,1.5206822E0,1.2747924E1,3.076518E1,4.244859E1,4.513028E0,8.234896E0,2.0184715E1,1.0580467E1,1.9815907E1,2.263268E1,3.18631E0,1.3267181E0,7.042518E0,1.192378E0,6.73528E0,1.3449434E1,7.6100507E0,2.970416E0,1.7183432E1,2.632476E0,1.7609104E1,5.023577E0,1.7754768E0,1.4108334E0,2.4167328E0,4.6257854E0,3.8394632E0,2.895817E0,2.159518E0,1.1289916E1,3.4316378E0,4.178413E0,1.2921801E0,1.678236E0,1.0806946E1,6.376486E0,1.6254194E0,1.0070566E0,4.4785604E0,1.3130544E1,2.8814209E0,2.1421564E0,2.9103396E0,1.7154456E0,2.226022E0,1.6134413E0,1.0266472E0,1.1328707E0,9.126287E0,2.163629E0,1.8020097E0,1.6296281E0,1.1142707E0,3.0641422E0,1.4094272E0,9.397518E0,4.2760158E0,2.10047E0,2.7704346E0,1.7081256E0,2.5867403E0,1.0543803E1,1.106457E0,1.0356994E0],"tree_param":{"num_deleted":"0","num_feature":"12","num_nodes":"67","size_leaf_vector":"1"}},{"base_weights":[2.3369342E-2,-1.5014707E-1,1.662198E-1,-2.4203956E-1,5.348968E-1,9.3892723E-1,9.459691E-2,-8.892032E-2,-1.1937712E-1,9.498366E-2,2.5182338E-2,1.3598439E-1,1.0575326E-2,1.618498E-1,-5.1445365E-1,2.5873354E-1,-3.847983E-1,-2.8431578E-2,3.642428E-2,8.817279E-2,7.988397E-1,-8.0951504E-2,1.9469896E-2,-2.9492807E-1,7.4002814E-1,-5.1324445E-1,6.509527E-2,5.271304E-1,-6.5945834E-2,1.109879E-1,5.418061E-3,2.6081556E-2,-8.374571E-2,1.615513E-1,1.753471E-2,-1.8663011E-2,-8.1458695E-2,7.969366E-2,-2.306517E-2,-2.8321331E-2,4.3689523E-2],"categories":[],"categories_nodes":[],"categories_segments":[],"categories_sizes":[],"default_left":[0,0,0,0,0,0,0,0,0,0,0,0,0,0,0,0,0,0,0,0,0,0,0,0,0,0,0,0,0,0,0,0,0,0,0,0,0,0,0,0,0],"id":31,"left_children":[1,3,5,7,9,11,13,-1,15,-1,17,-1,-1,19,21,23,25,-1,-1,27,29,-1,-1,31,33,35,-1,37,39,-1,-1,-1,-1,-1,-1,-1,-1,-1,-1,-1,-1],"loss_changes":[2.2241614E0,2.6844673E0,2.6305919E0,2.7893708E0,1.0572814E0,1.2786715E0,1.9707515E0,0E0,3.2928326E0,0E0,4.520891E-1,0E0,0E0,1.9128476E0,1.1665157E0,3.8746476E0,2.8747642E0,0E0,0E0,2.6733105E0,9.258783E-1,0E0,0E0,2.3579159E0,3.486476E0,1.5752344E0,0E0,2.278732E0,3.3745706E0,0E0,0E0,0E0,0E0,0E0,0E0,0E0,0E0,0E0,0E0,0E0,0E0],"parents":[2147483647,0,0,1,1,2,2,3,3,4,4,5,5,6,6,8,8,10,10,13,13,14,14,15,15,16,16,19,19,20,20,23,23,24,24,25,25,27,27,28,28],"right_children":[2,4,6,8,10,12,14,-1,16,-1,18,-1,-1,20,22,24,26,-1,-1,28,30,-1,-1,32,34,36,-1,38,40,-1,-1,-1,-1,-1,-1,-1,-1,-1,-1,-1,-1],"split_conditions":[1E1,1.4112197E5,1.3764411E0,-6.1632776E-1,1E0,8E0,1.332163E5,-8.892032E-2,3.486512E-2,9.498366E-2,1.4381636E0,1.3598439E-1,1.0575326E-2,9.0880305E-1,1.5420483E5,-2.4950719E-1,9.66097E1,-2.8431578E-2,3.642428E-2,-5.1406306E-1,2.5E1,-8.0951504E-2,1.9469896E-2,-4.1723123E-1,-1.515086E-1,5.409725E1,6.509527E-2,1.6E1,7.554311E1,1.109879E-1,5.418061E-3,2.6081556E-2,-8.374571E-2,1.615513E-1,1.753471E-2,-1.8663011E-2,-8.1458695E-2,7.969366E-2,-2.306517E-2,-2.8321331E-2,4.3689523E-2],"split_indices":[7,2,4,8,11,1,2,0,8,0,4,0,0,8,2,8,9,0,0,8,7,0,0,8,8,9,0,1,3,0,0,0,0,0,0,0,0,0,0,0,0],"split_type":[0,0,0,0,0,0,0,0,0,0,0,0,0,0,0,0,0,0,0,0,0,0,0,0,0,0,0,0,0,0,0,0,0,0,0,0,0,0,0,0,0],"sum_hessian":[8.772446E1,3.958753E1,4.813693E1,3.547549E1,4.1120396E0,3.0561519E0,4.5080776E1,4.656857E0,3.0818634E1,1.7907708E0,2.3212688E0,1.6104388E0,1.445713E0,4.12591E1,3.8216739E0,1.2721369E1,1.8097265E1,1.2979479E0,1.023321E0,3.800204E1,3.2570593E0,2.5988362E0,1.2228376E0,6.0959997E0,6.625369E0,1.6549402E1,1.5478629E0,9.246384E0,2.875566E1,1.9514844E0,1.3055749E0,3.2678316E0,2.828168E0,1.8681101E0,4.757259E0,8.718769E0,7.830633E0,6.7805266E0,2.4658573E0,2.038464E1,8.371018E0],"tree_param":{"num_deleted":"0","num_feature":"12","num_nodes":"41","size_leaf_vector":"1"}},{"base_weights":[8.098207E-2,-1.1958384E-1,1.7802016E-1,-2.2905968E-1,8.5839754E-1,4.7769976E-1,5.0715122E-2,3.60117E-1,-4.370492E-1,1.8653242E-2,1.1135037E-1,1.0828574E0,2.883365E-1,-3.7205416E-1,1.7377004E-1,-3.0060707E-2,1.2059491E-1,1.1793915E-1,-6.024171E-1,2.6080415E-2,1.6411331E-1,5.9273976E-1,-4.8506087E-1,-8.438931E-2,-3.241843E-2,6.3209105E-1,-1.699054E-2,5.7469983E-2,-4.1849136E-1,1.0050019E-1,-3.3231655E-1,-7.272155E-1,3.6247686E-2,-9.577873E-3,7.501958E-1,3.0616999E-2,-7.984757E-2,3.4780174E-1,-7.1432434E-2,-4.3524906E-1,9.6254516E-1,-1.6638364E-1,5.391893E-1,3.733732E-2,-7.736849E-2,-6.449631E-2,3.2530207E-2,-6.736432E-3,-7.765799E-2,-6.6549234E-2,9.122508E-2,1.5928493E-1,4.2091858E-2,-1.0723908E-2,9.398975E-2,-5.663195E-2,-9.221496E-3,1.3336165E-1,4.1528023E-3,-6.753821E-2,-6.30411E-4,1.2526564E-1,-3.8329754E-3],"categories":[],"categories_nodes":[],"categories_segments":[],"categories_sizes":[],"default_left":[0,0,0,0,0,0,0,0,0,0,0,0,0,0,0,0,0,0,0,0,0,0,0,0,0,0,0,0,0,0,0,0,0,0,0,0,0,0,0,0,0,0,0,0,0,0,0,0,0,0,0,0,0,0,0,0,0,0,0,0,0,0,0],"id":32,"left_children":[1,3,5,7,9,11,13,15,17,-1,-1,19,21,23,25,27,-1,29,31,-1,-1,33,35,-1,37,39,41,-1,43,-1,45,47,49,-1,51,-1,-1,53,-1,55,57,59,61,-1,-1,-1,-1,-1,-1,-1,-1,-1,-1,-1,-1,-1,-1,-1,-1,-1,-1,-1,-1],"loss_changes":[1.7265377E0,3.3193972E0,2.243836E0,3.4684968E0,3.316679E-1,1.7053485E0,2.2935536E0,2.5438094E0,1.9453208E0,0E0,0E0,1.3312073E0,3.7654216E0,1.571557E0,2.9716678E0,1.691117E0,0E0,2.540463E0,1.2934637E0,0E0,0E0,1.2698679E0,1.415513E0,0E0,2.0222447E0,3.93871E0,2.157571E0,0E0,1.5092218E0,0E0,1.1177342E0,3.824196E-1,2.7901075E0,0E0,1.8564487E0,0E0,0E0,1.4654074E0,0E0,8.481228E-2,2.6552968E0,1.6564645E0,2.3163996E0,0E0,0E0,0E0,0E0,0E0,0E0,0E0,0E0,0E0,0E0,0E0,0E0,0E0,0E0,0E0,0E0,0E0,0E0,0E0,0E0],"parents":[2147483647,0,0,1,1,2,2,3,3,4,4,5,5,6,6,7,7,8,8,11,11,12,12,13,13,14,14,15,15,17,17,18,18,21,21,22,22,24,24,25,25,26,26,28,28,30,30,31,31,32,32,34,34,37,37,39,39,40,40,41,41,42,42],"right_children":[2,4,6,8,10,12,14,16,18,-1,-1,20,22,24,26,28,-1,30,32,-1,-1,34,36,-1,38,40,42,-1,44,-1,46,48,50,-1,52,-1,-1,54,-1,56,58,60,62,-1,-1,-1,-1,-1,-1,-1,-1,-1,-1,-1,-1,-1,-1,-1,-1,-1,-1,-1,-1],"split_conditions":[3.825888E1,1.9E1,5.4706123E1,8.339779E-1,1E0,8.145796E1,8.73046E1,6.780806E-1,5.3413763E0,1.8653242E-2,1.1135037E-1,2.9845756E-1,3.4386103E0,-2.149476E-1,9.553936E1,2.6054895E-1,1.2059491E-1,3E0,3.330733E1,2.6080415E-2,1.6411331E-1,-4.8601654E-1,4.0408054E1,-8.438931E-2,5.895955E-1,6.6948074E1,6.5075594E-1,5.7469983E-2,7.2917013E0,1.0050019E-1,4.3594923E0,8.145796E1,3.2425241E0,-9.577873E-3,-3.3382574E-1,3.0616999E-2,-7.984757E-2,3.3561245E-1,-7.1432434E-2,2.1617312E0,1.4E1,9.986227E1,7.9505724E-1,3.733732E-2,-7.736849E-2,-6.449631E-2,3.2530207E-2,-6.736432E-3,-7.765799E-2,-6.6549234E-2,9.122508E-2,1.5928493E-1,4.2091858E-2,-1.0723908E-2,9.398975E-2,-5.663195E-2,-9.221496E-3,1.3336165E-1,4.1528023E-3,-6.753821E-2,-6.30411E-4,1.2526564E-1,-3.8329754E-3],"split_indices":[9,1,9,10,11,6,6,10,9,0,0,8,4,8,6,10,0,1,9,0,0,8,9,0,8,9,8,0,9,0,9,6,4,0,8,0,0,8,0,4,1,6,8,0,0,0,0,0,0,0,0,0,0,0,0,0,0,0,0,0,0,0,0],"split_type":[0,0,0,0,0,0,0,0,0,0,0,0,0,0,0,0,0,0,0,0,0,0,0,0,0,0,0,0,0,0,0,0,0,0,0,0,0,0,0,0,0,0,0,0,0,0,0,0,0,0,0,0,0,0,0,0,0,0,0,0,0,0,0],"sum_hessian":[8.6617035E1,2.8166983E1,5.8450054E1,2.6020063E1,2.1469188E0,1.66062E1,4.1843853E1,6.5980883E0,1.9421974E1,1.0672724E0,1.0796465E0,2.8332927E0,1.3772907E1,8.977419E0,3.2866436E1,5.175239E0,1.4228494E0,4.5244274E0,1.4897548E1,1.7393234E0,1.0939693E0,1.0050641E1,3.7222655E0,3.136013E0,5.8414063E0,8.979287E0,2.3887148E1,1.8364564E0,3.3387828E0,1.1084893E0,3.4159381E0,1.2346355E1,2.5511925E0,1.9435711E0,8.10707E0,1.0626556E0,2.65961E0,4.06486E0,1.7765464E0,2.0478318E0,6.931455E0,1.9381903E1,4.505245E0,1.0180255E0,2.3207572E0,2.328271E0,1.0876675E0,1.0239463E0,1.1322409E1,1.5499121E0,1.0012803E0,1.1996453E0,6.907425E0,2.7614765E0,1.3033834E0,1.0107281E0,1.0371037E0,4.6215024E0,2.3099527E0,3.8670285E0,1.5514874E1,1.4924464E0,3.012799E0],"tree_param":{"num_deleted":"0","num_feature":"12","num_nodes":"63","size_leaf_vector":"1"}},{"base_weights":[2.6057009E-3,2.672562E-1,-1.23761766E-1,7.2803885E-1,-4.642129E-2,-4.3196705E-1,3.7230235E-2,1.0804058E0,2.3428254E-2,-2.871143E-1,1.0865371E0,5.0207555E-2,-5.577273E-1,-1.2148889E-1,5.239051E-1,1.3616942E-1,4.0139398E-1,-3.8524938E-1,7.8965366E-2,-5.771019E-1,4.6530578E-1,3.0550903E-2,1.293695E-1,1.5302047E-1,-6.852168E-1,-2.182499E-1,7.493569E-1,7.2117996E-1,-3.8257256E-2,-1.6718546E-2,6.956189E-2,-6.552963E-2,6.7986096E-3,-7.789745E-1,4.6118833E-2,-2.4807228E-2,7.779651E-1,7.088165E-2,-3.377431E-2,-2.4433236E-1,-8.4358567E-1,2.1197413E-1,-3.816488E-1,1.1913109E-1,-1.3879751E-2,6.8157315E-2,1.0521904E0,-9.673286E-2,-5.0879624E-3,5.100145E-2,-5.7185125E-2,2.7449867E-2,9.967362E-2,-7.61454E-2,2.9581944E-2,-2.5510916E-2,-9.760597E-2,-2.4152948E-2,8.900629E-2,2.9038602E-2,-5.5873986E-2,7.823875E-2,-6.684669E-2,1.285402E-1,2.5670785E-2],"categories":[],"categories_nodes":[],"categories_segments":[],"categories_sizes":[],"default_left":[0,0,0,0,0,0,0,0,0,0,0,0,0,0,0,0,0,0,0,0,0,0,0,0,0,0,0,0,0,0,0,0,0,0,0,0,0,0,0,0,0,0,0,0,0,0,0,0,0,0,0,0,0,0,0,0,0,0,0,0,0,0,0,0,0],"id":33,"left_children":[1,3,5,7,9,11,13,15,17,19,21,-1,23,25,27,-1,29,31,-1,33,35,-1,-1,37,39,41,43,45,-1,-1,-1,-1,-1,47,49,-1,51,-1,-1,53,55,57,59,-1,-1,61,63,-1,-1,-1,-1,-1,-1,-1,-1,-1,-1,-1,-1,-1,-1,-1,-1,-1,-1],"loss_changes":[2.9745722E0,4.187998E0,3.0037932E0,2.8798285E0,5.231494E0,2.7162483E0,3.1900156E0,9.3901443E-1,1.8457825E0,3.6876776E0,1.500299E-1,0E0,1.80408E0,2.8036911E0,2.089504E0,0E0,7.3465395E-1,5.197681E-1,0E0,1.5151353E0,1.2887988E0,0E0,0E0,1.2403286E0,9.1684055E-1,2.1176538E0,1.48374E0,1.8036041E0,0E0,0E0,0E0,0E0,0E0,1.1763501E0,1.3869576E0,0E0,1.2926316E-1,0E0,0E0,1.8056989E0,6.4166164E-1,2.8651354E0,2.7037535E0,0E0,0E0,2.6209593E0,7.252598E-1,0E0,0E0,0E0,0E0,0E0,0E0,0E0,0E0,0E0,0E0,0E0,0E0,0E0,0E0,0E0,0E0,0E0,0E0],"parents":[2147483647,0,0,1,1,2,2,3,3,4,4,5,5,6,6,7,7,8,8,9,9,10,10,12,12,13,13,14,14,16,16,17,17,19,19,20,20,23,23,24,24,25,25,26,26,27,27,33,33,34,34,36,36,39,39,40,40,41,41,42,42,45,45,46,46],"right_children":[2,4,6,8,10,12,14,16,18,20,22,-1,24,26,28,-1,30,32,-1,34,36,-1,-1,38,40,42,44,46,-1,-1,-1,-1,-1,48,50,-1,52,-1,-1,54,56,58,60,-1,-1,62,64,-1,-1,